566 200
SLK 0.001365332 -0.0017459366 -0.00080282777 0.0011080382 -0.0020799749 0.0023665277 0.00064222724 -0.00020277791 -0.0024961173 0.0017166281 0.0016223168 -0.00068261253 -0.0018985914 0.002186477 -0.001368902 -0.0022669677 -0.0009672694 0.0020265202 -0.00024468428 -0.0013020429 -0.0017395875 0.0016356348 -0.00079645164 0.0023032813 0.0024860792 -0.002388357 -0.0014398484 0.00140585 -0.0003748012 -0.0018963028 -0.00017838413 -0.00024190723 0.00024986145 0.002378538 -0.0017191146 0.0023616562 0.001670377 -0.0006269774 -0.0010054546 -0.0011329858 -0.002181357 -0.0020793916 0.002035759 -0.0010104823 0.001482032 -0.0010092463 0.001162038 -0.0023821024 0.00028114635 9.705908e-05 0.0016195059 -0.00094875274 0.0009430515 -0.002029896 0.0018548059 0.0015280207 -0.00028816742 -6.1781415e-05 -0.00077087915 0.0020475688 8.588983e-05 0.00056099205 6.22821e-05 -0.0013446079 -0.0014237356 0.00075389433 -0.00020252455 -0.00095345493 -0.0007824703 -6.162045e-05 0.0013330202 0.0012728372 0.00080652465 0.0008436353 -0.00021207609 -0.00042457427 0.0024297654 -0.0019191144 0.0012694756 -0.001921155 -0.002058659 -0.0018455927 -0.00024249138 0.0005863274 0.001842689 0.0017758207 0.0018838848 0.00086066633 0.0009819923 0.0008530649 0.002333635 -0.00085565896 0.0010997982 0.00025894376 0.0006055406 0.0023264794 -0.0022238959 -0.0010392709 -0.0014932489 -0.00032574497 0.0016898713 6.475457e-05 -0.00020890188 -0.0020446135 0.001034813 0.0024149076 0.00049705803 0.00037050515 -0.0010721524 0.0014172499 4.999024e-05 -0.0023446355 -0.0006348178 -0.0012540983 0.0018404622 -0.0003905339 0.00080044504 -0.0023580764 -0.0022149365 0.0020088993 -0.0017798219 -0.0015909666 0.001320036 0.0014704384 0.0014685178 0.001332087 0.0014647129 0.00032574587 0.0011028486 -0.0016243214 -0.0009946597 -0.00050526607 -0.00020703339 -0.00022913209 0.0010527589 -0.0023309358 0.0007664553 -5.982858e-05 -0.00026066264 -0.0006642904 -0.0017259198 -0.0019114831 -0.0002447919 -0.000932948 0.0011330452 0.00060474453 -0.00040816146 0.0024577135 0.0020908166 -0.00016210739 -0.0013720029 0.0022247606 -0.0004630553 -0.002023366 0.0010714133 0.0010599708 0.0024086582 1.5625536e-05 -0.00033240227 0.0007969802 0.0024127767 -0.0005245974 0.0023930564 -0.002065922 -0.00049742655 0.00075228175 0.0012057236 -0.0021796646 -0.0017681125 0.002240387 -0.0015084597 2.8815777e-05 0.00062441436 0.0017449431 -0.00060599134 -0.00016037462 -0.0019211516 -0.00083369436 -0.0017688617 -0.0012831012 0.0018926467 -0.00082292286 0.00015296093 -0.00056383596 -0.000414889 -0.0004348078 -0.0021617427 -0.0022588358 -0.0018406851 -0.00062651787 0.0017154918 0.0023480973 -0.0023299463 0.00028671883 0.0012787611 -0.0020714088 0.0011408264 -0.0013465516 0.0015014345 -0.0017432373
LVC -1.2101434e-05 -0.0022298675 0.001447321 -0.0013246932 0.00057933765 -0.002318466 0.001946672 -0.0009749499 -0.0020036546 -0.00085358316 -0.0008264022 -0.0002964486 0.000796339 0.0021234967 0.0016650832 0.0008551463 -0.0019276019 0.0011267059 2.823315e-05 -0.0015146568 -0.001965077 0.0006863515 -0.0015384579 0.0024484461 0.0018394345 -0.00084675086 -6.0793493e-05 0.002531608 0.0024579482 0.00036317756 0.00021481325 -0.0014953372 -0.0010072981 -0.0020482857 -0.0017800514 -0.0012966199 0.0017186782 0.0011799947 0.0007498256 -0.0021813198 0.0006652456 0.0021067823 -2.0717955e-05 0.002445156 -0.002240867 0.00045164707 0.0018858616 -0.0023328154 0.0011247616 -0.0003575369 0.0011778875 -0.0008954814 -0.0017944037 0.0015972335 0.0008786754 0.000983835 -0.00030637544 0.0005728325 0.002248167 0.0008306682 0.00105836 0.0018650618 0.0022743535 0.00028581268 0.00071605446 -0.00024169416 0.0011736357 0.0006689531 -0.0018869323 -0.00023115014 0.0009952596 -0.0015211194 0.0015442141 -0.000500582 -0.0014211049 -0.0018496842 -0.000335584 -0.0007210559 0.00015120191 0.00039644202 0.0010430668 -0.00044082105 -0.0017261596 0.0001878975 -6.498627e-06 -0.00041374264 -0.0022203664 0.0018215046 0.00023135482 0.00062350027 0.0021234509 0.0012259318 0.0011108622 -0.00033053407 0.001786886 -0.0017536157 -0.001081178 0.0021340956 -0.0026033542 -0.0017164481 -5.1603696e-05 0.0008203894 0.000815006 -0.0011830787 -0.0025397746 0.0012908038 0.0010578367 0.0007687558 -0.0019824638 -0.0018090965 0.0023776954 0.00090518984 0.0009928109 -0.0017016676 -0.00011958652 -0.00023498054 -0.00093090825 0.0014543065 0.000101762074 -0.0019363924 -0.0019871402 0.0006020766 0.0012782746 0.0016028043 0.0014930497 -0.0008283083 0.0023212477 -0.001747195 0.0018787851 -0.0005043542 -0.0025077646 0.0020105902 0.0005604945 -0.001904143 0.0022471056 -0.0004543658 -0.0012556651 0.0023131068 0.0016775967 -0.0022469352 0.0023831276 0.0014916915 -0.00056036137 -0.0007036785 0.0019350946 2.7296175e-05 -0.002405641 0.0016506677 0.00031162662 0.00024170436 -0.001955137 -0.00040681576 -0.0018763471 0.000527749 -0.0018722446 -0.0013782192 0.0011828869 8.325033e-05 -1.0949129e-05 0.00048580967 -0.0017678364 0.00048367732 -0.00074505544 0.0002460737 -0.00073108677 -0.002006152 0.0011331241 0.00015495278 0.0012398598 0.0019121895 0.0017287557 -0.00033076463 -0.0025237477 0.0022280838 -0.002198645 0.0005995861 -0.00246853 0.0007465853 0.0020706463 -0.00081383117 -0.0007469332 0.0014607825 0.0007632729 0.0023291374 -0.00019306217 0.001187411 0.00093764655 -0.0018879144 -0.0006889273 0.0018940241 -0.00080995855 0.002372017 0.0012044337 -0.0017868571 -0.0026471764 -0.0013859932 0.001761541 -0.0005722972 0.0019745587 -0.00040963528
ALG 0.0012163942 -1.1395704e-05 -0.0015445433 0.0014119981 -0.0004288896 -0.0008188948 -0.0008975891 0.0005542822 0.0012580815 0.0007474611 0.0017155554 -0.0010979413 -0.0010706773 0.00043057837 0.0006849664 -0.00017812914 0.0009428199 0.002361802 -0.001949007 0.0006154924 -0.00057212973 -0.0007435086 0.0010786067 -0.0003151602 -0.0015108422 0.0012957015 0.00018743072 0.0017171048 -0.0018211773 -0.0018928488 0.0024305382 0.0010005734 -0.0003350627 -0.00010389696 -0.0023905924 0.0021003815 -0.00067410886 0.0004833399 -0.0009790002 0.0015498498 0.0018925762 -0.00080847985 0.0018177143 -0.0003921809 -0.00075677916 -0.001980657 0.001801308 -0.002251072 -0.00058917596 -0.0010333861 -0.002039125 -0.0022805526 -0.00076548464 0.0025562046 0.0004236266 -0.0020289156 -0.0006686598 0.0016770741 -0.00044210264 -0.00073440076 0.0007157188 -0.0018469109 0.00022575991 0.0017123858 0.0015310074 0.0015184216 -0.0005015512 -0.00029470393 -0.00019793033 -0.001786852 4.7074423e-05 5.7124835e-05 -0.0007185915 0.0022410322 -2.1790117e-06 0.0018046936 0.0006545971 -0.0006919525 9.335256e-05 0.0015451397 -0.0016986774 -0.0023371412 0.0017826679 -0.0020140316 -0.000112806265 -0.00091865915 -0.0009800199 -0.0023361682 -0.002045264 0.0012667312 0.00013963618 0.0010563491 0.0020780384 0.0009071351 -0.0012818206 0.00062672386 0.0013070719 0.0015044227 -0.0020163807 0.0021247736 0.00022419947 0.0018554425 0.00012605882 0.00012884037 -0.0014568977 -0.0018275662 0.0006609362 -0.0006391061 -0.00045826004 -0.0015217296 0.0016845388 -0.00033877522 0.00233914 -0.0010538398 0.0018199447 0.000682214 -0.002418632 -0.00036838403 0.0014243379 -0.0007373504 -0.0018343632 0.0012941512 0.002679849 -0.00045452217 -0.000706978 -0.0013245865 -0.0006290782 8.4747444e-05 -0.0017018523 0.0016457681 0.00095968164 0.0023821983 0.00057472114 -0.0020048367 0.0022193014 0.0022613835 0.0019265289 -0.00087794865 -0.0018288137 0.0016080611 0.0021221256 0.0004689608 -0.00050206477 -0.0005731149 0.002318716 -4.469596e-06 0.0018398154 0.0012324539 -0.00053745124 0.00011868253 0.00027710077 -0.0015171163 0.0024432312 0.0021749628 0.0017632431 -0.0014178911 0.00027463038 0.00060329936 -0.00089325866 0.002390322 -0.0011080769 0.00032230734 -0.0019316368 -0.0006160442 0.00091216504 -0.00014334175 0.0013625543 -0.0021385686 0.00093517866 0.0017074649 0.0019560365 -0.00011591538 -0.0005760375 -0.002049272 -0.0016715509 0.0005302957 0.001447243 -0.0017898091 -0.0007701192 -0.0006586446 -0.0019607812 -0.0013212123 -0.0002569623 -0.0015713134 0.0022911509 0.00048773809 -0.0019006367 0.0013681708 0.0022905506 0.002091458 -0.0015864352 -0.0005568716 -0.001529549 0.0012277166 -0.00031870662 -0.0014932496 -0.0024007966 0.0016871984 0.0023681484 -0.00086322863
LKP 0.002135357 0.0012978144 -0.0023879062 -0.0013605027 0.00012757223 -0.0016747611 0.0022894393 0.0006930845 0.00047412477 -0.0017167822 0.002413538 0.0005922137 0.00017950735 0.001301904 -0.0023677105 -0.0024970672 -0.0024337242 0.0001705478 0.0005261145 0.0016249787 -0.0017952602 -0.0020763187 0.0012030797 -0.0023634057 0.0018641237 0.0011471905 -0.0017418625 -0.0013991599 0.00017457144 0.0011285718 0.00094206276 0.0021761172 -0.001480801 -0.0016498091 -0.00082080066 -0.001196841 -0.002245156 -5.14193e-05 0.0013174823 -0.00015445997 -0.0012304154 0.0006582902 0.0021001291 0.0021077362 0.00017555774 -0.0009410187 0.0015700945 -0.0013149383 -0.00058009895 0.0016218111 0.0015844512 -0.0018166627 0.0008324684 -0.001678829 0.0015956976 -0.0014588695 0.0014566478 0.0014258864 0.0020390966 0.0010725268 -0.0004928459 0.0019959905 0.0018397518 0.0015392308 -0.0013280346 0.00036843945 0.0015301227 8.336267e-05 -0.0013923994 -0.0008919209 0.0004049031 -0.00250933 0.0014087419 0.0006325857 0.00088808284 -0.0024685438 -0.0012331523 0.0008383607 0.0011982427 0.0023261395 -0.0018727777 -0.0024391997 0.002317586 -0.0021184944 -0.0024327524 -0.0011073078 0.001338169 0.001456411 -0.0009834258 0.0020625233 -0.0011889659 -0.0004950032 0.0014023242 0.00031290777 -0.0014209963 -0.0022197827 -0.0010560515 0.00015345194 -0.0017547105 -0.0019985377 -0.002130227 -0.002310778 -0.00030788514 -0.0014612731 7.667901e-05 0.0014330309 0.0015859032 0.0016439605 2.3417419e-05 -0.0016254922 0.0019749354 -0.001628373 -0.0014337681 -0.0019141234 0.0022079572 0.0016743215 0.0010199198 0.001758859 -0.0020015908 0.0019365664 0.00035525646 0.0012824633 0.001085922 -0.002375887 -0.0012081759 0.0009281859 -0.001306167 0.00030875028 -0.0019389063 0.00044747288 -0.0006858449 -8.005862e-05 -0.00024880416 0.0015158897 0.0013171254 -0.0015124768 -0.0023472367 0.0020705764 0.0022091388 -0.002325892 0.0018748818 4.8949834e-05 0.0022990569 0.00096324756 -0.002497618 0.002208181 -0.0015961549 0.0016128701 -0.002234937 0.00010185574 -0.0017780811 0.00185296 -0.0011021371 0.0018970621 -0.00107372 -0.0018946996 0.00028752722 -0.001488597 -0.002195824 0.0021977117 0.0023172293 -0.00014109047 0.002208393 -0.0020488335 -0.00079611834 -0.0021472906 0.0014667488 0.0015634947 -0.0006168139 0.00045162666 0.0021782003 0.0009017532 -0.0017097873 0.0014124921 -0.002268393 0.0006885063 -0.0014491288 -0.00022878729 -0.0022331742 0.00085578725 0.0022815936 -0.0013414318 -0.0022642957 0.00040832502 -0.0022837978 0.0022890433 -0.000994747 -0.0016828155 0.0016114257 0.0005915932 0.0017614915 0.0021434166 -0.0014934894 -0.0011564349 -0.00022444983 -0.0010406949 -0.000964526 -0.00093793037 0.0024813735 0.0013505551
NLV -0.0001146432 0.0020688984 -0.0019071675 -0.0005751842 0.0016839633 0.00010095539 0.00047311012 -0.0008705324 0.00044713754 2.9296281e-05 -0.0022190153 -0.00019104018 0.0016237136 0.00030241467 0.0003852181 0.0024515335 -0.0017934978 -0.0011237944 -0.00080222264 -0.0020025175 0.00081143173 -0.0014398581 -0.0017115674 -0.00014447398 -0.0012076931 -0.00016190992 -0.001074351 -0.00066453737 -0.0013067032 0.0019548514 0.0015630034 -0.00013112427 -0.0018486661 0.00075404067 0.000162179 -0.0011052007 -0.0016664647 -0.00058396126 -0.0010414857 8.3397565e-05 -0.001488013 0.00086589676 -0.0012949582 0.0019016847 0.0019653246 -0.0006226539 0.0006474155 0.001773918 -0.0024450994 -0.0001355792 -0.0009216757 -0.0019204111 0.0017721689 0.00014226542 -0.0022062862 0.0011700429 0.00038238888 -0.0023504428 0.00026374587 0.0004576606 0.0013992666 0.00018770214 0.00064316747 -0.0015479795 -0.002286364 -0.0018908007 -0.001811975 0.0016036421 -0.00015938537 0.00061878236 -0.0005949546 -9.038823e-06 -0.0007532353 0.002457511 0.0022698122 6.450778e-05 0.00091152836 -0.0014554034 0.0010510443 -0.00015448629 -0.00064184266 0.00040434676 -0.0018033829 -0.00033858424 0.0020552478 0.0012847967 -0.0021624689 0.00046760886 0.00082206435 -0.002027687 -0.0023965992 -0.00084477727 0.0015340659 3.913542e-05 0.0014634457 0.00018277709 0.00038157086 8.134333e-05 0.00019896866 -0.0017031697 0.0025027678 -0.0005538137 0.0008535998 -0.0019364062 -0.0021225733 -0.00023033508 -0.00049035467 -0.00029708107 0.00044656408 1.8305233e-05 0.0009380719 -0.0009847496 0.0015537202 -0.0007430589 -0.0015569235 -0.0003969431 0.0012567806 0.00023572402 -0.00012948846 -0.0018203642 0.00014130386 -0.0020956255 0.0016676654 -0.0013141263 0.0020013154 -0.0010220675 -0.0009306604 0.00092652533 0.000919413 -0.0013131854 0.00051166874 0.0022964396 -0.0016754353 -0.001628072 -0.00045579637 -0.0005765236 -0.0016614203 -0.0016509122 0.0016285836 0.0019268454 0.0013827655 -0.00026521372 6.68754e-05 4.4988414e-05 0.00024096262 -0.002414369 0.00053397374 -0.0010460038 -0.000118669464 -0.0006749975 0.00028505418 -0.0014619038 -0.001802827 0.001461668 0.002086892 -0.0022566037 -0.00025550864 -0.00054267386 -0.00237825 0.000118599186 9.192245e-05 -0.0024299538 0.0019257668 2.9225514e-05 -0.00089139177 0.0019435446 -0.00213792 -0.0018597346 0.0010659269 -0.0017644307 -0.0021902262 0.00089002174 -0.0021744063 0.00095385197 0.0005576908 0.0016048121 0.0023308746 -0.0007823886 0.00030841606 -0.00083464326 0.0006769918 0.002328857 0.00048222818 -0.0020431736 0.000105604544 -2.0126454e-05 0.0013386019 0.00082822476 -0.0009136858 -0.0013428138 0.0013522096 0.0023440733 0.0010828688 0.0016451197 0.000842942 0.0001528435 -0.0023800298 0.0003860052 -0.0015987536 -3.0117164e-05
PTV -0.0020697361 -0.0024578716 -0.0014886806 0.0016500223 0.00037945432 -0.0017260254 0.0013597427 -0.00038845203 -0.0019613893 -0.001240405 0.0011631104 -0.002409656 0.0015240035 -0.0009859552 -0.002002462 0.0003815529 0.002007168 -0.002264279 -0.0010815837 0.00054361735 -0.0014682182 -0.0007468823 -0.001250043 0.0018723564 -0.00033445752 0.0018436031 -0.00097529974 0.0011531481 0.002084138 -0.00045927218 -0.002325316 0.0009443033 -0.0011055393 -0.0017353465 -0.0004033104 -0.0018973835 0.0018772752 0.0014488916 0.0022044042 0.0018891844 0.0015501986 -0.00075301237 -0.0022905087 0.0008293611 0.0010952796 0.0001126907 0.0013519656 0.00037011513 0.00036806412 9.3180955e-05 -1.699188e-05 0.0015413687 -0.0012192944 -0.0007680103 0.00014631439 -0.002351414 0.0008182013 0.0016451665 -0.0011135776 -0.002027449 -0.0005051891 0.00033161984 0.0002782012 -0.0008602636 -0.0021174233 0.0021767602 -0.0010090206 -0.0014673915 -0.0022232765 -0.0022560034 -0.0019832652 -0.0025261934 -0.0015900033 -0.0005989262 0.001569061 0.0002720257 -0.001783912 -0.00029606838 0.0001974467 -0.0006114862 0.0010719488 -0.0013185191 -0.0020860774 0.0008644959 0.00050261733 -0.0018109091 0.0022473738 -0.0006287639 0.0014870289 0.0012692546 -0.002374519 0.0019222106 -0.0008816929 0.0012419509 -0.002175058 -0.0016978938 -0.0018452646 -0.0019950243 -0.0021961257 0.0023092069 -0.0003012705 0.0005272256 -0.0020621147 -0.0021083935 -0.0023284033 0.0004265924 -0.0021021538 6.6705994e-05 0.00020983297 -0.00069744413 0.0017864481 -0.0019049238 -0.001414811 0.00199571 0.0017025484 -5.9795047e-06 0.0005852723 0.00014446751 -0.0022062813 0.00043936665 -0.00101459 -0.0014441193 0.0007097652 -0.00043623958 0.0005810278 0.0004913847 0.0009975096 0.0012786357 -0.0009198387 0.0020801285 -0.0012463661 -0.0010185521 0.0022198064 0.0012433091 0.0008143177 0.0013420047 -0.00010035001 0.0009725068 0.0007300866 -0.0013253668 -0.0024315938 -0.0011726847 0.00087104656 -0.00031568177 0.0018009129 -0.00018615437 -0.0001224017 -0.0012946762 -0.00038122435 0.001246729 -0.0024351664 -0.0017242276 -0.0016306491 -0.0016545411 0.0012094787 0.0018000278 -0.0007641376 0.0025102259 -1.1296226e-05 0.0019805692 -0.0020521753 -0.0010604828 0.0010268872 -0.00040066466 -0.0006637771 -0.002365477 -0.0023667417 0.0013314125 -0.001534704 -0.0013371678 0.0010526922 0.0008148701 -0.00043511947 -8.9909496e-05 0.0015120899 -0.0012286552 -0.0007881952 -0.0011905477 0.0006250609 -0.0018736584 -0.002487572 -0.00058988476 -0.001958777 -0.0022982156 -0.0008854129 -8.5517095e-05 0.0023016818 0.0023509585 -0.0012735394 -0.0018515128 -0.0007053444 0.00022061885 -0.0011916733 0.0012257076 -0.0021265943 -0.00036803863 -3.644932e-05 0.001923855 0.0023652485 0.0024299282
KEV 0.0020053855 0.0017977955 -0.0013289818 0.000503868 0.002386261 -0.00221891 0.0017672534 0.0012666241 -0.0022273082 0.0008122166 -0.0014875757 -0.0016115215 0.0009490441 -0.0011296916 -0.0011045831 0.002067813 -0.0012517278 -0.00074927125 0.00076623244 -0.0022636885 0.002369906 -0.0023984844 -0.00106836 -0.0008645087 0.0017781848 0.0012992716 0.0020701033 -0.0006133862 0.0024830864 -0.00015215116 -0.00042050192 -0.0013906205 -0.00020975983 0.0005353467 0.00024302088 9.731378e-05 -0.0010440605 -3.433256e-05 -0.0012996673 -6.6869674e-05 -0.0011469616 -0.0022725957 -0.0011733068 0.0025401823 0.0022995262 -0.0017984352 0.0014671766 0.0022509012 3.40165e-05 -0.0024091941 -0.0010701619 0.00029023804 0.0005315559 0.000625531 0.0013293752 5.1400937e-05 -0.00064913166 0.002365063 -0.0010808092 0.000674322 0.0008212042 0.0011655665 -0.00020027188 -0.0012439069 0.0018057214 0.0012214709 -0.00020304267 -0.0007197882 -0.0016810314 -0.0018865581 -0.002352337 0.0020661403 0.0019053869 0.0012198442 0.00205739 -0.0015563965 0.0018454258 0.00025985687 0.0017899952 0.0007476085 -0.00085874513 -0.0011399647 -0.0010527076 -0.001847756 0.0011523766 0.0018020651 0.0020000641 0.0012047214 4.7141086e-05 0.0012878553 -0.0012432989 -0.0016494158 0.0008474164 0.0015445002 0.002155252 0.00032083588 0.000111033914 0.0005969072 -0.0012769662 7.3541996e-05 -0.0016703027 0.0012133869 -0.0016378186 0.0019470309 -0.0009705484 0.001277199 -0.00026298538 -0.00233618 0.0011574071 0.00058609096 0.00057066564 0.0005026023 0.0020422582 -0.0020307316 0.0018575807 0.002310548 -0.0014936813 0.0022228698 -0.00025232453 -0.0017019315 -0.0016178859 0.0012921767 0.0012502958 -0.00072887744 0.001452976 -0.0014849504 -0.0018163765 -0.0011721076 1.549014e-05 0.000844986 0.0021665317 -0.0019362338 -0.0007619881 0.0012130338 -0.0008919665 -0.0012553293 -6.195319e-05 0.0008949612 -0.0018717772 -0.001911867 -0.0023508973 0.0015257626 0.0005052229 0.00035009652 0.0011776246 -0.0023158658 -0.001938057 0.00095992966 0.0015226653 0.0013844147 -6.2702425e-06 -0.0004596892 -0.0015151895 0.0008167526 6.500215e-05 0.001224643 0.0015590239 -0.0021190783 -0.001162594 -0.0011773608 -0.0022994399 0.0018248926 0.00073258235 0.0007956343 0.0019851164 0.002108217 0.0023159524 0.000486944 0.0013371814 0.001889972 -0.0013643649 -0.0005104742 -0.00018245218 -0.0023983107 -0.0011391151 0.0010021224 0.00024506135 0.001607412 -0.00011151949 -0.00202729 -0.0005665471 0.0017842662 -0.0012695044 0.00024962102 -0.002476626 0.00020011363 -0.00030488908 0.00010216374 -0.0011979084 0.00141769 -0.0006572533 0.0004904565 -0.00071511505 0.0012546922 -0.0003958697 -0.0011119674 0.0004939473 0.0011840085 0.0014711617 -0.0023784456
VPD 0.0011961743 0.002201638 2.630902e-05 -0.0006510564 -0.00097498536 -0.0008774632 -0.0007757772 -0.0016104932 -0.0013520434 0.00037003116 0.0015015581 -0.0015461926 -1.412518e-05 -0.0005851708 0.0013423353 0.0012974598 0.0023716793 0.0019369645 -0.0010358107 -0.0017693593 -0.002434017 0.0020639326 -0.00020288068 0.0020157124 -0.0018122395 0.00035422435 -0.002355461 -0.001131931 -0.0006182394 0.0010333715 0.0014758905 0.00150353 -0.0011448761 0.0022061004 -0.0018607285 -0.0009514055 -0.0023348052 -0.0005134104 4.486783e-05 -0.00064644264 -0.00034384365 0.0008226561 -0.00073086907 -1.5288673e-05 0.00065719703 -0.00019095301 -0.0007249905 -0.0019661135 -0.000899017 0.0018099779 0.0012774512 0.0021278148 -0.00046470916 -0.0014799391 -0.00043703918 -0.002231021 -0.0024364428 -0.0022486297 0.0012605559 0.0006468468 0.00014288219 0.0009913606 -0.0022082676 -0.0003212662 1.7913462e-05 -0.00036130327 -0.0005186971 -0.0007784865 0.002424603 -0.0004711548 0.0005339637 -0.0006948928 -0.0014826867 0.001412154 -0.00045058754 -0.0017060161 0.0020465117 -0.002194476 0.0006445969 -0.0018613652 -0.00034678215 -0.0007001718 -0.0014744218 -0.0017018116 0.0013833554 -0.0025689516 -0.0016383219 -0.0017709652 0.001589819 -0.0011395881 0.002237808 0.0009777711 -0.00021594546 -0.0024226315 0.0015614312 0.0024016895 -0.0002149843 0.00022907792 0.00064106536 -0.00049587915 -0.0006551812 -0.0021588863 0.0011585513 0.0018327065 -0.0023330916 -0.00048291413 -0.0022510123 0.0022289245 0.0018654529 0.0016376054 0.0010593565 0.0019616757 -0.0020683333 -0.00060639065 -0.0011685172 -0.00068344583 0.0019469755 -0.0021552974 0.0012669842 -0.0017819625 -0.0018512837 0.0025127039 0.0023013027 0.0010567047 0.0007216458 0.0016999181 0.0012793683 -0.0019456332 -0.0020768482 0.0019130841 0.0014262442 0.0022399286 0.00093170465 -0.00022526419 0.0015456135 0.0008671318 -0.000441462 0.0014996429 -0.0010879431 -0.0012944762 0.0003112392 -0.00090080925 0.000524058 0.00025067088 -0.0017904369 0.00024091345 0.0023336054 0.0024322332 0.0016521432 -0.0008764263 0.0023946145 0.0008971012 -0.00021359112 -0.0019442444 -0.00046011028 0.0018870434 -0.0019552924 0.00066455005 0.0002821748 -0.0023479853 -0.00065566966 -0.0016352308 -0.0004296215 0.0018683858 -0.0017757774 -0.0023300154 0.00212265 0.0014121102 0.0022992103 -0.0009493471 -0.00067462475 0.00034542292 0.002302517 -0.0017318132 0.0011295011 0.0013102686 0.00042810448 0.0005202866 -0.001232826 0.0012005324 0.0013050889 0.001129238 0.0024969415 -0.0021215952 -0.00022114892 -0.0023703 -0.0007342544 0.0023954841 0.0016672786 5.0911727e-05 -0.00230401 0.0009717714 0.0015108291 0.00038489065 0.0021076696 0.001141044 0.0006059375 -0.0023842135 0.0011145467 -0.00029759234
AYR 0.002302587 -0.0024980397 0.0003695301 0.00044097542 -0.00023018256 0.002047854 -0.0007842025 -0.0013948765 0.0020029652 0.0021514308 0.0023263467 0.00073437294 -0.0018110523 4.667297e-05 -0.0023522372 -0.0024387122 -0.000413379 -0.0006845374 0.00036253865 0.0023486791 -0.0025035446 -0.0003195089 0.0010698789 -0.0006275946 0.0019634848 0.00036314852 0.0008024706 0.0017529478 0.0014131333 -0.0021101185 0.0017767258 -0.0024903447 -0.00016945423 0.0024919696 0.0001835916 0.0014694539 0.0018462895 0.0016944339 0.00014950224 -0.0019594019 -0.0014350851 -0.0023546533 -0.002085831 -0.0019114573 0.0023670068 0.0007979319 -0.0023557902 -0.0019789175 -0.0023000338 -0.0010107716 -0.0022480276 -0.0020544506 0.00029744665 -0.0020327196 -0.0016840025 -0.002406949 0.0015579887 0.0010221337 -0.0025267736 0.0002387026 -0.0024575132 0.00041998093 -0.00011787006 5.515861e-05 -0.0015389456 0.00077976985 -0.002080436 -0.0021070405 0.00018734131 -0.00034511526 0.0014194323 -0.002039406 -0.0018517554 -5.2098218e-05 -0.0022444115 0.0020373757 0.0020158384 -0.0015301884 0.00019803038 -0.00022922811 -0.000596391 -0.00042302266 -0.000991023 -0.0001268203 0.00198606 -0.0017001505 -0.0014035328 0.0018113262 -0.0016944432 -0.00046475028 0.00013341143 -0.0006901338 0.00040294277 0.000802274 0.0015281297 0.0010008974 0.00082704396 -0.0018157108 0.0019644005 0.0006294309 0.0020993536 -0.0024526315 0.001288968 -0.00067200273 0.0024441425 -0.00015465329 0.0009785654 -0.0019613025 -0.0004728109 -0.000548129 0.0023343358 0.0010637151 -0.002076682 -0.0008801303 0.0013794154 -5.9537992e-06 0.001096118 0.0021597333 0.00041223675 0.0008747214 0.0022052955 -0.0022479366 0.0016438233 -0.00032335916 -0.0003544307 0.00069994276 -0.0023668539 -0.0023443068 -0.0003554332 0.0011778037 -0.001175201 0.001728423 0.0013259243 0.0013381246 0.0010923872 -8.813804e-05 0.0010500302 0.0019735754 -0.001724585 0.002288021 -9.002117e-05 0.0011593838 -0.0009133888 -0.0008894029 5.5161177e-05 -0.00041396197 -0.00072108884 0.0015489486 -0.00087181194 0.0020730025 -0.00060217123 -0.00061434694 0.0024070553 -0.0009837395 -0.001004602 -0.0019308097 -0.0018108789 -0.0011544325 0.002278691 -0.0008291121 -0.00020122222 0.0016836601 -0.0012009027 -0.0016875771 -0.00032963173 -0.0002663008 0.0010127645 0.000591486 -0.0017219499 0.001824626 0.0024377627 -0.0020376495 0.0010700794 -0.0009997537 -0.002238909 0.0005337434 0.0010415751 7.561386e-05 -0.00047262653 -0.00026478185 0.001402345 0.0007818654 -0.00072462566 -0.0010298869 0.0010047529 0.00077964686 0.0013004184 0.0009689719 0.0017073338 0.0014302504 0.0015820684 0.0013763305 -0.0013593133 0.001622296 -0.0024766035 0.0011171274 -0.0009563955 0.0017078196 -0.0022576065 -0.0012759442
FAV -0.000813307 -0.00058127946 0.001139696 -0.0010070915 0.002088409 -0.0019109056 -0.0011248738 0.00072543457 -0.00035479505 0.0009806679 0.0017833058 -0.001739103 -0.00071753364 0.0017335275 -0.00080918 0.0010977072 -0.0020021095 0.00230705 0.0020970774 0.0018776172 -0.0015976554 -0.00044556466 0.002311617 -0.0016811567 0.001000939 -0.0009916018 0.0011664471 0.0020692092 0.0012295711 0.0021891068 0.00071421464 -0.00032871217 0.0013380083 -0.0016810359 0.0009562411 0.00046427283 0.0006301554 -0.0019261352 -0.00090006005 0.001497987 -0.00025363805 0.00015863255 -0.00067948503 0.0024821456 0.00057075045 -0.00039519728 -0.0011766306 -0.0012069292 -0.0017979678 -0.0011369577 0.00037904744 0.000113323906 -0.0013653958 0.0024499055 0.0007540414 -0.0021856227 0.0007403821 0.0020678649 -0.0014796135 -0.002247436 -0.0012579882 0.001706831 -2.2618691e-05 -0.0007980551 -0.0020066313 -0.0012829705 0.0015601785 -0.0024828187 -0.00053577754 -0.0015435941 0.0007396131 0.0019129874 9.7153e-05 -0.00056230556 -0.002298702 -0.001546347 0.000334542 0.0012591929 -0.0018047781 0.0016915594 -0.0010745786 -0.0019731594 -0.0012597467 0.0005989174 0.00210317 0.0020557726 0.0013462224 2.458812e-05 -0.0004549783 -0.0012206122 0.0008584367 0.00235329 0.0016816079 -0.00040620938 -0.00026104244 -0.0021594395 0.0013521459 -0.0017362452 -3.305536e-05 -0.0009070471 -0.00014158571 0.00096820423 -0.00020009982 -1.5588457e-05 -0.0008569202 0.0020340479 0.00016438875 -0.0014169954 0.0007046908 -0.0018694161 0.00018839701 -8.184547e-05 0.0019985805 0.0013313288 -0.0018365905 0.00034734953 0.00040252617 0.002280621 -0.0020998402 0.00032993956 0.0010082214 0.0013177289 -0.0011673592 -0.00013185634 -0.00011153388 0.00081850524 0.0020965973 0.0017589272 -0.00073539576 0.0012646795 0.0004640622 -0.00039508688 -0.0015613157 -0.0011707774 0.0003440479 0.00084922445 -0.0009361412 -0.0016387419 0.00053447776 0.0011387031 0.0023012382 0.0007718967 -0.0025226036 0.002199314 0.0021964454 0.0023253832 0.0016597235 -0.0018964832 -0.0016556726 0.0023766353 -0.0012720998 0.00073531043 -9.176568e-05 -0.00081507745 0.0023838698 0.0022946806 -0.001212296 -0.00029308305 -0.002410582 0.0007218492 -0.0020273973 -0.00027005706 0.0020362143 0.0022717512 -0.0013043807 0.0013398638 0.00074782094 -0.0005011303 0.00042312278 -0.0021627292 -0.0013259267 0.001604509 0.0011501522 -0.0019400415 0.0005552215 -0.0011265258 -0.0016331197 0.0012950287 0.0016301244 0.0020957682 -0.0010152886 0.00042068315 -9.329355e-05 -0.0009455071 -0.001704333 -0.0019167576 0.0009921325 -0.0013043404 0.001191436 0.0022538877 0.0011500246 -0.002384981 0.0011308142 0.0021836997 0.0017072015 -0.0015663583 0.0015525166 0.00062002294 -0.0013479051 -0.0022009218
KPS 0.0018734642 -0.0023262787 0.00100257 0.0006062665 -0.00027748794 1.5189056e-05 -5.6775272e-05 0.0015237613 -0.00058053125 0.00015682822 0.0014424638 -0.00012123357 -0.0020198384 0.0010369791 0.00064420584 -0.0015864121 -0.00016996055 0.00013298356 0.0013624397 -0.0008311385 -0.00086797046 -1.9153431e-05 0.0014201832 -0.0016395247 8.9456014e-05 -0.0020668982 0.0020615323 -0.0007021151 0.001644786 -0.0022069265 -0.002401258 -0.002304001 -0.0025109742 0.0009040419 0.0009914055 -0.0009457643 0.0017256641 -0.00062356074 -0.0015367281 -0.0010573207 -0.00070110883 -0.00068176165 -0.001791055 0.0022424473 -0.0017080938 -0.0015891074 0.0001615496 -0.0020685908 0.0005135036 -0.001210283 -0.0019229616 9.609631e-05 0.001482 -0.0019244226 0.0001338693 -0.0015780864 -0.0005423343 1.9460873e-05 -0.0005004905 0.0013127385 -0.0018950698 -0.0013276207 0.0008476218 0.0012552039 0.0020554953 -0.0021378326 0.0017859743 -9.322894e-06 -0.00035527776 0.0014704951 0.0018661849 -0.0021536872 0.00032934462 -3.7895996e-05 -0.0017648806 0.0024213616 0.0005005476 -0.0015993482 0.0009360181 -0.00065055594 -0.0015913787 -0.0020680109 0.00028211935 0.00032587445 -0.00047767189 -0.0008694379 0.0023004361 -0.0016099092 -0.00015386677 -0.0009542632 0.0008273237 0.0014128846 0.002170741 -0.0006230498 -4.2969064e-06 0.0018246198 -0.0019329644 0.00077084143 0.0015928225 -0.002328269 0.0021350647 0.0009825956 0.0017958281 -0.0014289842 -0.001959787 -0.00070782105 0.002473737 0.0009805294 0.002180443 0.0016865195 -0.0009479448 -0.00046100697 -0.0007407172 -0.00043420456 0.0016533867 -0.0007912907 -0.0011651211 0.0022939828 -0.00035153163 -0.00226111 0.0013707472 0.00056068785 0.0012099372 0.00010562548 -0.0015159725 0.0008256626 -0.001307333 0.0020005447 0.0021049492 -0.00020818703 -0.0019907532 -0.00043813695 0.0021224131 -0.0022393207 -0.002051604 -0.0016887193 0.00073095236 -0.0024258266 -0.0020320436 -7.122391e-05 0.00012590954 0.00016737239 -0.0014519042 0.00062639697 -0.0008357731 0.00045422715 -0.0016274084 -0.0018838685 0.001209653 0.0018536953 0.0017615258 0.0019707829 -0.0015930168 0.0023494912 0.0009600739 -0.00049034884 0.0024293237 0.0021763046 0.0019691815 0.0024115294 0.0014444066 -0.0017150244 -0.0007355958 0.00010514555 -0.00070288277 -0.0021366635 -0.0022706483 -0.0005621756 -0.00010427643 0.0021227612 -0.0017487583 0.0006307417 -0.0021305862 0.0014978835 -0.0015155602 0.0022738723 0.0010736489 -0.0006168142 0.0016506001 0.0015138302 0.00054204225 -0.0004337381 0.0024640653 -0.0017608965 0.0015844422 3.7858717e-05 0.0006259419 -0.0010017612 -0.00050725584 -0.0019779918 -0.0003491484 -0.0005656202 0.00082575926 -0.0006022964 -0.0014579282 0.0004346526 -0.0022031965 -0.0023218403 0.001156345 -0.0023462968
PPT -0.0014802669 -0.0016534411 -0.000790562 -0.0004159042 0.0014314789 -0.00023635858 0.0006693115 0.0007951063 -0.0016106501 -0.00051688554 -0.0010858543 0.0007007586 -0.0016333028 0.0018389953 -0.0011839323 -0.0022680159 0.0001318986 0.0009130833 0.0019506257 -0.0020962171 0.0014411351 -0.00097516924 -0.00013204769 -0.00063914456 -0.0020064756 -0.0011314919 0.0011030234 -0.0018366469 -0.0020841078 0.0017207187 -0.00011413048 0.0022709973 -0.0018427897 0.0004499878 0.0006660484 -0.0021216897 -0.0016176722 -0.0011919598 0.00017521273 0.0005638429 6.627302e-05 -0.00073999405 0.0014472146 0.0019095945 0.0023071573 0.0007942053 0.0013948608 0.000308305 -0.00037815643 0.0007966002 0.0008006403 0.0017663244 -0.0011705073 -0.0005960072 -0.0020815076 0.00035896085 0.00017177389 0.0018348295 0.0022376424 -0.00216711 -0.0011544246 0.0020509067 -0.0018580672 -6.306242e-05 0.002088553 0.0016436501 0.0010976429 -0.0013565866 -0.0002974708 -0.0022747319 5.1233324e-05 -0.0013256199 0.00074511074 4.34528e-05 0.00057000975 -0.0008847635 0.00021781308 -0.0016334433 9.724803e-05 -0.0018331826 -0.0011210197 -9.819474e-05 -0.0009398136 0.0018279332 -0.00059156195 -0.002055101 -0.0012869028 0.0011226223 0.001697699 5.8873695e-05 -0.0019799646 0.0014201022 -0.0009407285 -0.0007214916 -0.0014399602 -0.00063363503 -0.001298027 -0.0010466365 -0.00022602086 -0.0006734436 0.00018948338 -0.001104639 0.001755416 -0.0006520147 0.002073134 -7.334299e-06 -0.001708012 0.0011751022 0.0022537354 0.0015377306 0.0023882207 0.0005335212 0.002508997 -0.0018934491 0.0022489063 -0.0018732554 -0.001547909 -0.0022569196 -0.0020805693 -0.0004230001 0.0010578883 0.0018929536 0.0021561573 0.0016101595 -0.0005878957 0.00018209893 -0.0018884363 -0.0020405292 -0.0017837526 -0.0008487507 -0.0013295076 0.0008709466 0.00042384688 -0.0010134238 -0.00028080426 0.001853276 0.002227845 -0.0023573132 -0.0013285652 0.00021676294 -3.7172278e-05 -0.002071595 0.0009175696 -0.0018942885 -0.00065571704 0.000952419 -0.0017318226 0.0014697288 -0.0014862939 -0.0007210285 0.00015832597 -0.0024538296 0.0023764847 -0.0023252817 0.0021105062 -0.00040391018 0.0007199667 0.0002955171 -0.0006750529 0.00096440536 -0.0006109395 -0.0005659676 -0.0014316653 0.0021153952 -0.0013924683 0.0022554891 0.00059891486 0.0020114195 0.0020259398 -0.0010104052 0.00065230567 1.4761759e-05 -0.00092602184 0.00020245144 0.0014865241 0.0002831101 0.0013312573 -0.001983171 -0.00045640822 -0.0021019683 -0.001576676 -0.001084263 0.00044881264 -0.0003718228 -0.0012391501 -0.0013125871 -0.0019283207 -0.0021509319 -0.00050245057 0.0012691218 0.0006967468 0.0007057845 0.0016150406 -0.0024818273 0.0011672581 -0.0014093034 -0.001403465 0.00074102526 -0.001785382 -0.0012242638
PDA 0.0018970306 -0.0010855875 0.0012986547 0.0021088324 -0.0014201028 -0.00069860666 -0.00022041777 -0.002041252 0.0006324752 0.0011798781 -0.0015371097 -0.00024391236 0.0017948804 0.0020223488 0.00047156514 0.0016074001 8.2796025e-05 0.00032041766 0.0015382676 0.0011636422 0.0015487503 0.0018077174 -0.001824095 0.00013512574 0.00022913427 -0.0004950741 0.0021972323 0.0022577553 0.0005510011 -0.0001013262 -0.002320941 -0.0018702525 0.0008564108 0.00206694 0.0020156659 0.00024103449 0.00020404471 0.0013121277 0.0021002134 -0.0024664667 0.0012612961 -0.0018262303 0.00023057312 0.0015979363 -2.2262337e-05 0.000704842 0.00093139376 -0.0017657455 0.002277301 -0.0020192966 0.00054185954 -0.0018535866 0.0005779878 0.002482225 -0.00089740293 0.000510809 -0.00197555 -0.0011534576 -0.0019676487 -0.000183261 0.00036856506 -0.0015306699 -0.0010335344 0.0023162477 -0.0023504728 0.0005419484 -0.0003377997 0.00013134614 0.0010692376 0.0009587831 0.00072967564 -0.0015247875 -0.0016218812 -0.0009004041 -0.0004225536 -0.0023560126 0.00012222429 0.00029281474 0.0011121234 0.001027605 0.0006911839 -5.065751e-05 0.001456318 0.0015245138 -0.0017741516 -0.0008895376 -0.0011237517 -0.0017798641 -0.00015320498 -9.7441334e-05 0.0024178233 -0.0016804073 -0.0015639984 -0.00062650273 -0.0010185039 -0.002334268 -0.00027810098 0.001411767 0.0020617575 0.001026937 -0.0016913402 -0.002176995 0.0005564383 -0.0014254164 0.0005324665 0.0004460311 0.0020088137 0.0020663785 0.0017441146 -0.0011461407 -0.0023156325 -0.0015891969 0.0018904851 0.0017378207 0.0008649079 0.00060428923 -0.0017113843 -0.0024934649 0.0008086264 0.0014640761 -0.0005683129 0.00011917216 0.002284631 0.001959959 0.0010040641 0.00066317903 0.0005300377 0.00093965867 0.0015676823 0.0017414385 0.0017904433 0.0025948987 -5.196257e-05 -0.002022223 0.0021868513 0.00054331694 0.0012159593 0.0012461668 0.001546568 -0.0012023603 -0.0006812975 -0.0016862883 0.00200145 0.0019235067 -0.00032129372 -0.0014348718 -0.0019322933 -0.0008817213 0.0005807086 -0.0013858957 -0.0005327468 -0.0023293328 -0.0013477117 -0.0019646 -0.0011066789 -0.00095298095 0.00041665955 0.0023514987 0.00045928612 -0.0015241634 -0.0018010177 0.00072037947 0.0020913195 -0.0003965691 0.002467018 0.0018495328 -0.0007541529 0.0004146226 -0.00073179713 -0.0004267021 0.0017989717 0.0017934054 -0.0023502938 0.00022300323 0.0019801895 -0.001780148 -0.00057838944 -0.0024601154 -0.00015215008 -0.001812389 0.0012948894 -0.00027842532 0.0010474832 0.002246046 0.0009864625 0.0008799189 0.0017410902 0.0014006034 -0.0023036338 0.0011791001 -0.00032237783 0.001442793 -0.00093885954 0.001262151 -0.002477867 -0.0016195951 0.0018984644 -0.0017862979 -0.0008432736 -0.0020449976
FKD 0.0003831405 -7.4066986e-05 0.0010837219 0.0021139178 0.002268869 0.0016745589 -0.0012251536 0.002053953 -0.002597242 -0.0024143197 0.0021025287 -0.0017667209 0.0016894459 0.002201755 0.0014872731 -0.000569638 0.0022338566 -0.00071552774 0.0009989089 -0.00017760794 -0.0018111904 0.00014156618 -0.0008288442 -8.501906e-05 0.0006741686 -0.0017933415 0.0005020912 -0.0005505998 0.00039323507 0.0018909562 0.00012342152 -0.002265935 -0.0009808032 0.0017269627 -0.00091782905 -0.0016841186 0.00042954148 0.0010392235 0.00057468505 -0.0007436929 0.0014600693 0.0013072782 0.0023164286 -0.0019330706 0.0008058447 -0.0011618912 0.001590116 0.0012903183 0.0003797737 -0.0015765107 -0.0023093128 0.0007229224 0.002162842 -0.0014965755 4.6829435e-05 0.0024185667 0.0016967366 0.00076234003 -0.0011061198 -0.00083018315 0.0019368362 0.0016617081 -0.001072973 -0.0012282744 -0.0002758888 0.0016391653 -0.00064568815 0.002028675 -0.0011123995 -0.00244998 -3.1969798e-06 0.00077470805 0.00040670813 -0.0014849736 0.00035596406 0.0023820251 -0.00041445787 -0.0008769116 0.0023202256 -0.000921811 0.0022337313 -0.0016236315 -0.00052284094 -0.0011154887 -0.0011398079 0.00017700769 -0.0009394126 0.00043075296 0.001808576 -0.00065689365 -6.699013e-05 -0.0021373143 -0.00028530075 0.00038743066 0.0017469169 -0.0018263629 0.0021211386 -0.002492312 -0.00088866503 0.0020032872 -0.0012011245 -0.00054695393 2.9760727e-07 0.0018988401 0.00012469194 0.00054153573 0.0013247007 0.0012095048 -0.0023496584 0.0012800903 -0.0013163369 0.002110255 -0.00041836913 0.0010275359 -0.0018622061 0.0015186608 -0.0016821353 -0.00024281535 -0.00043075086 0.000504859 0.00058982545 0.0018149494 0.00014272639 -0.0016495577 -0.0016319988 -0.0014256843 0.0013930065 0.0022709887 0.00024592297 0.00068023073 -0.00027394426 -0.001223327 -0.0006243556 -0.00062829186 2.200868e-05 0.0007169424 0.0015415265 -0.000855479 0.0005207224 -6.8063906e-05 0.00017213277 -0.0024150268 -0.0002892424 0.0001451095 0.0011193453 0.0003031944 -0.0003741925 -0.00018710384 0.0005229164 0.00080139603 -0.0010119072 -0.000114252776 0.001872699 -0.0007154347 -0.0018163105 -0.0013197819 0.0005262847 -0.0012606756 0.0020318064 -0.0021072803 6.780224e-05 -0.0014806952 0.0023203765 -0.0017149402 -0.0018358333 -0.0019272608 0.0008422198 0.001680206 0.0010422115 -0.001820017 -0.002124628 -4.1795993e-05 -0.0004109213 0.0012739011 0.0009024219 -0.0024494901 0.0007229203 0.0022262793 -0.0009842906 0.0023088853 -0.0017698157 0.0005631599 0.0014706288 -0.0013011814 0.00015581815 0.0008383385 0.00033694785 -0.0014144903 0.0016476464 0.0022931094 0.001983931 -0.002398029 -0.00242948 -0.0013847818 0.00029132768 0.0017320884 0.00218999 -0.0023753152 0.001898223 0.0020532687
GNP 0.00024378333 0.002105592 0.0011404053 0.0019063557 0.0015578578 -0.002162156 0.0004576866 -8.5601554e-05 -0.0025953948 -0.00024625665 0.0025153689 0.00095883204 -0.0024571724 0.00021773612 -0.00010230662 0.0008924659 -0.00053093943 -0.002276383 -0.0011187872 -0.0007963349 -0.0004644641 0.0016543987 0.0022739957 2.8444376e-05 0.0003060067 0.00027547756 -0.000870716 0.0003810151 -0.00046745836 -0.0003189283 0.0019557308 -0.00012968847 -0.0025829289 0.0022151428 0.0021098235 0.0020744812 -0.0010674432 0.0012930174 -0.0009276169 -0.0009598185 0.0021159598 0.002008445 -0.0021203556 -0.0021896085 0.0010282806 0.0021166124 5.5509277e-05 -0.0009956877 -0.0004941735 0.001153645 0.001200407 -0.002113546 0.0019854805 5.0348774e-09 0.0010114842 -0.0021899042 -0.0015112862 -0.0019521649 0.00095627905 -0.0005347738 0.00047893164 0.0023221304 0.0015226717 -0.0020029543 0.0021762026 0.0005572872 -0.00036174167 0.000814682 -0.0016678607 0.0003361393 -0.0011529182 0.00061418966 -0.0010695695 -0.001953273 0.0012827192 -0.00015024056 0.0015152091 0.0016870255 -0.0014439371 -0.0021970249 0.00022952008 0.000108696586 0.0005670638 0.0017122525 0.00030845654 0.0013103406 0.0010410693 0.00097600825 0.0023837416 0.0022026908 -0.0004210998 0.0023400416 0.001947116 -0.0012188292 0.0014432797 -0.0021364577 0.0020212526 -0.0011183015 1.2793659e-05 0.001038755 0.0005488448 -0.0019645707 -0.0015869328 -0.001870131 0.00045046714 0.0016475173 0.0013301672 -0.0022273206 0.0013916926 -0.0019862964 -0.0012122074 -0.0024943764 0.0012490454 0.0012607835 0.0013488525 -0.0007258708 -0.00036404238 -0.0006228937 -0.00226345 -0.0025369914 -0.0003820671 -0.0018149186 0.0019083127 0.0008312347 -0.0011103218 -0.0022648503 0.0012509215 0.0017587335 0.00035434696 0.00037872774 0.0009748941 -0.00029197647 -0.0025507277 -3.554186e-05 -0.0023742577 -0.0016330959 -4.6860143e-05 -0.0019189158 -0.0013569916 -0.00027545044 0.0024767928 -0.0002745348 0.0017513087 -0.00031169326 0.0003040599 0.0017334988 -0.0020144144 -0.0008099518 -0.0010285412 -0.0009893945 0.00021961478 -0.0023086208 -0.00065259764 -0.002264856 -0.0008704397 0.0016125094 -5.9078888e-05 0.0016434314 -0.00234666 0.00090948754 -0.0008582966 0.0014735125 -0.0010743538 -0.0011041955 -0.0007610604 0.00036106343 0.0024469763 0.0019411927 -0.0018360247 0.0016453533 0.0016057402 -0.0022847613 0.0019700143 0.0021661671 -0.0023263746 -0.00049799576 -0.0023567379 0.0010298732 0.0010925692 0.002404104 -0.0014110008 0.0008958913 0.002185054 0.00011727514 0.0017904235 -0.0017104946 -0.0014344037 -0.0018784197 0.00039323998 0.0008775727 0.00017101441 -0.0004131385 -0.0011847143 -0.0024442526 -0.0021417593 -0.00134585 -0.0014034373 0.0010503308 -0.0016759508 -4.6427176e-05
QNR 0.0010854116 -0.0023146695 -0.0012841405 0.0019897015 0.0010512164 0.0019600505 0.0016387586 6.663463e-05 -0.0007037675 -0.00057948637 0.00070336065 0.001227174 0.0008936353 0.00044348568 -0.00044806214 0.00012074435 -0.0011947745 -0.0011189781 -0.001216454 3.3522072e-05 -0.0013323725 0.0012906631 -0.0019132473 -0.0011555303 -0.0022665856 -0.00066311826 -0.0014265673 -0.0012551855 0.0021788268 -0.0005886564 0.0014671005 -0.00129773 0.00033000743 0.00045152666 0.0018408744 -0.0023486917 0.0013425427 0.002415308 0.0019485569 -0.00014687602 -0.0023801378 -0.0022478336 -0.0001603131 0.0013457467 0.0014831112 0.00044737905 -0.0011593525 -0.0011509842 0.0011008428 0.0020269959 -0.001224964 -0.002272766 0.0015883187 0.0015827188 0.0014639476 0.0018604709 7.083962e-05 0.0016638332 0.0020722842 0.0011110937 0.0002989388 -0.0013301866 0.0005944925 -0.0015656558 0.00018943028 0.0013341625 0.002426335 0.0024152119 -0.0020750593 -0.0015957593 -0.000315454 -0.0025702626 0.0009306271 -0.0009407672 0.0005219141 -8.281168e-05 -0.0023718842 -0.0022886067 6.045166e-05 -1.0808172e-05 -0.000110276174 0.0012830242 -0.0021693297 -0.0008631749 0.0019324551 0.0012311061 2.9866995e-05 -0.0014403752 0.00035034042 -0.0019916175 -0.00035469778 0.0016073438 -0.0002707944 -0.0019603705 -0.0015954409 -0.00012076526 -0.0024229921 0.0013966821 -0.000114982395 -0.00014701113 0.0005067315 0.0018825948 0.0008443301 0.0004820237 0.0014530342 0.00095119415 0.00013850855 -0.0013562717 -0.00061498483 0.0010645118 0.0022635548 -0.00036821404 -0.00042354615 -0.0012845166 0.001563496 -0.0023931132 0.0005079234 0.001031218 0.0009842874 0.00093225925 -0.0022795144 -0.0014913689 0.0013348346 -0.0018865332 -0.0005736869 -0.0012982886 0.0007259938 -0.00037277857 0.0007820488 -0.00068464625 -0.0008047227 -0.0020052572 0.002020613 -0.0016076345 -0.0021661608 0.0010069723 0.0007268886 0.00045780162 0.0014075121 0.0012802196 0.00041387303 0.002080256 -0.00024293191 0.0008463144 -0.0014383438 0.0014540494 -0.0017380017 0.002570002 0.0022843943 -0.0016881338 0.0010901892 0.0014888492 -0.002183901 0.0013901151 0.0011389985 -0.00056305557 0.0022446627 0.001841757 -0.001638364 0.0011413548 0.0023579993 0.0016223917 0.00092617504 -0.0018997603 -0.0019889746 -0.0016287994 0.0019769392 -0.0012277467 -0.0008732036 -0.00089354475 -0.0018274282 0.0013889194 0.00016057414 -0.002437478 -0.0007338497 -0.0012637726 -0.0014753466 3.503008e-05 -0.001830138 -0.0025226327 -0.0014540942 9.2362694e-05 0.0023014478 0.0004423335 0.0008122595 -0.0020906436 0.00015358004 -0.0011449687 0.0023727515 -0.0023401857 -0.0010241981 0.0006702662 0.0003127669 -0.0018499854 -0.0022960007 -0.00055038696 -0.002356753 -0.00039430722 1.7056207e-05 0.0015363286
TRT -0.001314513 0.00040294326 -0.0010360284 0.0009005119 0.00029560472 0.0013996332 -0.0016518326 0.0015503336 -0.0013327728 0.0022757435 0.0020812205 -0.0012204361 -0.0015130857 0.0012144303 -0.0019228925 -0.0025093907 -0.0014928889 -0.0020984183 -0.0018217501 0.0019199916 -0.0023748002 -0.0013830452 -0.0009431247 -0.00020806966 0.00097016693 -0.0019690923 -0.0022386715 0.00056989375 -0.0011730588 -0.00065353734 0.0018429732 0.0018064237 0.0010152945 0.0007731075 -0.0010143433 0.0006715719 -0.0012229459 -0.0006287201 0.0021474967 -0.0023607875 0.0002603595 0.0006382046 0.0021308626 -0.00040555716 0.0008280778 -0.0011910014 -0.00027080625 0.00049868674 0.0003881434 0.0022383826 0.0020797646 -0.00016975633 0.0018877299 0.0013341177 0.0017823129 -0.0006858864 -0.002497992 0.0012084048 -0.000942113 -0.0021855312 0.0018947787 -0.0013336638 0.0013810614 -0.0021818145 -0.0020734477 0.002178627 0.0015901957 0.0024752603 -0.00059329707 0.0012470343 -0.0014347803 0.0019740069 0.0012359801 -0.0023809827 -0.00020386782 0.0009718153 -0.0024779595 0.0018974447 -0.00062352745 -0.0024775704 0.00028176545 -0.0014823006 0.0014410235 -0.0013619206 0.0020119399 -0.0014375788 -0.00044019244 -0.0015883528 -0.001117423 0.00036041113 0.00012335733 -0.00030201965 0.0017374655 8.694626e-05 -0.00024472093 0.002112722 -0.0011999172 0.0010811257 -0.0015804468 0.00041600666 0.0023336464 -0.001409288 0.0006346664 0.0014623946 0.0022191466 -0.0007021113 0.0014752535 -0.0015045273 -0.0024989848 0.00071070157 0.0009070418 -0.0011381931 0.0008176995 0.0017553284 -0.0021462499 -0.002160566 -0.00037118339 0.001681034 0.00051522214 0.0011015332 0.0012840121 -0.00057830446 -0.0017407807 -0.00080800906 0.0024779798 0.0003385146 0.0018044844 0.0022793515 -0.001903239 0.0014270985 0.00025477284 0.00025844589 7.0317656e-05 0.0019477564 -0.0014216951 0.0011853882 -0.0018453047 -0.0018718773 -5.135706e-05 -0.0016698177 -0.001690181 0.0012781383 -0.0014929859 -0.0018801023 0.0024047089 0.0009835751 0.001966287 -0.0004411884 -0.00097242126 -0.0018810998 -0.0009424155 0.0020033424 -0.0023081126 -0.0015904794 0.0006565579 -0.0006899729 0.0010808782 -0.00022697262 0.0021604847 -0.0014209577 0.0016307269 3.2022155e-05 0.0009992782 -0.001822547 0.00031646 0.00056439824 0.0013049504 0.0013755929 -0.0022236735 0.0018019513 0.0016879151 -0.002021783 0.0022068885 0.0005423176 0.0007152919 -0.001975424 -0.0016482067 0.0016692914 0.00166389 -0.00094829174 0.00045835983 -0.00029832285 0.0013681987 -0.001781457 -0.00025903143 0.001706082 0.00093692465 0.0014914691 0.0003001656 0.0017231889 -0.0022881802 0.00078456616 -0.0017798868 0.00024829933 -0.0023682409 -0.0013249387 0.0007426542 0.0009258283 0.0022713763 0.00073784305
IIN 0.0019770968 0.0014160732 -0.0016634054 -0.00018204324 -0.00047784735 -0.0019701305 0.0014244741 -0.0014716005 0.0007756956 -0.0010889774 0.00020754868 0.000852137 0.0017386673 -0.0021907894 0.0006106393 -0.00069084874 0.0003043956 -0.0007659742 -0.0014741136 -0.001491813 -0.0002666114 -0.0011544544 -0.0013684668 -0.0003155842 0.00060004654 -0.000787121 -0.0020229192 -0.0005288276 -0.0012433762 0.0017529653 0.00017693361 -0.0007175942 0.0008458832 -0.0019888403 -0.0021276558 -0.00040049932 0.001431947 -0.0021648328 0.0020535963 0.0021236476 -0.0018380807 -0.0020688667 0.0016293003 0.00065822265 -0.0001458433 -0.001582039 0.0020670753 -0.0021527193 0.0021813565 -0.000565675 0.00070992456 -0.0018162215 0.00045525286 -0.00049738714 0.0011864833 -0.0011673315 -0.0017568263 0.001422537 0.0015462493 -0.0025347357 -0.0005610184 -0.0005234444 0.0006167284 0.0014566024 0.0014419778 0.001060384 0.0019356295 -0.0011275033 -0.00061217876 -0.0010836561 -0.00094552134 0.0005434604 0.0013874685 -0.0021832546 -0.00048092118 0.0014796834 0.00027295813 -0.0016648421 0.0013739509 -0.0016183498 -0.0015042878 -0.002442269 0.0009192036 -0.0012980578 -0.00049704284 -5.0315924e-05 -0.0014679022 0.0010094729 -0.002229771 0.00092669803 0.0005923866 0.0014745038 0.0009561367 -0.001538968 0.00051703677 0.00060982315 0.00097208505 0.0013224431 -0.00034958523 0.00035822947 -0.0013849688 0.0007051 -0.0018116891 0.00016932345 -0.0016431679 0.0007646485 -0.0023800707 0.0023250398 -0.0008839003 0.002112235 0.0002500975 0.0005027697 0.0008893272 -0.0010809698 -0.0015158935 -0.0016457648 3.0248266e-05 -0.0016566602 0.0015645471 -0.0012101125 0.00012208638 0.00081268913 0.0009591924 0.0025548013 -0.0013627883 -0.0020404605 0.0006305675 0.0013672785 0.0023804973 -0.0008823211 0.00051396963 0.0012605517 0.0013511601 -0.0016624539 0.0010969195 -0.0024172612 0.00022490825 -0.0015364031 0.0008748564 0.00024308081 0.00012747567 -0.0023878044 -0.0021366803 -0.002022314 -0.0013732094 0.001300266 0.00010429298 -8.82055e-05 -0.0008064312 0.0023435587 -9.373917e-05 0.0013976136 -0.0013441781 0.0012958287 0.0024515989 0.000397448 -0.0009514825 -0.001815243 0.0002513776 -6.635813e-05 0.00018171429 -0.0017725596 -0.001088533 -0.0015955714 0.0011042937 -0.0009627824 0.0014512335 0.0008399236 -0.00056848716 0.0018364418 -0.00035283717 0.0021835798 -0.0024195882 -0.0022325774 0.0022978943 0.0014405187 0.0022455545 -0.0023175084 -0.0013860516 -0.002370486 0.001982428 0.0013627536 -0.00046220853 0.0011852004 -0.0013256584 -0.00073266955 -0.001338335 -0.0024651 0.002371776 -0.00028768645 -0.0018283629 0.0024604404 0.0017538284 -0.0020330825 -0.0018464722 -1.1658733e-05 -0.0014239778 -0.0013093397 0.0024977555 -0.00027625065
MRY -0.0008156684 -0.0024863766 0.0021570954 -0.0022950068 0.0024587917 0.000818947 -0.0017522216 -0.0005199909 -0.0008134679 0.00029952283 0.0016602013 -0.00023724804 0.00032859098 0.0019259144 -0.0021749479 -0.0013136381 0.0010523426 0.0011180409 -0.0002411576 -0.0006134157 -0.0007411634 -0.001362333 0.0009018148 0.0020561467 0.0015641231 0.002147052 0.0009273291 -0.0018085518 0.00086901704 0.0019767054 0.0005692623 0.00059750525 0.0015878803 0.002083879 -0.0006006886 0.0013755078 0.0024569498 0.0019868363 0.0011494712 0.00096245063 -0.0012267622 -0.00018731061 0.0025272311 -0.002171067 0.0008424719 -0.0023523613 -0.0013190052 -0.0015328269 -0.0009717388 -0.0011978627 -0.0012423482 0.00046334634 -0.0015696865 0.001379018 -0.00095063297 0.0018179412 -0.0019776665 0.0024432673 -0.00246888 -0.00040338683 0.00042655482 0.00026523988 -9.473903e-05 -0.000106031206 -0.00013927095 -0.001865217 -0.0015501418 0.0015051609 -0.0015647858 -0.0002760526 -0.00027406466 0.0015191293 0.0021460617 0.00062128727 -0.0013530197 -0.0015386475 -0.0012724737 -0.00010049196 5.0499373e-05 0.0008945009 0.0014565458 -0.00019082677 -0.0006055903 -0.0020014353 -0.0019094538 0.0018813234 -0.0014077578 0.0021324973 0.0020555356 0.0017787928 -0.002306607 0.00028815176 0.00048206522 -9.436638e-05 0.0023732 -0.0019484495 0.0007932453 0.0006825016 -0.0013988037 -0.0017280157 6.265707e-05 0.0011412429 0.00029718888 0.0020351172 -0.0021062023 -0.0012258805 -0.0015807422 -0.001767781 -0.002018325 -0.00038317725 -0.0023353111 -0.001197951 0.0020524708 0.0021146957 -0.0008166658 -0.00065687153 0.0023157827 -0.0019999368 0.0016697545 0.00010795917 0.001982409 0.0006276674 0.002155594 0.0015028295 0.0004255328 -0.0017910611 0.0011323551 0.0010266742 -4.6249777e-05 0.002093971 0.0023187404 0.000959636 -0.002169143 -0.0018205545 -0.0010377092 -0.0006209881 0.0014174222 -0.0016550295 0.0014564741 0.0017915025 9.413446e-05 -0.0010657881 0.0019674916 0.0011206444 -0.0009951986 0.00021718256 -0.0010583973 -0.0018525899 -0.00013415632 0.00040900815 0.002068909 -0.002070603 0.0014272854 -0.0007271767 -0.0011953338 0.000992037 -0.0023512885 -0.00050925 0.00060864293 0.00039525834 -0.0017106053 0.0025297243 0.0021986729 -0.0018486561 -0.0014763215 0.0015439165 -0.0014279112 -9.44478e-05 0.0023566682 0.0019081993 0.00071032054 0.002471266 0.0010982028 0.00014159235 0.0002047635 0.0018941896 0.0024109797 -0.00062909257 0.0015038818 -0.00078546256 -0.00012628715 0.00041121978 0.0005959406 0.0014554049 0.000107476226 6.0456052e-05 -0.00046385697 -0.0021857587 0.002308397 -0.00077366375 -0.0005067793 -0.0004132311 0.0013426373 0.002038099 -0.002602669 -0.00062712736 0.001287792 1.3529389e-05 0.0012643033 -0.0016338188
SRS 0.0009489284 0.00034514253 -0.00032776885 -0.0005521658 -0.0008431631 0.00017638123 0.00034020268 -0.0024521616 -0.0024426456 -0.0007516767 -0.0021094077 -0.0023780554 -0.0014024082 -2.557225e-05 -0.0012745038 0.0013985479 0.0007602919 -0.0007586498 0.0014907309 4.6920236e-06 -0.0006774197 -0.0011067806 -0.0014188691 0.0018593601 -0.0022646575 -0.00047851272 -0.001531989 0.001354155 -0.0018649577 0.00018748459 -0.00079706544 -0.0006907159 0.0012740822 -0.00034717983 0.001122113 -0.0021599168 -0.0014242076 0.0021501267 -0.0006037586 -0.0024943522 -0.0023946085 0.0007439126 -0.0014346264 -0.0012773678 0.0018300099 -0.000908488 -0.0017393597 -0.0021252201 -0.0015359264 0.00055222603 -0.0018757378 0.00035742347 -0.001614578 0.0022496332 0.0022177817 -0.000120528115 0.0015084413 0.0024256178 -0.0019677256 0.0019490556 0.0024466638 0.0016848359 0.002422604 0.0008858709 -0.00025847933 0.0002454599 0.0009529286 0.0022492437 0.0011104051 -0.0024504166 -0.0015574023 0.00012250312 -0.0022285937 -0.00081722264 0.0019775787 0.0012447258 0.0015972038 0.0020585132 0.0012093035 0.00052937475 0.0021683448 -0.0013794877 -0.0020826273 0.00037212914 -0.00075934146 -0.00041790536 -0.00089038035 0.0018152304 0.0017945585 -0.001672076 0.00071254454 0.0006735754 -0.0019702485 -0.0012281737 -0.0012942797 0.0014485039 -0.0011328303 0.0003410515 -0.0011041717 -0.002090026 -0.00041706016 -0.0012310595 -0.0024903533 -0.0019288631 -0.0008184147 -0.0012553276 -0.0018516592 0.0017792734 0.0021039362 0.0016138471 0.0012396182 0.0009882479 -0.00029230703 7.464414e-06 1.9707495e-05 0.0019338231 0.0010400099 0.0009671957 -0.0001938813 -0.0010897906 -0.00062830944 -0.0010171036 0.0009863413 -0.0017987597 -0.0013080474 0.0022126692 0.0023443797 -0.00095178315 -0.00077827915 -7.7432276e-05 0.0009340441 0.0023807322 -0.0008437947 -0.00079951546 0.0016230609 -0.00037480023 0.0020719692 -0.0017805849 0.00073154113 -0.0004825531 -0.00079334655 0.0014341987 0.0018517702 -0.00034394083 0.0015714527 -0.00086882623 0.0012058564 -0.00118991 0.0008231584 -0.0023053426 -0.0024463676 -0.0015418102 -0.00012972127 -0.002009888 0.0014724816 0.00047023015 -0.0010277996 0.002446176 9.413884e-05 0.0004515451 -0.0017297614 -0.00069157535 0.0022318442 -0.0019892505 0.00010195239 0.0013234832 0.0019966385 -0.0022115216 0.0017746574 -5.3841173e-05 0.0012350582 -0.0013771766 -0.0009682138 -0.0023704888 0.00121818 0.00223 0.0022910365 0.00066910195 -0.0021638158 -0.00058265304 0.0010415156 -0.00066207675 0.0012835376 0.0023925155 -0.0014232347 0.0007179293 0.0022503678 -0.0012704151 -6.299329e-05 0.00114201 -0.0024797788 -0.00025930235 0.00042729147 -0.0013328285 -8.065273e-05 -2.58491e-06 0.002175079 0.0023777643 0.0012524015 -0.00015227002
SNL 0.00095023436 0.0018602783 -0.00117987 0.0022955465 -0.002058368 0.0002635578 0.0014183606 0.0013264717 -0.0018124552 -0.00024510152 0.0023197785 0.001210755 -0.0012126665 0.0010145825 -0.001508117 0.00030705458 -0.0005109562 -0.00074273365 -0.00045115437 -1.9977306e-05 -0.001475749 0.00011277471 -0.0015290055 -0.00012925053 -0.0017882728 -0.0004591325 0.00044024485 -0.0013076677 -0.002378604 0.00024548176 -0.0007278851 -0.00075693225 -0.0003683316 0.0019577106 -0.0016310021 0.002145013 9.458376e-05 2.17481e-05 0.0016797899 0.0006335731 0.0014267302 -0.00089952245 -0.00085824897 0.00096340815 0.00079288415 -0.00059906725 -0.0017790929 0.0017328615 -0.0020443832 0.00026232487 0.0014349313 0.0008696061 0.0006370232 -0.0011390855 -0.0011336618 0.0007803986 -0.002308325 0.0015183738 0.0009916227 -0.0025263538 -0.0023562817 0.00075487304 0.0011069172 -0.0014908595 -0.0018048058 -0.0013336292 0.0023707778 0.000360049 -0.00020892506 0.00047815585 -0.001986818 0.0016879365 -0.0003809323 0.0013031859 0.00039119995 0.00028549723 0.00033596106 -0.0012701828 0.001295646 -0.0002924178 -0.0018606294 -0.0005844142 -0.0025044247 0.0007136146 0.00034381094 -0.0018526473 0.0016468224 -0.0022719384 -0.0012364052 0.0020457767 -0.0024385767 -0.0010969064 0.0011993618 0.0018223188 -9.696388e-05 0.0015136251 -0.0023790484 0.0007017133 0.0011419804 -6.500519e-05 0.0015893616 0.0017582044 0.0018832558 0.002132143 0.001532879 -0.00079091184 -0.0024264418 0.0022309527 0.00019035558 0.0023579227 -0.0014603417 -0.0020539914 -0.0011147049 -0.00033954895 0.00086396834 0.0010660819 -0.0006998798 -0.0014435143 -0.0011767129 -0.0017279079 0.00041093846 0.0016681248 0.0024252376 0.0005466447 0.002206776 -0.00054697995 0.0016408439 -0.0012299905 0.0014891492 -0.001441058 0.0019313177 0.00021364419 -0.00047150278 0.0013148063 -0.0010163127 0.0015320808 0.0017459306 0.0012137174 0.0014490893 -0.00023122996 -0.0018330821 0.0012966553 -0.0018339804 0.0019618752 -0.0015264228 0.0023511217 0.00075861835 -0.0014736236 0.0004991343 0.0024607414 0.0011936862 0.0016428943 -0.0012660074 0.0008602984 0.0017053948 -0.0012644278 0.001057722 0.0020388965 -0.002002305 -0.0023340676 -0.0015708989 0.00048859685 0.0009830605 -0.00063455873 -0.0023758938 0.0006843093 0.00046645993 -0.0010106042 9.5586445e-05 0.0016431558 -0.0010288184 -0.00056230964 -1.6789396e-05 -0.0018941201 0.0008424918 -0.0007837759 -0.0006810701 -0.0024283424 -0.0019741629 0.00032976278 0.00033854335 0.0006504523 -0.00015185786 0.0024634723 -0.0021667972 -0.0020111806 0.00030024516 -0.0023005228 -0.0011409657 0.0016620725 -0.0020230138 0.0010652482 -0.0022356228 -0.001266005 -0.00051109685 -0.0021174708 0.00078239077 0.0004307588 0.0025564195 0.00045534168
RLF -0.0016913003 -0.0004032702 -0.00037367994 -0.0014216809 0.0023620555 0.0021892495 0.0021470105 -0.0016879413 -0.0023385729 0.0005919156 -0.002087155 -0.0015647458 0.0017911684 0.0020160207 0.0011017043 -0.00074227754 0.0022589269 -0.001306231 -0.001115596 0.00033331636 -0.0012092921 0.0010662022 -0.0020212156 0.0020399224 0.0013726327 -0.00034354947 7.323035e-05 0.0018550339 -0.0004692576 -0.0010706123 0.0005061524 0.000113016344 0.001547604 0.00094169186 -0.00028878308 0.0015882275 0.0016037291 -0.0017283022 -0.002228781 -0.00057623966 -0.0021757078 0.0017213548 -7.7829456e-05 0.0007684107 0.0014771046 0.00090726063 -0.0014193387 0.0015626816 0.0018469635 -0.00074516627 0.0018278605 0.0006987009 0.0024913736 -0.00049934693 -0.0019574712 0.001667833 -0.002277956 -0.00020162867 0.00035731343 -0.00034328757 0.0002574065 0.0019269065 0.0019988636 0.00012388578 -0.00074223557 0.0009110459 -0.00095737865 0.0018698861 0.0016398086 0.0019135497 0.0005544748 0.0019437354 0.00058972277 0.0010658426 -0.002544596 0.0022591949 0.00119579 -0.0006234989 -0.00047813592 -0.0015433872 0.0004820893 -0.001738358 -0.0001699223 -0.0013423491 -0.0010578106 -0.0009952567 0.0014688915 -0.0019486658 -0.0005855754 -0.00019744589 -0.0024166526 -0.0012781598 -0.001364369 0.0011587678 -0.0015073047 -0.0017073967 -0.0017459714 -0.002176965 -0.0019893255 0.0010679541 -0.0014017395 -0.00046300734 0.0013361268 -0.0009311398 0.00079546863 0.0013536687 0.0019246808 0.0015593946 -0.0015845448 0.00049230346 -0.0020453327 -0.0018439741 -0.0014698949 0.0023621751 0.0002178843 -0.000113896596 0.0009902486 -0.0016738705 -0.0021987525 -0.0005369221 -0.0021164312 -0.0023591602 0.0012633965 3.3730856e-05 0.0023300834 -0.0015173157 -0.00031669682 0.0004056938 -0.000888025 -0.0008668849 0.0009118387 0.002410325 0.00073743874 -0.00010768362 -0.00212137 -0.001264367 0.0024678872 -5.6896737e-05 -0.00094148255 0.0011923233 0.0024109404 -0.00091601716 -0.0007814559 -0.0011728777 -0.00077705114 0.0014548135 -0.0021864246 0.0022627898 0.00014633618 0.0003027293 0.00033459102 0.0005358406 0.002099685 -0.0004685761 0.0016426394 -0.0010144621 -0.0016827487 0.0013123167 -0.0018900037 -0.0022057008 0.0013445984 -0.0016579264 0.00021981435 0.0017687815 -0.00015896672 -0.0006724833 6.460301e-05 0.00079605135 0.0012752949 -0.00016521625 -0.0010430167 0.0010778836 -0.0013128213 -0.0002232946 -0.002009536 0.0012523143 -2.2856582e-05 -0.0007145985 -0.0024532964 -0.0022408494 -0.00078512984 0.0018194518 -0.0014719188 -0.0018715058 -0.0022583336 0.00042236986 -4.0544266e-05 -0.002075439 0.0013356678 0.0011471603 -0.00073460443 -0.0019111431 -0.0008802329 -0.0023042564 0.0012982445 0.0023193809 -0.0018995935 -0.0017809155 0.002000971 -0.00040998796
KLK -0.0005527468 -0.0009524521 -0.00081950513 -0.0014696232 0.0024863589 0.0023529073 -0.001004075 0.002046992 0.0011006466 -3.4960872e-06 9.3998206e-05 -0.00047832052 -0.0020182463 -0.0021521049 -0.0018601511 -0.0018843799 -0.0021843219 -0.0011848737 0.0001669518 0.0005513094 -0.0024344334 0.0008673239 0.0021730736 -0.0008857256 -0.0021761388 -0.0008945209 0.0023954923 0.0017620516 -0.0005611813 0.0017696263 0.00017291814 0.0021917988 0.0010217775 -0.0017908154 0.0018163715 -0.00023130103 -0.0011805675 0.0016755847 0.0023183168 -2.206273e-05 0.00044788685 0.0020378395 0.0017885541 0.0017669471 -0.0012617486 0.00011764543 0.0005419654 -0.0024568667 0.0020830038 0.00029360745 -0.0023498482 0.0016582995 0.0022914223 0.0019326209 0.0023686695 -0.0012300559 -0.001328959 -0.0019555727 0.00034966486 -0.0018140726 0.0013608392 0.0019085912 -0.0006234423 -0.001052707 0.0020525847 0.0023227918 -0.0024046602 0.0010985609 -0.0020395776 0.001372101 -0.0022181242 0.0002568561 0.0014048727 0.0016501665 -0.001114359 -0.0005524752 -0.0006049529 0.0012215344 -0.0014427475 0.0014219442 -0.00062228285 -0.0014398365 -0.00077303214 -0.000694324 0.0013414185 0.002453914 0.001310881 -0.0014328876 -0.0020201947 -0.0009414745 -0.0014593435 -0.002507404 -0.0013979805 -0.0013537992 -0.0016888948 0.0014965968 -0.0012982344 0.00081447384 -0.0010809277 0.0014767522 0.0020519951 -0.0021457444 -0.0019308284 0.0006033033 -0.0017246578 0.00015225103 -0.0022647888 -0.0013722791 -0.0010345033 -0.0020200345 -0.00043678135 0.00027470497 -0.0019543949 0.0011157169 0.0011845223 -0.0015403767 0.0009057013 -0.0012483548 -0.0020546396 -0.00032181185 -0.000661231 0.0018568995 -0.0010094211 0.0022560444 -0.000963926 0.00061176554 -0.00015567715 -0.00044802114 0.0007810644 0.0018270782 -0.0021414245 0.0013492287 -0.001984264 0.00046295158 0.0018723661 0.0011067758 0.0001295791 -0.0017267131 0.00054605736 0.0011880423 0.0025047716 0.00248098 -0.00037499427 0.001060162 -0.002437409 0.00026974594 2.1713882e-05 0.0022574759 -0.0009630693 -0.0008107453 0.0014262277 -0.0022335518 1.3076864e-05 0.0023753804 -0.0011618215 0.0024353324 0.00046094242 -0.002070906 -0.0015029358 0.0012142286 0.0009076307 0.0020804373 -0.0016061093 -0.00029738588 -0.00010670581 0.0004672555 0.0012353082 -0.00076589134 -0.0023178111 0.0014563461 -0.002365917 0.00029156974 0.00028167028 0.00072419294 0.0021711693 -0.0006585064 8.132001e-06 -0.0024286925 -0.0025946312 0.0005973546 -0.00094175944 4.872356e-05 -0.0023978443 -0.0024042742 0.0006831319 0.0019122543 -0.00033723813 0.0014697736 -0.002201101 -0.00025445718 0.0004282705 -0.000906424 -0.0022741687 0.0005501546 -0.00076433964 -0.0013024708 0.0014785868 -0.0013011576 -0.0018281519 0.0025142068
EMY -0.0009461686 0.0011706426 0.00013265607 -0.0010537654 0.00011308014 0.001942233 -0.00019092736 0.0015931198 0.00067443564 -0.0017466455 0.0013557548 -0.0020167283 -0.0024015952 0.00059870357 0.001352102 0.0008750607 0.002126311 -0.0010073876 -0.001293854 -0.0019075753 -0.00048667126 -0.0016076585 0.00047918534 0.00217194 0.002225399 0.00039104946 0.00015770124 -0.00066364557 0.000702176 0.0012615082 0.00015783723 -0.0022592116 0.0009513124 0.0012574064 0.0013532416 -0.0007482071 0.0021218997 0.0012197553 0.0004715073 -0.001860094 0.0006330503 -0.00054963765 0.002057647 -0.0005702586 -0.001321439 0.0013884531 -0.00023079546 -0.000421853 0.00014136608 -0.0007899285 0.00015919098 0.0014425231 -0.0018105723 0.0018869682 -4.652985e-05 -0.00076725724 0.0017217655 0.002241525 0.001722868 0.0010704097 0.0010816064 -0.00013728184 2.2605363e-06 -0.0011256982 3.4428263e-05 0.0020548794 -0.00029001338 0.0008473985 -0.0024885659 -0.0013985856 -0.0014114922 -0.0017012237 -0.001575913 -0.0002542647 0.000767544 -0.00091521064 -0.0017166217 -0.0013405945 -0.0019737252 0.0018789589 0.0012368523 -0.0021865324 0.00020606496 -0.0013034387 0.002149126 -0.0011725465 -0.0019156653 -0.0022960769 0.0010593177 -0.0017274027 0.0013669896 0.0005337384 -0.0018288804 -0.002404918 0.00059955503 0.0015170306 0.0023366779 -9.919401e-05 -0.0018160403 -0.001864091 0.0017041988 0.0009021672 0.0022160097 0.0018814561 -0.0017229974 -0.0017823708 -0.00085825945 -0.0003513744 -0.0016127467 0.0011146433 0.000115956806 0.00054626376 -0.002306595 0.0009552586 -0.0010323898 0.00083695963 0.0019622152 0.00026710512 0.0023782158 -0.0011094889 0.00083443255 0.0008153545 -0.0019216171 0.0021223957 -0.0024508394 0.00011012799 -0.0021976077 0.0013161446 0.001778081 4.893852e-05 0.0013988876 0.0023672874 -0.0024187467 -0.0025413637 0.0011697533 -0.0012206208 0.002369525 -0.0018081312 -0.0005620516 -0.0007535271 -0.00092820515 -0.00025391488 0.0018509096 -0.0018269154 0.0014719429 0.0013015156 -0.00021978651 -0.0012898116 -0.00046260058 -0.0024664165 -0.0015710288 0.0017621077 0.0013333217 0.0015351183 -8.845317e-05 -8.79436e-05 0.0013093053 -0.0006305936 -0.000518086 0.0018506687 -0.0016909569 0.0020479013 -0.0015916065 -0.00022764268 -0.0006631949 -0.00046094216 0.00039608133 -0.00018422278 0.0005875404 0.0013818322 0.00074274704 -0.00051093515 -0.0025381905 3.102181e-05 0.0019673484 0.0007434724 0.002463269 -0.0008926527 0.0012571658 0.0010297847 0.0015751971 -0.0003661698 0.0021735488 0.00020587302 -0.0007772215 0.0002823041 -0.00035842392 -0.0012782346 -0.0024375455 0.0021982577 -0.0011907206 0.00027780427 0.0023613619 0.002368371 0.001929597 -0.00037474796 0.0020223511 0.0010575517 -0.0013108578 -0.0023142262
VKE 0.0009764752 0.0006913347 -0.0016553635 0.0009764974 -0.00093449885 -0.0010369802 -0.0014426212 0.0014723394 -0.00075267564 -0.0007458526 0.0008100288 -0.0007594365 0.00036007926 -0.00049132603 0.0018522985 -0.0011594458 0.0014323307 0.001901327 0.0019418094 -0.00041553634 -0.0020691864 -0.0007190515 -0.00052951404 0.00214112 -0.0003881932 0.002314471 0.0013624261 -0.0013922055 0.0019778893 -9.7769516e-05 -0.0004747839 -0.0021345415 0.0015812401 -0.00038979697 6.98513e-05 0.0006016499 0.00181217 -0.0019425112 -0.0022014286 0.0023950334 0.0018469879 0.0011068934 0.0006240785 0.0012021865 -0.0008486269 0.001088955 -0.001852648 0.00051035185 -0.0012941805 -0.00032694775 -0.0019169147 -0.00047919567 0.0009605804 0.0023027973 -0.00047566913 0.00012061107 -0.0013956563 0.0023891306 -0.0005097405 -0.002533753 0.00084768597 -0.0024912385 -0.00026506334 0.001976619 -0.0008537216 3.4399536e-06 0.001889634 0.0015262199 0.0007893491 -0.00018577084 -0.00105811 0.0012867989 0.0002073647 0.0016861546 -0.0024786408 -0.0020676262 -0.00049221446 -0.0016538651 0.001677819 -0.0007884862 0.0011036834 0.0020022152 0.00012831703 -0.0012299402 0.0013892237 0.00090465334 0.0022949572 -0.00246376 0.00021271831 0.0017214227 6.984142e-05 -0.0014412326 0.0019828372 0.0009869384 -0.00026079715 -0.0017339699 -0.00028490316 0.0015879949 0.00085980014 -0.0024788557 -0.0022186178 -0.0018569948 7.6215642e-06 -0.001767558 -0.0014876097 0.0024676817 0.0018354966 0.001706654 -0.002272276 -0.0023019626 -0.001647049 -0.0011848713 0.00257428 0.0015781219 0.0018580729 0.0018710911 0.0022945965 0.00043804487 0.002119072 -0.0019852386 0.0017934785 0.0007009568 0.002410102 -0.0016933616 0.0024046449 -0.0011912435 0.0022161196 0.00090003025 -0.002323397 -0.00062228745 -0.001164604 0.0009781155 0.00091138657 0.0015055785 -0.0016371731 -0.0009719954 -0.0015691448 0.002084244 0.0004694751 0.00018484516 0.0024468396 0.0010584753 0.0024491898 0.0018343967 -4.029603e-05 -0.00011246785 0.0012230992 -0.00055889343 0.001522596 0.002107934 -0.0002690946 7.16801e-05 0.0015319803 -0.00050061604 0.00022287657 -0.002009602 -0.0020137276 -0.0018033383 0.00085650757 0.0012222143 0.0023354702 0.001718348 0.0009867063 -0.0015233048 0.0018794216 0.0015272149 0.00066060637 0.0019748586 -0.0010678627 0.0020011028 -0.0010030357 0.001103838 0.0010162836 -0.0016723542 0.00060205546 -0.00023313724 0.0011438285 0.00016864341 -0.002391772 -0.0020484575 -0.0021823475 0.0023938904 0.0006250646 0.0016625093 -0.0008131844 0.0010646293 0.0010353653 -0.0023107403 0.0020179679 0.0011048807 0.0014679058 0.0016796379 -0.0010294991 -0.0018136747 0.0017215305 -0.0006955864 0.0021290483 -0.0010578933 -0.0015520619 -0.002229719
HVP 0.00028755 6.225867e-05 -0.0019381094 -0.0020899072 0.00019994054 -0.0011385753 0.0016735521 -0.0022895157 -0.0015519015 -0.00046879996 -0.0016822818 0.0017832763 0.00043319468 -0.0017285635 -0.002497541 0.0004951511 -0.0011518286 0.000972815 0.00018259921 0.0022171754 -0.00187892 0.0005239146 0.0021927499 0.00032187172 0.0016699586 -0.0016637141 -0.0008273149 -0.0020341857 -0.0023594995 -0.0015508786 0.00064870703 1.4837454e-05 -0.002533152 -0.001913541 0.0020713334 0.0006387754 -0.0004266147 -0.0014323202 0.0007345343 1.7376435e-05 -0.0024662213 0.00022755061 -0.0011294901 -0.000799229 -0.002523098 0.00035130477 -0.0009740948 0.0023708083 -0.0017337099 -0.0009770306 0.0015342137 -0.0011030826 0.0016196062 0.0008266854 -0.0017680455 0.0012696633 -0.0003614407 0.00068679184 0.0018628396 -0.0011717102 -0.0015188818 -0.00043564482 0.0024581042 0.0020562457 -0.0003999267 -0.00036820734 -0.0006962927 0.0010649385 -0.0016030191 0.00067578274 0.0018644684 -0.0010966263 0.0022341786 -0.0017765164 0.00030669034 0.0003868404 0.0013693101 0.001623852 0.0018882349 0.001982957 -0.0017721545 0.0005406959 0.0010698732 0.0008031654 -0.00017305782 0.0011327505 0.001068173 -0.0011171752 -0.0014512069 0.0025720648 -0.00046265568 0.0017589047 -0.0005687468 -0.0025657245 0.0020178144 0.0024580853 0.002107301 -0.000522699 -0.001843156 0.0002750292 -0.0017198983 0.001824406 0.0012171048 0.001336123 0.0011237024 0.0013884311 0.00243595 0.0011795083 0.0018391226 0.0006406356 -0.0015049702 -0.0023738632 0.002183817 0.0020893922 -0.001133454 -0.0014184387 -0.0023716905 -0.0023244012 -0.0019456333 0.0006383625 0.0022333835 0.00029342042 0.00087987777 -0.00036536716 -0.0013150616 -0.0003173693 0.00010487317 -0.00048819016 0.0015615156 -0.001401155 0.0017341254 0.00031610284 0.0019769447 -0.002324033 -0.00054047955 -0.0010500768 -0.0019225603 0.0018918446 -0.0020025705 0.00024524014 0.0012305287 -0.0015245484 0.0010510781 -0.0012572204 -0.0007296597 0.0007276777 -0.00095680513 -0.0016132464 0.0009691377 0.00042246218 -0.0015807912 0.00090788584 0.0016542627 -0.001725065 0.0016983618 -0.00079754816 -0.0015844897 0.0011945156 -0.0022737845 -0.00070431124 0.002181061 -0.00035361148 0.00093974744 0.0013196266 0.0005388922 0.0010950442 0.001428552 0.0014520225 -0.0015434078 -0.0023088495 -0.001257108 0.0011125358 0.0014427146 0.00019194932 -0.0024337424 -0.0017372554 -0.0020835612 0.0003862127 0.0016549177 0.0024276923 0.0013025514 0.0012523744 -0.0014941817 -0.0018841628 -0.002297576 -0.00028817978 -0.0025628821 -0.0002937035 -0.0016903284 -1.4008678e-05 -0.0011293982 0.0019201402 0.001294918 -0.001497834 -0.0025568518 0.0022734392 -0.0012250866 0.0015028592 -0.001552221 -0.0011896322
VPG 0.0011220886 -0.0022881213 0.002500711 -0.00065832346 0.002381054 0.0006409508 0.001004824 -0.0019320153 0.001600814 -0.002196949 -0.0021087888 0.00013596396 -0.0018561895 -0.002279946 0.001708435 -0.001347007 -0.0021564534 0.0020224168 -0.0024532492 9.533762e-05 4.9136463e-05 -0.0013305092 0.0015909008 -0.0024827428 0.0006357421 0.0008836953 -0.0019004075 0.0013357769 -0.0015243368 0.0018760145 -0.00085534237 -0.0014834391 -0.0023315402 -0.0013260206 0.0015029915 0.00012850841 0.0011882604 0.00011777591 -0.0014856021 -0.00043123937 -0.000780176 -0.0004177026 -0.0015981423 -0.00012756491 -0.000104653256 -0.0010474873 0.00052251044 -0.00019733986 -0.0006632666 0.0006737988 -0.0010545955 -0.00096783426 -0.001367982 0.001974991 0.0008825679 0.0018702914 -0.00075931294 -0.00092332705 -0.0018855599 -0.00053861813 0.0005666106 -0.0006513014 0.0005228614 0.0012211844 -0.0021200296 0.0014179964 -9.4158924e-05 -0.0008461393 -0.0020680309 0.0023514656 0.00094344205 -0.00032464214 0.0007997256 -0.00028316825 0.0020200387 0.001121595 -0.00019908849 -0.0019862202 -0.0016391252 -0.0005097353 -0.002175599 0.00048093568 -0.0013764295 0.0016954283 0.0010858157 0.0024203476 0.00092527276 -0.0018749747 -0.00048660985 -0.00228108 0.0019840738 -0.0015823361 -0.001553859 -0.0004083244 -0.0024061673 -0.0001462922 -0.00024504217 0.0011031238 0.00038555934 0.0012938384 -0.0022561403 0.0015764836 0.0009492468 0.0013283824 0.0012308696 -0.0017888782 0.00034374758 0.0013804388 -0.0012314884 -0.0016256227 0.0005003604 0.0017379738 -0.00022586815 -0.0014723167 0.00086651405 0.00044523593 0.0019316396 -0.0011598652 -0.0013722585 0.0023241749 -0.0016845178 0.0008197822 0.0013290789 0.0010238984 0.0019721251 0.0021398915 0.00024160756 -0.00035466615 -0.0015670288 -0.0013767629 0.0014223232 0.001396651 -0.0011706185 0.0003546878 -0.0006575485 0.0016576145 0.0011665649 -0.0012213874 0.0008206217 -0.0015867767 -0.0007195672 -0.00034889975 -0.00105019 0.00022108581 -0.00076537044 0.0008698062 -0.00069524563 -0.0010526198 -0.0022569264 -0.0022673781 -0.00041666703 -0.0001902817 0.0022739747 -0.0024896662 0.0022244432 -0.0021567398 0.0024700114 -0.0004152057 -0.0021723588 -0.001102186 -0.0016320049 -0.0014090971 0.0013109307 -0.0017591544 0.0020667978 0.0013760314 -0.0006320521 0.0019978555 -0.0021974056 0.0020552133 0.0024692435 -0.001695338 -0.0016206076 -0.0010131542 -0.0020890608 0.0021633317 -0.0005718972 0.0010608952 -0.0017661562 -0.0022931334 -1.2034282e-06 0.00033916798 -0.0021081148 0.0015718382 0.00035599197 0.00075852644 -0.0020367182 0.0016854402 -0.0013257677 0.0003447952 -0.0016138552 -0.0017415823 -0.0007346937 0.0021024165 0.0016775922 -0.0020723997 -0.0022002354 -0.0014759047 0.00040604384 -0.0011558584
LKE 0.002192101 0.0005702648 -0.0009025061 0.0013777409 -0.00039156596 -0.00090280815 -0.0020142377 -0.000880345 -0.0001708159 0.00035259323 -0.0008986413 0.0023816503 3.6609603e-05 0.00027913877 -0.0021365792 -0.00059097423 0.0017734884 3.677045e-05 0.00046149426 -0.0023643181 -0.0020239532 -0.0009866987 -0.002008022 -0.002306966 0.0015480607 0.0019463256 0.0014899711 0.0017845605 0.002421462 -0.0014652587 -0.0018891586 0.00017250958 -0.0013327934 0.0015980288 0.0001714959 0.0010677786 -0.0007270159 -0.00062024203 0.0013712612 0.0019354974 -0.00021330202 0.0010619734 0.0013141863 -0.0010941729 -0.0022118588 0.0006003784 -0.00082660874 0.00023931856 0.0016334915 0.0015221009 -0.0015424498 0.0015330624 0.0020334616 -0.00031952126 0.0010235487 -0.00026187772 -0.0010780703 0.0019795282 -0.001045643 0.0017217927 0.00095561513 -0.00096180756 -0.002164291 0.0015321366 0.0018411274 -1.3444446e-07 0.0012398533 -0.0019079166 -0.0023592615 -0.0024405567 -0.0018010623 -0.0018514828 -0.0021808094 -0.00046242445 -0.000845042 -0.0008383192 0.0016047362 -0.00028382565 -0.0014932072 0.0021694598 -0.002243724 -0.001363235 0.0017485664 0.0005568318 -0.0019053112 -0.0012744315 -0.0020421906 0.0024155704 -0.0020148943 -0.0023123072 -0.0023864883 -0.00216215 -0.0003123418 -0.0007575276 0.001704696 -0.00062405353 -0.00077888474 0.00061260274 0.00039271833 -0.0018791881 0.0009344381 -9.019969e-05 0.0020134598 -0.00044040452 -0.0013788255 0.001744842 -0.0011994655 0.0006775156 -0.0016034372 -0.00022750655 -0.0014179974 -0.0016031467 0.0024975298 0.0011268848 0.0016098835 0.0022832684 -0.0024484938 0.0005373168 -0.0001289231 0.002101876 0.0022959816 -0.0010524334 0.00054323755 -0.0010694797 0.00021408673 -0.00017586666 0.00083715154 -0.0016463856 -0.0016028229 -0.0017444965 -0.00016576286 -0.0016512243 -0.000828083 -0.001538572 0.0016276463 -0.0006379427 0.000489384 0.0014712202 -0.0008596442 -0.0024305538 0.00062657235 0.0021053173 0.0020582888 0.0019001985 -0.0022511065 0.0007644469 0.0014507051 0.001719259 -0.001758595 0.00058533077 0.002050394 0.0024121078 -0.001967722 -0.001664551 -0.0014671525 0.001850474 0.00056915067 -0.0018090893 -0.00030475808 -0.0018699069 0.001494672 -0.0016931413 -0.001279881 -0.00089602894 0.0015365682 -0.0005071539 0.002280682 0.0011463492 0.0024266518 0.00032209835 -0.00034015617 -0.00082427566 -0.0020164808 -0.0007120591 0.00033402973 -0.00023495528 0.0021562781 0.00040021917 -0.0017780783 -0.0019747487 0.0022596817 -0.0021756247 -0.0022386645 0.0018988075 0.0015672838 0.0019917847 -0.001333431 -0.0010905616 0.0010069115 0.0013925954 0.001421854 0.00092775683 -0.0013497054 -0.0023348227 0.002000921 -0.00061399513 -0.0021028696 -0.0002586825 -0.00065645366 0.0014325721
SFH 3.6784313e-05 0.0015350947 0.0015202357 -0.002361308 -7.9158235e-05 -0.00020832193 0.0010684658 0.0022750136 -0.0011119073 0.00045500795 -0.00082549534 0.0016559068 -0.0014140918 -0.0011215594 -0.00068260665 0.00028159787 0.00134685 0.0017020508 -0.002054391 -0.0019511471 -0.0016409848 0.0010809194 -0.0012972878 0.00084907527 -0.0009314957 0.00020919039 -0.000409255 0.0023443666 -0.0013618069 -0.0006840251 -0.00043960082 -0.0020539463 -0.0012087842 -0.001265654 -0.001312836 0.0016158442 0.0015397889 0.0008958412 -0.0001653203 -0.0010500633 -0.0007860141 -0.0007787207 -0.0005211901 0.0016564296 0.00090191734 0.0008299279 -0.00081732287 -0.0006316436 0.0017473157 -0.0013015108 -0.0023840442 -0.0009204503 -0.002064102 0.0018221416 0.00075849536 0.0019031027 -0.0016475272 0.001527098 0.0020632618 -0.0020867707 0.0008795327 0.0005255937 0.00078989746 -0.000109325025 -0.0023824507 0.0016131814 -0.0015228572 -0.00046819923 -0.00024604436 0.002041869 0.0021661974 -0.002112405 0.00048228118 0.0010427593 -0.0020232643 0.0003627954 -0.0002907511 -0.00047410215 -0.00062831806 -0.001976623 0.0012502408 0.0008377169 -0.0013052108 0.0022555313 -0.00045269777 0.0017117573 0.0013984308 -0.0010629089 -0.0024091054 -0.0005669007 -0.00073211285 0.0003949513 0.0017494602 0.0021440987 -8.109873e-06 -0.0012472459 -0.0012382464 0.0012455247 0.0010515396 -0.0020961645 0.0010702838 -0.0007211697 -0.00022058959 0.00033557377 -0.0019342905 0.00011256595 -5.1996943e-07 0.00064747664 -0.0010791495 0.0013974142 -0.001283197 -0.0013038197 0.0009404628 0.001883741 0.0014473427 -0.00096523936 -0.001563813 -0.0017451933 -0.0014727724 -0.0015838759 -0.00048035782 3.2239786e-05 0.00084068 0.0016997362 -0.0013004462 -0.00019740257 -0.0019262446 0.001159894 -0.0024051345 -0.0016944585 -0.0015763718 0.0013357421 0.0006295285 -0.0017364925 -0.002300645 -0.00072081725 -0.0016841688 0.00033984473 -0.0010272854 0.0018940096 0.00050545885 0.002204784 0.0021570872 -0.0015151622 0.0022431344 -3.6302587e-05 0.0018645446 0.00047348556 -0.0007138343 -0.0005692611 -0.002200821 -0.0011839085 0.0010511529 -5.017684e-05 -0.0016628923 0.0007390893 -0.0009685049 -0.0019077973 -0.0017770525 0.0022378303 -0.0006911584 0.0002731804 -0.0018769727 0.0023199324 -0.0006566084 -0.0015551815 -0.0018701078 0.0013316033 -0.0015517051 -0.001110494 -0.00052355963 0.0007771921 0.0014376767 0.00021079688 -0.00049669086 -0.002395209 -0.0011565989 -0.0018601925 -1.775796e-05 -0.0011062417 -0.0024903903 0.0010841019 0.001494425 0.0022737123 0.0018887307 -0.0015715447 0.0012015007 -0.002086543 -0.0021768704 -0.0017551355 0.00066498294 -0.0022246426 -0.00010238573 -0.0021661732 0.0017221343 -0.0022609704 -0.00014194145 2.547211e-06 -0.0020007128 0.00048284233
FNT 0.0018489482 -0.0024045224 0.0010516112 0.0010881991 -0.0003692973 0.0019473275 0.0011025347 -0.00013180377 -0.0011341939 -0.0022912768 0.0010705345 0.0022877632 0.0018122175 -7.587319e-05 -0.0009154607 0.0012674463 0.0015325391 0.0010174719 4.687981e-05 0.0023399086 0.0021786673 -0.0020629298 -0.0021810336 -0.0021174725 -0.0007624929 -0.0010362588 0.0021198704 0.00069829845 -0.00085706724 -0.0013682874 0.0018298187 0.00082747545 -0.002307536 -0.0012668315 0.0016233282 -0.001179761 -0.001646167 0.0020799802 -0.0011402481 0.0012217583 -0.0017141924 0.0012608892 -0.0011951936 0.00083204417 -0.0013013036 -0.00019894283 -5.06582e-06 -0.0014822034 -0.000562673 -0.0023914662 -0.00095428264 0.0009784042 -0.0010827652 -0.0011028098 0.0025317848 0.000599131 0.00026008184 -0.0023623952 -0.0009684512 -0.0010111979 0.0016646706 -0.000279081 0.0012373432 0.0013358456 9.867695e-05 0.0021251664 0.0022618352 0.0017238564 0.0022299956 0.0016366318 -0.0014292706 0.0014424663 0.00032873816 0.0018392833 0.0022883164 0.0018357344 -0.00078604324 -0.0012040496 0.0003182674 0.0017453986 0.0018778315 0.00024946348 0.00013704895 -0.00011949536 9.453316e-05 0.0010216549 0.001974527 -0.0006226725 0.0021511267 -0.0014964124 -3.7328624e-05 0.00050135306 0.0021631268 3.1735843e-05 0.002008589 0.0014874409 0.00046382 0.0019081553 -0.00011529087 0.0019637272 0.0010478599 -0.002148401 0.0015478627 -0.0006464442 0.0015662723 0.0023890745 0.0012834512 0.00014535143 -0.00073179684 0.00222943 0.00087373034 -0.00059661974 0.0020544718 -0.0018402255 -0.0023504056 -0.000653964 0.0010779268 -0.0013019238 0.0020498256 -0.0010264885 0.0016130011 0.0009929949 -0.0014103308 0.0025418745 -0.002399217 0.0015193264 0.0016211718 -0.00035896705 0.002465555 0.0017586882 0.001189867 -0.0010465612 -0.00075335905 -0.0021642637 -0.0006572787 -0.0018160696 -0.002151265 -0.00026731988 -0.0011682981 0.0005061091 0.0020667547 7.4138393e-06 -0.002099898 0.0005653785 0.0025264693 0.0013154756 -0.00036855726 1.21334115e-05 -0.00215334 0.0024888557 0.00066433504 0.0012634287 0.001979078 0.00070954 0.0021907054 0.0009255688 -0.0018520267 0.0010266721 0.0012719991 0.0004443427 -0.0009594719 3.2763633e-05 0.0017619637 -1.4893734e-05 -0.00014172652 0.0012146793 -0.0006149313 -0.0001203185 0.0007814143 -0.001508444 0.00019488182 -0.0019552151 0.0019428085 0.0013618629 0.0010441098 0.002361818 0.00033594473 -0.0024964896 -0.00070532016 0.0018883132 0.00084798323 -3.219926e-06 -0.001979353 0.0015341146 -0.0007333047 0.00077745394 0.00082102814 -0.0012457707 -0.00041469448 -0.0020545889 -0.0017789225 0.0016413922 0.0021996645 -0.00096170686 -0.00043349108 -0.00047604024 0.0017666238 -7.803622e-05 -0.0012009429 -0.00044412157
NSR -0.0012753576 -0.0013453152 -0.0023926306 0.000515849 0.00037714318 0.0021399532 -0.00053270126 0.00045749682 -0.0020172342 -0.0018590807 0.0004350383 0.0024976179 -0.0012091367 0.00239396 -0.000112643895 -0.00066117966 -0.0022846628 0.0010710197 -0.0011695396 -0.0016991207 -7.5028925e-05 0.0020944106 0.00070314173 -0.0024755825 0.0022528903 -0.002480652 0.0018553009 -0.0012819441 0.0017286165 -0.0017859057 -0.00017509624 -0.00060264545 0.0024203006 0.002097555 0.0020314418 0.0021525582 -0.0003869343 0.00025394073 0.0016732943 0.002073424 0.0023748255 0.00020648394 -0.0016555919 -0.0014277317 -0.0024904027 0.0010187505 0.00027619998 -0.0024050532 0.0013374551 0.0021675122 -0.0012788216 0.0012308196 -0.00018424519 -0.00033724617 0.0024589126 -0.002373088 -0.001619188 0.0007799789 0.0004936052 0.00068383076 0.0001339471 0.00070108456 -0.0018149788 0.0020820783 -0.0019216433 -0.0020556874 0.0019621588 0.00015183729 0.0017687696 0.0019331741 0.0014135261 0.00081588334 0.0020425313 -0.0017293375 0.002108247 0.0002909669 0.0016886456 0.0006596831 0.000830127 0.00065648847 -0.0002365556 0.0011832836 -0.00075532636 -0.001861515 0.0024225472 -0.0018934127 -0.0014479831 0.0005322899 -0.0023281157 0.0005477606 0.00039162187 0.0005071413 -0.001953416 -0.0016332594 -0.0010298297 0.0012976525 -0.0023543495 0.00039210782 0.0024364379 0.0014017274 0.0002700092 -0.0020214636 -0.0012704463 -0.001583875 -0.000933185 -0.00081978575 -0.0011602927 -0.00010511287 -0.0010891958 0.00021576886 0.00010103986 0.0014699127 -0.00024942483 0.0009784552 -0.00094849104 5.762804e-06 -0.0023095922 -0.001122767 -0.0021175328 0.0023737077 0.00031437553 0.0010474223 0.00020835939 0.0025616246 -0.0023595365 -0.0019376845 0.0003492878 0.0006605649 -0.00033386992 -0.0016396998 -0.0011705019 0.0014020167 -0.002385863 -0.000727714 -0.0012281652 -0.0013052702 0.0015179263 -0.0013864717 0.0013416619 -0.0025292535 0.0006243445 -0.0013523726 -0.0019082957 -0.0019173087 0.002119236 -0.0019161693 0.001455294 -0.001991534 -3.8509952e-05 0.0009848954 -0.002469922 0.0014319794 0.000604003 -0.00015686055 0.00093605014 0.00048518012 0.00078760245 0.0005884307 -0.00014475241 -0.00163652 -0.0013880612 -0.00013834843 0.0005154995 0.0011746758 -0.0013185834 -0.0005461596 -0.0022796532 0.0014949383 0.0014862099 -5.347302e-05 0.0024958216 -0.0016125726 -0.0009841749 0.00095431897 -0.0010748244 0.00019955303 0.0012254374 0.0011494493 -0.0019303914 0.00069209083 -0.00045034086 0.0022432818 -0.0015159826 -0.0013742247 0.0007154886 -0.0022870945 0.0015013366 0.00052863924 -0.0015158622 1.8458983e-05 -0.0024947003 -0.000680884 -3.2140513e-05 0.0023241912 -0.00041139426 -0.0024884827 -0.0014536827 -0.0007444909 0.0017154138 -0.0022267608
EKE 0.00095715985 -0.0020415154 0.0015224078 0.0024043045 0.0013571922 0.0023554051 0.0012884454 -0.000512047 0.0021341278 -0.002037396 -0.0023053067 -0.0023059696 -0.0016936057 -0.0005708205 -0.000377195 0.00071722944 0.0014307027 -0.0024398416 -0.0023743208 -0.0011743977 0.0010418429 -0.0008502183 -0.0009211191 -0.0015360711 0.0014768362 0.000120177065 0.0014459526 6.7309695e-05 -0.0023870459 -0.0014172596 0.0020320166 -0.00024113274 -0.0016568403 -0.0018665452 -0.0022205007 -0.000666956 -0.0013044873 -0.0015590996 -0.0019939956 -0.0019193881 0.0024202233 0.0007021291 0.001970367 -0.0008210272 -0.002376584 0.00055346295 0.0014050324 -0.0013359537 -0.0017626928 0.0007423677 0.00098941 0.0022816216 -0.0008936165 0.0022964058 0.0018737883 0.0002937635 -0.0008265028 0.00092269137 -0.0001364042 0.0013718518 -0.0014602117 0.00075705897 -0.0024352286 0.0018979252 -0.0023002073 0.0019570908 0.0010827945 0.0014158098 -0.002134819 -4.4883214e-05 -0.0001234912 -0.0005141024 0.0013009617 -0.000475118 0.0021817868 0.0008188567 0.0015422833 7.214271e-05 0.0011732458 -0.00076116517 0.0010636683 0.0021762128 -0.0022607392 -0.0017001571 -0.0015323727 -0.0017269725 1.340966e-05 0.002139264 0.0016334407 -0.001655423 -0.0013369747 0.00036945022 -0.00047006278 -0.0017628416 -0.0016746472 0.0019829916 0.0013578788 0.0013967834 0.0002635242 0.0020963603 0.0012090846 0.0006894323 0.0012545035 0.00085465936 0.0012438308 -0.00051645096 0.0025431113 -0.0014639397 0.0017068366 -0.00047801304 0.0024249225 -7.823939e-05 -0.00083027966 -0.00097440847 0.001426038 -0.0025092976 -0.0006728371 -0.0021295117 0.0006150798 -0.000119446275 -0.0018895564 0.0005094636 0.0010312516 0.0013696412 0.0014030781 0.0019984231 0.0009840942 0.0007586398 -0.0014950846 -0.0011927043 0.0008034625 0.0021857135 -0.00015607268 0.0015189648 0.0013053055 0.0024530343 -0.0009806588 -0.0015497342 -0.0021932975 -0.0007827057 -0.0020968975 -5.8271307e-05 -0.002256091 0.0016197717 -0.0017881253 -0.0013136049 -0.0025812525 -0.0008429104 0.00071845885 0.0012262611 -0.000353467 -0.0012177569 0.0016961476 0.00027352187 0.0016872626 0.001640851 0.0019671228 -0.0013453215 -0.0021286889 -0.00030070505 0.0009785813 0.0023624199 -0.000221259 0.00059760804 -0.0020910234 -0.0024524706 -0.0011913955 -0.0004383067 -0.0011907183 0.0017905368 0.002191567 -0.00015645634 -0.00027750852 -0.0010426963 -0.0015384508 0.0012118046 0.002285718 -0.00018161324 0.00126418 0.0011579383 -0.0025284267 0.00011427515 -0.00010573741 0.0023993768 -0.0007020953 0.000706963 -0.0007964378 -0.0004396825 0.00069963135 0.0010670372 -0.0015660061 -0.0010717636 0.0008680757 -0.0011090984 -0.00077328284 0.000626093 -0.0009650726 -0.00076169166 -0.0023004152 0.0007522499
PGL 0.0014616781 -0.00065432384 -0.0011526089 -0.0017983424 0.0001919435 0.0021544315 0.0021442005 0.00089419284 -0.0007332754 -5.9032795e-05 -0.0009967854 -0.0005974126 -0.00076693774 -0.0010826685 -0.0004988765 8.729037e-05 -0.0006721349 0.00032844517 -0.0024863512 -0.002248729 0.0011737115 -0.0017055651 -0.0022983388 0.0018832353 -0.0007084039 -0.00032785948 0.0006479899 0.0016817966 0.0006617536 -0.0020097517 -0.0020779958 0.0010878843 0.002353217 -0.0012081882 0.00015067337 -0.0019469488 -0.0017409418 0.0015268592 -0.002263215 0.0021710761 0.0010557438 0.0010073037 -0.00042946628 -0.0008373957 0.0022343418 0.0021046177 0.0021109488 -0.000894869 -0.0022144357 -0.0006926649 -0.0023449676 -0.00075992075 -0.0019249134 -0.0018323137 0.0017309138 0.00063305197 -0.0023436332 0.0008883444 -0.0005532393 0.0022215627 -0.0008213784 -0.002394671 -0.00042549454 -2.83533e-05 -0.0015246288 -0.00041999778 -0.0015513443 0.0017431505 -0.0022742888 -0.0014051803 0.00025658304 -0.0009075687 -0.0008455852 -0.0011496299 -0.0025016125 0.00051808025 -0.0010327661 -0.0011294066 0.000525037 -0.0012073484 -0.00058861036 4.342984e-05 -0.00094541843 0.0024784508 -0.0015160991 0.0004411007 0.0014455537 -0.0022075006 0.00014757836 -0.001167741 -0.00036759357 0.0019999277 -0.00026122355 0.00035690962 -0.00038975687 -0.0010238461 0.0020868934 0.0014902066 -0.0023648522 0.0024600998 -0.00060822594 0.00079631916 0.0024554709 0.00085531647 0.002125997 0.0014958839 -0.002166444 -0.0020639773 7.873911e-05 0.00019512368 -0.002048627 -0.0015659756 -9.678014e-05 -0.0013113169 0.00046115636 -0.002411673 -0.0008145659 -0.0006106576 -0.00071873376 -0.0005788406 -0.0023231197 -0.0015056961 0.0009778985 0.0021616241 -0.0017511334 0.00060903426 0.0011496487 -0.0017949594 -0.0009954895 0.00046930555 0.0005178704 0.0011009916 0.0009785701 0.00030396876 -8.8519744e-05 0.0008089857 -0.00056624896 -0.0011128533 0.00045814065 -0.00018656014 -0.0022761838 0.0024805171 -0.0024414167 -0.0016687098 -5.3001495e-05 0.00034459552 0.00025312311 -0.0018410427 -0.000104748484 0.002358771 0.0018925071 -0.00015078271 0.00031870132 -0.0014339758 -0.0017819377 0.0004964538 -0.0024418687 -0.0015573442 -0.0018712189 -0.0022381768 0.00011709242 -0.00087493856 0.00067756325 0.0005034119 -0.0024793064 -0.0024419478 -0.0016842826 0.0023605372 0.0011312959 0.0021155863 -0.0018359101 2.402308e-05 0.0020308432 0.0018731453 -0.0011116758 0.0010766262 -0.0010433028 0.0016902142 -0.0016712509 0.002160442 0.0007991285 -0.0019464613 0.0007602437 -0.00027181086 -0.0003446572 0.0016104123 3.4194882e-06 0.0024895803 -0.00075979973 0.00022500845 -0.0010878176 0.0010765597 -0.00090681284 0.00014635647 0.0006790485 -0.0015853702 -0.00083990564 0.0012795815 0.001721758 0.00014119428
LVE -0.0017568823 -0.0011656304 -0.0018019163 0.00038490887 -0.0021660018 0.0021141178 0.002231841 -0.0024474687 -0.00023898667 0.002059949 -0.0011902403 0.0012142026 0.00031449267 0.0017336233 -0.0010446167 -0.002375804 -0.00092885416 -0.0007451077 0.00020487761 -0.0021705695 -0.0005844094 0.0014690263 -0.0010478937 -0.0015747617 -0.0005330824 -0.00047201727 0.00014423311 -0.0008993655 -0.0010462233 0.0021371427 0.001719764 0.0021368642 -0.00012803242 -0.0013272126 0.0010757032 0.00019602073 0.002053721 0.001325049 -0.00041933954 0.00094136316 -0.0017037401 -0.0019400629 0.002346214 -0.00038285516 -0.0020985706 -0.0015778036 -0.0005397915 -0.0013074157 0.0001731189 -0.0005109697 0.0002770227 -6.150428e-05 -0.0015219654 -0.0021282625 -0.0023374057 0.0013412413 -0.0014705958 -0.0021727497 0.0016870447 -0.0018317193 -0.0008283417 0.0009064422 0.00078559434 -0.00016147213 0.0007560227 -0.0007945265 0.002423637 -0.0009956037 0.00015560239 0.0014694385 -0.0004836226 0.0003502767 -0.0021237782 -0.0010641966 -0.0010484179 -7.412787e-05 -0.0021904192 -2.2453245e-05 4.3237043e-05 0.0006247774 0.002267137 0.002272555 0.0005848165 -1.8355021e-06 -0.0019935651 0.0018208545 -0.001872965 6.564956e-05 0.0022320647 0.0016063331 -0.0015164078 -0.00012419921 0.0022730348 0.000814859 -0.0013635237 0.001003981 0.0021505074 -0.00125743 -0.0023468835 0.0009663425 0.0022587604 0.0008054657 0.0015324453 -0.00014675995 -6.1964725e-05 0.00041491137 0.0010340505 0.0019281763 -0.0019799978 -0.0006766315 -0.00091244694 0.0003250743 0.0012756431 -0.0012286889 -0.0024701345 -0.0003809534 0.0017246858 0.0020343368 -0.001234042 0.0014511852 0.00048133306 -0.0007779884 0.0014062489 -4.778949e-05 0.00047309053 0.0022458239 -0.001737752 -0.0008679788 -0.0023754225 0.0017553726 0.0018622148 -0.00027458192 0.00089971826 -0.0019086521 -0.00012096078 0.0023752677 0.0006704989 -0.0016099426 -0.0005521858 -0.0021243282 -0.0015662576 0.0023568044 0.0018167602 0.0009792751 -0.0020202692 -0.00059886737 0.0001568028 0.0006211963 -0.0023465967 0.0022967157 -0.00022839151 -2.0905694e-05 0.0019685416 0.00046446794 0.00166244 -0.0010831087 -0.00024005842 0.0011318628 0.00072400866 0.0022086892 -0.0008146304 -0.0016433937 -0.00049457763 -0.0012373584 -0.00093802356 0.0010415857 -0.00018979126 -0.0015211673 0.001838537 -0.0005762957 -6.9381254e-05 -0.0012917266 0.0023295511 -0.0004807878 -0.0007309495 -0.0006664518 -0.00022465333 0.0012678074 -0.0011494238 -0.00082850555 0.0018758331 -0.0013200949 0.00069542613 -0.002453351 -9.820148e-05 0.00092718384 -0.0019460754 0.000992925 0.0018945483 0.00033829833 -0.0025257405 0.0012986782 -0.0019965766 0.001273662 0.0012528579 0.00028525043 -0.00033194918 0.00224029 0.00037750404 0.0023317018
FSL 0.0023628997 -0.00077196397 0.002477218 -0.0013446136 -0.0017406952 0.001668526 -0.0012250729 0.0018495504 0.0021509698 0.0010924196 0.00062625034 -0.0004931907 -0.00031003932 -0.0019869865 0.00047976023 -0.0010963045 -0.0024203924 0.0022508637 -0.0010684355 0.0023209446 -0.0016184282 -0.0012088838 0.0016688228 -0.00015428371 0.0013289315 -0.0012540026 0.0013902717 -0.0016563119 0.0012825645 0.001316568 -0.0011735134 -0.001220391 -0.0009201253 0.0012970583 0.0020292762 0.0011352306 -0.0019361622 0.0024235933 0.00091597636 0.0013324365 0.00056165835 0.00097098853 -7.3374475e-05 0.0001929951 0.0019144248 -0.00013690011 0.0005041085 0.00074653164 0.0004560468 0.0012818386 -0.0012163199 0.0011293563 -0.001109622 -0.0016277164 0.0006321238 0.0006682398 0.0013087718 -0.0019940084 -0.0020310334 -5.078712e-05 -0.0015441269 -0.0017351607 0.0014375298 0.0019153754 -0.0010976561 0.00024970135 -0.0010585815 -0.0009810566 0.0019562363 -0.0023892513 0.0006467812 -0.0022358024 -0.00096331496 -0.0017915949 -0.00023443779 0.0013488166 -0.0008910688 -0.0003713223 0.0022009213 0.0015276701 0.0015725523 -0.0023593898 -0.0016527311 -0.0011444611 0.00096919836 -0.0011819899 0.0006620642 0.00086759095 0.0013182837 0.000924752 -0.0002067822 -0.00028675227 0.002567076 -0.00178573 0.0021504874 -0.0013007972 -0.0020435508 0.0021825777 -0.00018458537 0.0024452726 -0.0016548662 -0.0013203694 -0.0018898908 -8.706054e-05 -0.0018703038 -0.0013243401 -0.002295597 -0.0005678846 0.0014983404 1.7127912e-05 -0.0025070652 -0.0019254406 0.0014490138 0.0010340554 0.0022421293 -0.0015207969 0.0009337981 3.6765545e-05 0.00016808856 -0.0025601971 -0.0013120254 -0.0018349441 -0.0023657384 -0.0014118378 0.0022946363 -0.002119215 0.00023110358 -7.362658e-05 0.0022733186 0.0016675651 -0.0014462004 0.0022027434 0.00028009427 0.0008904426 -0.001561509 -9.008699e-05 -0.0016168817 0.0008922995 0.0017186796 -0.00026595386 0.0024094942 0.0005904991 0.0009840043 3.9773182e-05 4.781124e-05 0.0021330586 0.00046474303 -0.002124887 0.00039291295 0.000525114 -0.00018480833 -0.000157714 -0.0008187533 0.0021047336 -0.0014305803 -0.0010457687 0.0014437694 -0.00080415956 -0.0012238028 0.0016621148 -0.0022675258 -0.0008733499 0.0007755578 -0.002244281 0.0006842439 -0.00043963295 0.0003835899 0.0013128121 -0.0018301207 0.0024625722 -7.451955e-05 -0.0014535548 0.0018540493 -0.0017208876 -0.0016946219 -0.0020712733 0.0011554856 0.00014342324 -0.001569526 0.001956768 0.0006315904 0.00069700804 0.0023502302 0.00035746116 -0.0009300477 0.0018705578 -0.0013187308 -0.0022951441 -0.00047960362 0.000654105 -0.00066725386 0.002141604 -0.0017494281 -0.0008886294 -0.00022726342 0.0009136179 -0.0011052412 0.001066055 0.00012862452 -2.7836413e-06
GET -0.001446931 0.00074328855 -0.0015237915 -0.00065145415 -0.0017173456 -0.0012623456 0.0006799673 -0.001377356 0.0015984271 -0.00089609035 -0.00015855339 -0.00066091627 -0.00041437946 -0.0023400665 0.0012097431 -6.4078384e-05 -0.0011515699 -0.00082953274 -0.0012563015 0.002065589 -0.0013279698 -0.0019407747 0.0018625837 0.00084066053 -0.0017531036 -0.0006781294 0.0013060684 -0.001330159 0.0015923262 -0.00036807824 -0.00030802417 0.00046489868 -0.00075374066 -0.0024444377 -0.0015576478 -0.002380024 -0.001727579 0.002472881 -0.0012513767 -0.0012268054 -0.0010370883 -0.0018308972 -0.0019029351 0.0016974037 0.001519321 -0.00013793106 0.0015857193 0.0024796727 -0.0006404441 0.0018455174 -0.0015685735 0.001980195 -0.0010890007 0.00050395535 0.00134661 -0.0013915234 0.00087309646 0.00046174295 0.0020537497 7.239814e-05 -0.0010876412 -0.0017646803 -0.0001231193 -0.0011207147 0.00091582566 0.0022149605 -0.00046708735 0.00028831983 0.0013672276 0.0008537501 0.000689521 -0.0013519564 -0.0020594252 0.0007043058 0.00027217812 -0.0007331752 0.0009179265 -0.0018056512 -0.0015572405 0.001332347 -0.00038198457 0.0011379028 -0.0023982637 -0.0016999755 -0.0016726813 0.0011341909 0.0010632523 0.0005272252 -0.00028510328 -0.0014890524 -0.0014414969 0.0015607544 -0.0005163335 0.0020002786 0.0018890123 0.0010593445 -0.00221814 -0.0003326774 0.0011388112 0.0022224302 0.0016677453 -0.00062501436 0.0014173776 0.002542012 0.0023390676 -0.0006403557 0.0012266313 -0.001340823 0.0022395574 -0.0022731787 0.0023203408 0.0011781581 0.0022637679 -6.533286e-05 -0.00021397752 -0.00055529963 -0.0004891231 -0.0004486771 0.0023361065 0.00030908486 0.00016786194 -0.0016224321 0.002203475 0.00037845987 0.0015992274 0.0020694886 0.00067332725 0.0024917303 -0.0022035444 -0.0006630793 -0.0017318599 0.0005645106 -0.0012494538 0.0021937818 -0.00038320952 0.0013062196 0.00035067738 0.0015825767 0.0010332806 0.00020373633 -0.0010184178 0.0014381275 0.0022781147 0.00040202576 -0.00048258217 -0.00043239465 -0.00017424668 -0.0010522942 -0.00040390663 -0.0003634078 0.00043961385 -0.0012636624 0.00028982735 0.0013164051 -0.0019927274 0.0020250722 -0.00015194154 0.0018379895 -0.0021496525 0.00094492675 0.00087328063 0.0020199348 -0.0010041188 0.0013047006 -0.0013541315 -0.0014190049 0.0025506255 -0.0017701932 -0.00071387715 -0.00013279323 0.0020728554 0.0017057752 -0.0005023288 0.0021077667 -6.808842e-05 -0.0015211782 -0.0015865004 -0.0013319661 -0.0021414263 0.002443683 0.0017325945 -0.0020169509 0.001822206 0.0003537121 0.0022681728 -0.00087244593 0.002212106 -0.0007955465 -0.0015524579 0.0020825516 -0.0022241813 -0.0012139484 0.0009369273 0.0008433889 -0.0015664138 -0.002427472 -0.0013516872 0.0011937849 -0.00083860604 0.0024164726
