566 200
SLK -0.0010030628 0.000100835154 -0.0019347421 -0.00076493184 0.0014542947 0.0014068135 0.00084618153 0.0020921843 -0.0019026415 -0.0006590894 0.0022805685 -0.00096782576 -0.0024763828 0.0007323335 0.00061047205 -0.0022421663 -0.000654532 -0.0011798553 -0.00060771394 -0.00050038786 -0.0007698266 0.00084362755 -0.0011791416 -0.0016665208 -0.0005201962 0.0019055296 -1.512186e-05 -0.0019836018 -0.0012254894 -0.0022825655 0.0010594992 0.0018288207 -0.0006668121 0.0021907832 0.00094542024 -0.00170071 0.00183659 -0.0005609948 -0.0008470077 0.0024044297 -0.0006272259 -0.0015420591 -0.0015622115 0.0022688601 0.00055790844 0.00022420083 0.0021307333 -0.002215041 -9.6654316e-05 0.0014316123 0.0010925673 0.0023748777 0.0017993941 -0.0010667549 -0.0010471892 0.001276248 -0.0010441451 -0.0013733016 -0.0017143694 0.0008117987 -0.002100952 0.0005481462 0.0012565582 -0.00027537628 0.00060161017 0.0005101376 -0.00082007336 0.0009339486 -0.0017269732 -0.00015142813 0.00080418744 0.0013757494 -0.0009887083 8.432536e-05 0.002368311 0.00069492083 -0.0023838778 0.0010613009 4.0552673e-06 -0.0012329626 -0.0020130351 -0.0019470055 -0.0023918888 -0.0016396545 -0.0009881324 -0.0011715402 0.001962593 -0.00018947676 0.0022470367 0.0016972214 -0.001412244 0.002093491 0.0007775214 -0.0022779112 0.00067085406 -0.0020114318 0.00066405896 -0.002079473 0.0007314552 0.00023783054 0.00052206067 -0.00213498 -0.0011686112 0.00062618905 -0.0006196545 -0.00065055385 0.0016532214 -1.8988281e-05 -0.0014523834 0.0022160858 -0.00019177794 0.0021167719 -0.0020362854 -0.00040376265 0.0007045411 0.0006447945 -6.798684e-05 0.0010527554 0.0020198557 0.0006721824 4.0404648e-05 -0.0011978751 0.00034359843 -0.001697562 -0.002398286 0.0023275372 -0.000497055 0.0011098448 -0.0021362582 -0.0006785072 0.0005731353 -0.0021288977 0.0024249821 -0.0019835131 -0.0010200157 -0.001747614 -0.0021896977 0.0007778393 -0.0014301152 0.0004458818 0.0013275212 0.0012406965 -0.0007275597 0.0022300016 0.0020351794 0.0007773101 0.0010185415 0.00054066326 -0.00065416447 -0.001602047 -0.0009327506 -0.0015748533 -0.0017828726 -0.0016216517 -0.00064577936 0.00032859002 -0.0020514058 -0.0020315524 2.8936416e-05 -0.0016045409 -0.0020136943 -0.001464344 -0.0009834922 0.00060522277 0.0021689925 0.00021460328 0.00028584892 -0.001936293 0.0014174379 0.00021913492 -0.0014197932 -0.0024451527 -0.0018287416 0.0020558643 -0.0011970316 0.0025154531 -0.00033851096 0.0002898627 0.0022417586 0.0015096798 0.0020330683 -5.9363232e-05 0.0016878136 0.0015900587 0.00081262534 -0.00079336023 0.0020084986 0.0015118823 0.001884626 0.002055723 -0.0019471188 0.0005348844 -0.0013935537 -0.002366717 0.0012977426 -0.00059789 -0.0020364467 -0.00046651036 -0.000643891 -0.0013259477
LVC -0.0014843112 0.002325912 0.00041341965 -0.000457389 -0.0012172903 0.00088795676 -0.0017862645 0.0020845444 0.00040228703 9.997711e-05 0.0016066885 -0.0019978404 0.0006969608 0.0009175631 0.0023191834 0.0004208282 0.0008670355 0.00038776512 -0.0025192345 -9.802296e-05 0.00043508506 -0.0006363904 -0.0008578444 -0.0024026074 -0.0023426889 -0.0024238671 -0.0021346405 -0.00149934 -0.00090742245 0.0024012309 0.0017329991 -0.0018813327 0.00025454137 0.0005085536 0.0024462014 0.0014462607 -0.0010761742 0.0011953603 0.0008221692 -0.0022875224 -0.0012190182 1.1843196e-05 -0.00017557543 -0.0012803815 0.0018995996 -0.0019943821 -0.0014854127 0.002213123 -0.001961487 0.00042818586 0.0010908546 -5.6944273e-06 -1.9310939e-05 -0.0018969487 -0.0021200387 -0.0015931877 0.001627026 -0.0006712538 0.0012969036 0.0007962202 -0.00017555853 0.0022312454 0.0011899339 0.00038646816 -0.00037665278 -0.00056664605 0.0017358738 0.001199929 -0.000121993726 0.0016059761 -0.0015569519 -0.001968228 0.0005684576 -0.0025150208 -0.0016744407 -0.001195666 -0.0021972128 -0.0024457898 0.0007898712 -0.0013959116 -0.0014921167 -0.00026803298 -0.0017856187 0.00052666117 -0.0010324508 -0.002182621 0.00084328605 0.002562451 -8.9075715e-05 -0.0006066804 0.0024560501 -0.0023687016 0.0008569974 0.00089206843 -0.0014338022 0.0013922511 -0.001425824 -0.001591894 -0.002013198 0.0007487156 0.0012896687 0.0010069319 0.0022851152 -0.0016908335 0.000985521 0.0022359123 -0.00013565269 0.0020415059 0.0023111496 -0.0023869665 0.0015432944 -0.0019729487 -0.0020644658 0.0025135034 0.0005476326 0.0018626337 -0.0019850377 -0.0011229728 -0.0025238076 0.0010278942 -0.001752578 0.000425545 -0.0020397047 -0.0012795745 0.00084903353 -0.00040820547 -0.0015185116 0.0020025542 0.0020288483 0.000689367 0.00071169774 0.00069219095 -0.00021958805 -0.0011047829 0.001639234 -0.001327109 -0.00063507 -0.002048785 -0.002535263 0.0020207593 -0.0012108455 0.0010660149 0.0006817418 -0.0012426837 0.0010514794 -0.0012352599 -0.0019596545 0.00068314344 0.00058444793 0.00042734144 6.645898e-05 -0.0022836183 0.0024234492 -0.00033804422 -1.5386826e-05 0.0020817902 -0.0021391334 -0.0010569674 0.0014159118 0.001439469 -0.0020126544 -0.0013034289 0.0014649924 0.00031719232 -0.0010871794 0.0022702068 0.0022825683 0.00019618211 -0.0012843651 0.00046316464 -0.0009482469 0.0006276544 -0.00021404159 -0.00044202805 -0.001380452 0.001764597 0.0004897923 0.0025077683 -0.0001561227 -0.0016645078 -0.0021944228 0.0014523168 -0.0007892284 0.0006201684 0.0022045416 -0.00045432974 0.00090456696 0.00075867947 -0.001186764 0.001963171 -0.0012797327 0.0017079317 -0.00016026448 0.00054209895 -0.00031588032 -0.00013143569 0.0006823865 -0.0023653342 0.0022837794 -0.00089094485
ALG -0.00208812 -0.00026711475 -0.0015372119 -0.0012128613 5.7427875e-05 0.0007245901 -0.0016985761 -0.0020681613 -0.0021769607 0.00045875137 0.0009293189 0.0008493087 -0.0016538796 0.00041681124 0.00075430353 -0.0011856798 -0.0019611337 -0.0013040513 -0.0023696695 -0.0016944908 -0.0005956935 0.0012194678 0.0009610243 4.8709437e-05 -0.0023256028 0.0012767279 0.0011218159 -0.0006303637 -0.0018745146 0.0013699285 0.00040997833 -0.00033817822 0.00045771533 0.00033367967 -0.0019430073 0.0015640346 0.0019215553 -0.0021559116 0.0013230254 -0.0011449187 0.0010039413 0.00022427598 0.0015446095 0.0018530729 0.0023782577 -0.0012361789 0.0024680116 -0.00029567926 -0.0022398988 0.0005958519 0.001374655 -0.0011180737 0.0011797354 0.0011964767 -0.00036492967 -0.0015064678 -0.0003836328 -0.0015423386 -4.2491836e-05 0.001814722 -2.2510383e-05 0.0008190171 -0.0014599909 -0.001968337 -0.0024324614 0.0006584864 -0.0009921301 2.2346485e-05 0.00046060563 4.2025793e-05 0.0004991282 -0.00066146953 0.002392135 0.0010519868 0.0012223247 0.0010946156 -0.0007655075 0.0015158426 -0.00037372828 -0.00054103823 0.001716271 0.0008815471 0.0022577462 0.0012754812 -4.6692137e-05 6.288145e-06 0.0005762685 0.0016483245 -0.001860633 0.0021944812 0.00052146666 -0.0014057423 0.00060932117 0.0009269072 -0.0020315112 0.0022065719 -0.0013743817 -0.0004676368 -0.00071611453 -0.0019894151 -0.00036176856 0.0021999099 -0.0023737436 -0.002154306 0.0007819164 -0.00043020412 -0.0023329882 0.0020203637 0.0006071534 0.0018772087 -0.00046325827 0.0022814965 0.0019452267 0.0015337659 0.00061733654 -0.0014303516 0.0010177844 -0.0011078509 0.00070691254 0.0023907095 0.0006870758 -0.0007712177 -0.0025007136 -0.00049893616 0.0004992067 9.9717785e-05 0.0008765411 0.0017255123 0.0018221838 -0.002233394 0.0012623926 0.0012463833 -0.0021402177 -0.0015994755 0.00071495277 -0.0023118516 0.0010573162 -0.0020961147 0.0018433144 -0.002223633 -0.0012629132 0.0014753122 -0.001639437 -0.0010665592 -0.0023715738 -0.002497411 -0.0025446997 0.001979162 0.000797652 -0.0011129536 0.001593457 -0.0021033809 -0.0007778735 -0.0022343828 -0.0010044517 0.0010223947 -0.0023465827 0.0013859265 -0.0015593647 0.0011520007 0.00013938641 0.00020341446 0.0023161934 -0.0013542783 0.0018815099 -0.0004075658 -0.0013402279 -0.0012449025 0.0019598058 -0.001477692 0.0008506664 -0.0013628477 0.0022724047 0.0015043532 -0.0019068918 0.0014064166 0.0013913147 -0.00038651185 -0.0022542381 0.0014498613 -0.0007267743 4.780792e-05 -0.002413557 -0.001740135 0.0011255756 0.0010761976 -0.00045906307 0.0025515354 -0.00035283028 0.0022460325 0.00015813998 0.00047846892 -0.002210264 0.0019900235 0.0013517695 -0.0008004352 -0.00017949013 0.0011082159 0.0001891347 0.001624427
LKP 4.941419e-05 0.00203689 -0.0009962448 -0.00023511647 -0.001956241 0.0015432684 0.001332741 -0.0022031083 0.0008371451 -0.0006740074 0.0014958542 -0.0017113213 0.0016252566 0.0022331865 -0.0019834575 -0.0019252407 0.0023224 0.0011477025 -0.0013102917 0.00029840547 0.0008377926 -0.0014965975 0.0010110966 0.0013882885 -0.0021859678 -0.0017274187 -0.0013093632 0.0013242712 0.0012109565 -0.00013689222 0.0004999577 -0.0011923461 -0.0022317534 -0.0013185373 0.0015985346 0.00059680187 0.00035467168 -0.0017582607 0.0018944461 0.0019154035 0.0016434682 -0.0022283997 0.0020099978 0.0021164936 -0.0016519185 0.0024680865 -0.00043326087 0.0013016844 0.0020513467 -0.0020057582 -0.0022065404 0.0025146147 -0.0017494438 0.0016732046 -0.0021619955 0.00054510956 0.0010041146 0.00032602018 0.0020184666 0.0019269856 -0.0016036247 -0.001786466 -5.267823e-05 0.00051786815 -0.00033248856 -0.0005205307 -6.357704e-05 0.002035249 -0.0016238922 -0.0016827561 0.0020502903 -0.0011224911 7.3808046e-06 -0.0020818857 0.0022557199 -0.001142869 0.0016332887 0.0011673814 0.00036609653 0.0023146973 -0.0016693966 0.00226743 0.00023624959 -0.0022687076 0.0005208451 -0.0012993562 -0.0022942314 4.1940504e-05 -0.0018594821 0.00027515367 -0.002412515 0.00052752 0.0023053896 -0.0023292957 0.00041034108 0.0017154411 0.0011865159 0.00049045315 0.0015072349 -0.0010016847 0.00020626678 0.00097304024 -0.0011499649 -0.0025109977 0.00013889662 -0.002352073 -0.0018449202 0.0012100063 0.00063025777 -4.020936e-06 0.0009547859 0.0022391095 0.0021263857 -0.0006473076 0.0019104198 0.0012359461 -0.0017772861 -0.0011393452 -0.00037074063 -0.0006731754 2.9962235e-05 0.0022927811 0.00052650104 -1.2241019e-05 0.0022493012 0.001658373 0.0008661367 0.0022924559 -0.0015560928 -0.0021061667 0.0016834744 -0.00013630519 -0.0011201814 -0.00090021064 -0.0022796334 0.0023911763 0.0009826256 -0.0016187775 -0.0011520337 -0.0016937633 -0.0024503975 -0.0023776267 -0.0021936162 -4.547541e-05 -0.0016835843 -0.0015311892 -0.0003208153 0.000881058 -0.0018829177 -0.0012837449 -0.0016278401 0.0018774123 0.0020156852 0.0016902274 -0.0021953876 0.0013666002 -0.00085350283 -0.0017551038 0.00020168806 0.0018114814 -0.00045866903 0.0016428324 -0.0015224393 -0.00032918964 -0.0007418397 0.00096668187 -0.0018856832 -0.0019076569 -0.0018614257 -0.0024864844 1.3196168e-06 -0.00013360198 -0.0009036221 -0.001972503 -0.0008065614 -0.0010088009 -0.0017798962 -0.0017643719 0.0007891226 0.0019755305 0.00024063815 0.0004865135 -0.00038665146 -0.0020737972 -0.00023607277 -0.0017897097 0.00103313 -7.499657e-05 -0.001364061 -0.00016996084 -0.00096313475 -0.0016101565 0.0014503404 -0.0010190891 -0.0020916401 -0.0015873193 -0.0017766021 -0.001451196 0.0012853282 -0.002223263
NLV 0.00083309185 0.0007018967 -0.0015258446 -0.0018420806 0.001917235 -0.00012560163 0.00056162744 -0.0020193248 0.0006356755 -0.001165086 0.001659108 -0.0022300573 0.0020209556 -0.0005989193 0.00084261893 0.0004551706 0.00049599283 -0.0023845301 -0.001142378 -0.0014396756 -0.001259772 0.0007315235 -0.00044957665 -0.0024519244 0.0007036062 0.00022617979 -0.00093345036 0.0013382668 -7.945289e-05 0.0010058605 -0.0007687243 -0.00066029874 -0.0013182132 0.0017907786 -0.0018262942 -0.0015244667 -0.0020709438 -0.0016135114 0.0022940943 0.0016021781 5.8633053e-05 -0.0012300403 -0.0019522185 -0.0003269004 -0.001636403 0.0006409163 0.00093391194 0.0024010031 -0.0009568016 0.00039640514 -0.000898854 -0.0014752449 -0.0007123717 0.0020441255 -0.0010592298 -0.00015034656 -0.0019157045 0.002000855 0.0009376696 -0.00070005277 0.0020910567 -0.002081496 0.0015226086 0.0011478862 0.0015423885 0.00037271768 -0.0010035657 -0.00083537225 3.647925e-05 0.00044158948 0.001216277 -0.0010787215 -0.000543461 0.0021687679 2.3105413e-06 -0.0005657812 0.002275747 0.00049171457 -0.0021167174 -0.0008365164 -0.00092275726 -0.0016476173 0.0016909832 0.00085388945 -0.0013102937 -0.0006567984 0.00081739196 0.0024463618 0.000537044 0.002041921 -0.0018104137 0.002059809 -0.0017041009 -0.0008866153 -0.001591241 0.002381575 0.0007203518 -0.0012249802 -0.0014663247 -0.00016467889 0.00047150723 -0.002033048 -0.0021082854 -0.0012344397 -0.002182728 0.0007524453 0.0005701799 0.0016212098 -1.5416417e-05 0.0012940101 0.0020284737 0.0023870487 -0.0024522638 -0.0018290695 0.0021915943 -0.0006533476 -0.0005452421 0.0004728614 8.4059546e-05 -9.0229565e-05 -0.00010332838 0.0007842265 -0.0019111093 -0.0013887824 0.0014447856 0.00033759556 0.0024630004 -8.955968e-05 -0.0010781733 0.000278093 -0.0018415796 0.00070320297 -0.0008538504 -0.00053523236 0.0021059166 -0.00033820994 0.00095544494 -0.0004998254 5.573912e-05 0.0018374018 -0.00032530932 0.00034543723 -0.0015669261 -0.00022646492 -0.00054413534 -0.0019700227 0.0003249313 0.00044947636 -0.0009759552 -0.0016836446 0.00054367544 0.00087748864 -0.0012630204 0.0007438796 -0.0019146323 -0.0013240466 -0.0010075634 -0.00048651968 -0.0016465937 0.00038437906 0.0006588328 0.00208485 -0.0013100957 0.001810127 0.00095080805 -0.0016220681 -0.00056396436 -0.0019164416 -0.00020064002 -0.0008403656 0.0010335208 0.00021150216 6.759462e-05 -0.0008089379 -0.00209446 0.0017020241 -0.0010913331 0.0006089312 -0.0008642865 0.0023179026 0.0020504026 0.0019585178 0.0021803356 -0.00049867557 0.00040740037 0.0017770405 -0.00039006645 0.00014260384 0.00081604056 0.002364387 0.001205795 0.0015279226 -0.001950765 0.0005555129 -0.0016008809 -3.3428034e-05 -0.0013464943 -0.0022246519 0.0019172942 0.00035348482
PTV 0.000570857 -0.00031841293 0.0007266393 0.0013021533 -0.001689874 -0.0019458352 0.0018839884 -0.00014259548 -0.0015378589 -0.00015192713 0.0016378666 -0.0020101536 -0.00072697486 0.00029902696 -0.0015216597 -0.0015622609 -0.00097231683 0.0021175002 -0.002251232 5.9194183e-05 0.00057142624 0.00028382105 0.0004174485 0.0007607475 -0.0010429224 0.0018295379 0.00010977391 -0.0022652321 7.431912e-05 -0.00074102456 0.00042539762 0.0020302199 -0.0017829534 0.0009100202 -0.0005015261 -0.0009060789 -0.0022286682 0.0016099692 0.00041270957 0.0018636683 0.0016155114 -0.00048040645 -0.00045848472 -0.0022222332 -0.0006112348 -0.0022490455 0.0010249824 0.002179148 -0.0021337802 0.0023556314 -0.0019765408 -0.002103933 -0.0022780383 0.0014211143 0.0015987189 -0.0008608885 -0.0024610423 0.0012818167 -0.0021439414 0.0021473307 -0.00042354458 -0.0021726817 -0.0015547643 -0.0017333248 0.0007126323 -0.00088377617 -0.00086538005 -0.0009919836 -0.0025560923 0.0019374483 0.0012008939 0.0002999609 -0.0024611112 -0.0024772577 0.0009916202 -0.0012932707 -0.000680129 0.0018059862 -0.0016297773 0.0020272993 -0.0018016482 0.0023077475 0.0016996497 0.0020592657 0.0007992028 0.0008992039 -0.0005813523 -0.0015017742 0.00085644686 -6.66041e-05 -0.0013854477 -0.0017053834 0.0006927235 0.0018198392 -0.0013154403 0.0018742952 -0.0021721288 0.0004743536 -0.001649702 0.0021064826 0.001870641 0.0015064962 -0.0008709013 -0.00011502092 0.0005337431 -2.282388e-05 0.0021309396 0.0003352039 -0.0009978206 -0.001645628 -0.0009673049 -0.0019348712 -0.0024689229 0.0021930968 0.0017282492 -0.0010714454 0.0014630317 0.0005757693 0.0018482585 -0.0014351162 -0.00020843634 -0.00041235294 0.00096617546 -0.00083583803 -0.0020194554 0.00059627194 -2.4214263e-05 -0.0012751608 -0.0021759318 -0.00061253185 0.000760241 0.0012129009 0.001274533 -1.8022727e-05 0.0010710626 0.0006076102 0.0014808294 -0.0011185084 -0.001804616 0.0012366682 -0.0025094356 4.2613738e-05 0.0018965829 -0.0019036358 -0.0012135456 0.00024901022 -0.00012963994 0.0017284632 -0.0023407014 -0.0011231297 0.0005452502 -0.0024232743 -0.0010475074 0.0017321026 0.0010399407 -0.0016481976 0.001673327 0.0017129023 0.0014186982 -0.002106002 0.0009107523 0.0013791869 0.0010250177 -0.0005564264 0.002150601 0.002056878 -0.0021055622 -0.0009894714 -0.0022388045 -0.0015900239 0.000820799 0.0014108433 -2.1969256e-05 0.001334716 0.00082160597 0.00066145463 0.00043347455 6.885146e-05 0.00073157076 -0.0015375408 -0.0024068276 -0.0025311082 -0.002564641 -0.0021447963 0.0007597304 -3.338859e-05 -0.0017812912 0.0009661757 0.00050706876 -0.00028745204 0.0020930232 -0.0004251982 -0.0022466627 -0.0021138627 -0.0019537017 -0.0011471229 -0.0022708862 -0.00057305524 0.0006191239 -5.218466e-05
KEV -0.00049249944 -0.0012124854 -0.0016250316 -0.0013623243 0.002213944 0.00024639018 0.0013085599 -0.0017050892 -0.0015166585 6.735763e-05 0.0007085601 0.0015176885 0.0016542235 0.0020597188 0.0020245702 0.0010309346 0.0014208117 0.0011869066 -0.002022175 0.002436165 0.00075422606 -0.00053487974 -0.0004381039 -0.0012367018 0.0024364195 0.001961967 -0.00043727751 -0.0023311786 0.00060119433 -0.0017444997 0.00058921735 0.0016025333 -0.0022470604 -6.510625e-05 -0.001522144 -0.00043083192 -0.0023183748 -0.0020760144 0.00011778212 0.0018768207 -0.00023720076 -0.0011685112 0.0014910325 6.225078e-05 0.0022053444 0.0012502603 -0.0017153163 -0.0006471242 -0.00047657112 -0.00036443528 -0.0021004607 -0.0009290019 -0.0013308697 0.0018630208 -0.0018861282 -7.2048155e-05 -0.0015018595 -0.0024161718 -0.001206858 -0.0014341684 8.391067e-05 0.00093371776 -0.0016368941 0.002062787 -0.0016232334 -0.0022859406 -0.0019336769 -0.0013067237 -0.00058345805 -0.00070946943 0.001318016 0.0019583213 -0.001464625 0.001754392 -0.00020883277 0.0020127657 -0.0011294661 -0.0010116855 0.001639973 0.0005071032 6.9712194e-05 0.0018113928 -0.0009556415 0.0022460076 0.0009165261 -0.0019673586 0.0022062347 0.0015010191 9.924363e-05 -0.0018778393 8.266728e-05 -0.00069400255 -0.0024406747 -0.0018105911 0.001303386 0.002324285 -0.000112058915 0.0007132006 0.0015339927 0.0019220738 -0.0014444886 0.0012422808 0.0016837298 -0.0016226358 -0.002440146 0.0011735446 0.00070475956 0.0010405552 0.0013024937 -0.0010637903 0.0018965099 -0.0006073497 -0.00035902733 0.0013476283 0.0005601008 -0.00078158 -0.0020636816 0.0007472855 -0.0014034789 -0.0023549437 0.0024069962 -0.0007971495 -0.0022420732 0.00021125465 -0.00012984216 -0.0004427134 0.00067187723 -0.0015307514 0.00058333424 0.000497562 0.0020667382 0.0022534537 0.0024913878 0.0007199706 0.0005405055 -0.0019003818 0.00043942453 0.0009017705 -0.0011511116 4.607734e-05 -0.0021972186 0.00074162433 -0.00056798564 -0.0015716432 0.0024858108 0.001868014 -0.00064097706 0.0007567118 -0.0016273154 0.0012879582 -0.0015414165 0.0009894995 0.0023189557 0.0010616966 0.0014013977 0.0013678835 0.00040428631 -0.0024426025 -0.0014812214 0.0018956796 -0.0019461283 -0.001657018 -0.0014990099 0.0017455007 0.0014860603 -0.0005988051 0.0008635293 -0.00040439033 -0.00041273958 -0.00034905423 0.0003737217 0.00063463516 -0.0014679073 0.00016948304 -0.0006711008 0.0023755925 3.8166863e-06 -0.0010874157 -0.0012013153 0.0008034226 0.0010618543 -0.0013020553 0.00017240936 -0.0020499441 0.0022076624 -0.002476597 -0.0015803311 -0.0020061566 -0.0015035372 -0.00093920546 8.46958e-05 -0.0015523505 -0.00042955793 -0.0016848798 -0.0014886045 -0.0013967075 0.0016575722 0.0017175904 -0.0021304863 -0.0016464049
VPD 0.000925814 0.00078718265 0.0024408365 -6.904726e-05 0.00036433007 -0.0011365293 0.00023585459 0.0010087633 -0.0008836487 -0.0018985121 0.0003339776 0.0019591723 -0.002024323 0.002130301 -0.001964393 0.0016570722 0.0023885192 1.335007e-05 0.00018096669 -0.0010418796 0.002331865 0.0013488878 -0.0016590756 -0.0009788207 0.0024125876 0.0016390226 0.00018408628 0.0002514398 0.0009592893 0.0016776001 -0.0016500457 0.0016669801 -0.0006842883 -0.000602781 0.0023891677 0.0024376179 0.0013082699 -6.412471e-05 -0.0014886591 0.0004757049 -0.001345274 -0.00017222416 -0.00059611775 -0.00049015513 -0.0013500458 0.0021980775 7.100563e-05 0.0025486609 0.0015591629 0.0023876154 0.0011544632 -0.00023957912 -0.0023472146 -0.0024094277 -0.0010674772 6.5832166e-05 0.0008541617 0.0012957267 -0.001196324 0.0011031637 -0.0003309824 -0.0016935958 0.00079183443 0.0011598348 -0.0010056202 -0.0008109718 -0.0009795105 0.0010488286 0.0014538635 -0.0022884358 -0.000509433 6.2558385e-05 0.00091543916 -0.0018332598 0.0025413155 -0.0016351007 0.0019350525 0.0021762613 -0.0012660514 -0.0011378903 0.0019112133 -0.00023553526 0.0020066074 -0.0025017844 -0.0019714916 0.0005229119 0.00034368393 0.0010748802 0.0022255923 -0.0011045272 0.0011301716 0.00020673742 -0.0019596873 0.0023455727 0.0010571384 0.0009016002 -0.0013552996 0.00041754157 -0.0014537051 -0.0003524127 0.0018237575 0.001134759 -0.00037518336 -0.0021264444 0.002419193 0.0006600361 0.0013128483 0.0019552277 0.0016810603 0.00025104784 -0.0017273308 -0.0013726909 -0.0017898699 0.0009852175 0.0018681802 -0.001868489 0.00062468345 0.0004518385 -0.00061729667 0.0023155014 0.0022565075 -0.0004127705 0.0015545697 0.00020909664 -0.0024078386 0.00087344 -0.002133221 -0.0023852773 -0.00050619047 -0.00040936834 -0.0015208786 -0.0014664965 -0.0010745329 1.1633839e-05 0.0010022867 -0.0020407885 0.00076768606 -0.0008636984 -0.0011627235 -0.0011803294 -0.001067784 0.0015497684 -0.0010501192 0.00080729095 0.0019466181 -0.0024313203 -0.0023184314 0.0010948188 -0.002055851 0.0023880638 0.0007225349 -0.00232299 0.0016766537 0.0004224952 -2.382958e-07 -0.0020687024 -0.0014796014 0.00065405684 -0.00026130004 0.0011372105 0.0016894718 -0.0021231612 -0.0014607925 -0.001931245 -0.0019358712 0.0006504573 -0.001378712 0.0020040772 -0.0018001549 -0.001410269 -0.0014909122 0.002000909 -0.0023839055 0.0023599656 0.0005152385 -0.002141058 -0.0022946375 -0.00063577964 -0.0016376856 -0.0007179732 0.001176919 0.0008509061 0.0016954882 -0.0016915305 -0.0007404097 -0.0020994125 0.0011951892 0.0019426142 -0.0024862282 -0.00065961725 -0.00011314191 0.0015933814 0.00016345516 0.0020099261 -0.0005345202 -0.0010616909 -0.00085412187 -0.0010515818 0.0018956625 -0.0020003447
AYR -0.0021193281 -0.00038659762 -0.0016530731 -0.002363095 -0.000907219 0.00019853032 0.0024012092 -0.00063382334 0.002279118 -0.002240405 -0.0010710205 4.901613e-05 -0.0010481074 0.0003632567 -0.0014249462 -0.0010809009 -0.0014751104 7.3049705e-05 -0.0014982765 -0.0016424815 -3.40017e-05 -0.0014683268 0.0016196393 -0.0020582993 -0.0016452695 -0.0003487208 -0.00136584 0.00034257313 -0.0010600042 0.0012295805 -0.0020244492 -0.00078982866 -0.0019062358 -0.002218914 -0.0014634434 0.0024618604 0.0006802819 0.0018723421 0.002387395 -0.001011242 -0.0018052228 0.0024334507 -0.0023412025 -0.0014023711 4.981262e-05 0.0014522275 0.0004998381 -0.0017311467 0.0014429016 0.002187844 -0.0019571858 -0.0007486589 -0.00082876 -0.0020812778 -0.00090615463 -0.0017528387 -5.208052e-05 0.00088334247 0.00067412783 -0.0024701448 -0.0010834741 -0.0017094084 0.0010685398 0.0024218801 -0.0020146046 7.927967e-05 -0.001063591 0.00033343348 -0.0016537582 -0.002153072 -0.0008292495 0.00033578533 0.0017692806 0.0021385578 -0.0008754929 -0.0021204983 0.0019922855 -0.00036051858 0.000841213 0.0020030583 0.0009899173 0.00061415974 0.0016234757 0.0015681748 0.002400623 -0.0010305148 -0.0018071628 -0.0012214858 -0.0013313039 0.0012483811 -0.0015523385 0.002165537 -0.002346973 -0.0022183093 0.0022048617 -0.00077144394 -0.0008205072 0.0010225367 -0.001207158 0.0009308611 0.0016316113 0.0022830593 -0.00052466214 -0.00176928 -0.0011969514 -0.0019583805 0.0021115495 0.0018261636 0.0019447305 0.002426545 0.0022833142 0.001523304 0.00068191293 0.001913781 -0.0022295609 -0.0017423342 0.002132793 0.00030888128 0.00088295626 -0.0007802311 -0.0010838984 -0.0008261756 -0.0012855165 0.00041248166 0.002155801 -0.00075872784 0.0015008708 0.00026331574 0.0003184272 0.0008150663 0.0005321541 0.0019039194 0.0020187688 0.0020478785 0.0010497373 0.00040581092 0.0025059746 0.002263859 0.0010109915 -0.0017108901 -0.00045445835 0.00039762253 0.0018175156 -0.0013847122 -0.0016403251 -0.0024959599 -0.0009535777 -0.0022179636 -0.0019729908 -0.0016380209 0.0018216288 0.002199709 0.00069005793 0.0008154253 -0.0006232673 -0.000764928 0.0019381689 -0.0013632824 -3.047967e-05 -0.00021794323 -0.0024380705 -0.0019517904 -0.00037571124 0.0023699051 0.002062483 0.0016929578 -0.0023283649 -0.0016010116 0.0014399816 -0.00014921204 0.00043267797 -0.00126676 -0.0013567805 -0.0006765025 -0.0012101647 -0.0015023071 -0.00082400057 -0.0007219339 0.0001219881 0.0008311348 -0.0024789744 0.0012361872 0.0019461922 0.0021729427 0.0015373883 0.0015206571 -0.0016583068 0.0023627265 0.0010549107 -0.0025055278 0.0005454535 -0.0012047975 -0.0020958844 0.0014810819 0.0021178562 0.001544336 0.002322094 -0.0018435084 -0.0009600801 -0.0012383551
FAV -0.0011160547 -0.00073055277 0.0016637256 0.002067083 -0.0019516764 -0.00020793645 0.0007658396 -0.0005543371 0.0014018136 -0.0017426516 0.0017933404 0.0021695395 -0.0024239093 -0.0017531774 -0.0024907955 -0.0016552078 0.0020039475 0.0011176338 -0.0022033728 -0.00068195804 0.0016865308 0.0025248853 0.00077903696 0.0011541893 -0.002487405 0.00025396436 0.00027184037 0.001031643 -0.00023289697 -0.00050926703 0.002204188 0.00040624215 0.00054731296 -0.0021993318 0.00012798414 -0.0018577961 0.0013539331 0.0008617322 0.0012151503 0.00013676798 -0.002399261 -0.0012017505 0.0022329919 -0.00178441 0.0021496925 0.002059661 0.00043141627 -0.0018691613 -0.00074410293 0.001583579 -0.0022561857 0.00018459893 -0.0013252619 0.0012038267 -0.0014099024 -0.0010249788 -4.922581e-05 0.0020615638 -0.0013008524 0.00056447764 0.0023387212 0.0019260003 -0.0015579774 -0.0020527742 -0.0012832814 -0.0011187331 -0.0011857348 -0.00019533737 -0.0018958863 -0.0021440526 -0.00078339246 -0.001801511 -0.0014173895 0.000645684 0.00016581427 -0.00028597377 0.000490692 0.00047254917 0.0014594092 0.0025369874 0.0005773328 0.0011706888 -0.0014808368 0.00027851175 0.0011583541 0.00082538504 0.00038432184 -0.0017156583 -0.0016183944 0.0016588981 -0.001747489 -0.0007590117 -0.0012869133 0.0013490455 0.0021420277 0.002305475 -0.0022112646 -0.0008471762 0.00072968716 -0.0008802663 0.0013989131 -0.0022758094 -0.002395322 0.0021133167 0.0021583766 -0.0007476962 -0.00071220286 0.0007384752 0.00081293844 0.00040243298 -0.00047019086 0.0023613032 0.00074557855 0.0004177561 0.0024376253 0.0013836866 -0.0005671924 -0.0014358048 0.0020951552 -0.0013798514 -0.0010655279 0.00025550823 -0.0017062197 0.00060288096 -0.00073451863 0.0015443177 4.0209146e-05 -0.0014576116 -0.0016874407 -0.00032296116 -0.002037229 -0.0023586852 -0.00035551592 0.0019289386 0.002006778 0.0022325916 0.00017237509 0.001980736 -0.0020653817 0.0008605704 -0.00080564426 -0.0024198375 0.0018960539 -0.00093827944 0.0005314026 0.0014552943 0.0011549932 0.0011502539 0.0009547455 0.00028625445 0.0015594283 -0.0023039517 -0.0016125452 -0.0009039151 -0.0013112475 -0.00012088754 -0.0010618994 0.0016367455 -0.0010341996 0.002300777 -0.00112818 -0.0014381035 -6.729865e-05 0.00238136 0.0022025916 0.00039816578 -0.0010434883 0.0009299134 5.4166235e-06 0.0005318279 -0.0021100366 -0.00018051168 -0.00013459158 0.0019782425 -0.00038217363 -0.0014297143 -0.0006401167 0.0022999004 0.0017989891 0.0019489196 0.0006988908 -0.0021681737 0.00042476744 -0.0020227018 -0.00037854252 0.0014521576 0.0014950839 -0.0016442813 0.00034253136 0.00022927346 0.00043088448 0.0017653769 -0.0021298937 0.0018990665 -0.0013796773 -0.0021858274 -0.0020360637 -0.0015826897 -0.00034286844 -0.002402702
KPS -0.0009029053 -0.0023211716 0.0016606969 0.0018125839 -4.0610357e-06 -0.00072595675 0.0023561022 -0.0018913125 -0.0014820206 -0.0014337964 0.0015138347 0.001071339 0.00034189093 -0.0021289887 -0.00044088185 -0.0008125651 0.0018633342 -8.422954e-05 0.0013017156 -0.00039083697 -0.0006527664 -0.0017193294 0.0010143575 0.0020127632 0.00013480184 -0.00023712775 -0.0011979603 0.0024369434 0.000721263 -0.0011874995 -0.00029471968 0.0010604588 -0.0020239858 -0.00095077837 0.0016877971 0.0017513882 -0.001405263 0.00025066035 -0.0012306521 0.0004059796 0.0015776891 -0.0011712484 0.0011749674 0.002130483 -0.0019740735 -0.0012643732 0.0007360821 -0.00012007786 0.0008694122 0.0021449192 -0.000116199306 -0.002014496 -2.1758791e-05 -0.001903504 -0.0007099967 0.001798994 -0.0009791554 -0.0019772667 -0.000538048 2.1591852e-05 0.0024046502 -0.0008029225 0.0007935291 -0.0002903092 0.0006108644 0.00084784534 -0.0014507151 -0.00081964955 -0.00052911544 0.00012643069 0.0016848252 0.0012909531 -0.00039213238 0.0012746657 9.149245e-06 -0.00034874555 0.0015616443 -0.0014896031 0.0020814806 0.0011691868 -0.0015637635 0.0023208268 -0.00042869692 0.0017403743 0.00023808377 0.0011520303 0.0014868954 -0.0020533802 -0.00071787706 -0.0009708838 -0.00236645 0.0014257932 0.0014551865 0.002358885 0.0010170972 0.0012264883 -0.00090675545 0.00077731186 -0.0020106868 0.0006126056 0.0016964434 0.0020721965 0.0021967893 -0.0014200291 -0.0017606124 0.0011122811 0.0012495929 -0.0006343818 0.0015164037 0.0007992133 0.0019720108 -0.0014443421 -0.001240834 -0.00098883 -0.0010205875 -0.0020826883 -0.0007728342 -0.0022094157 0.0019715778 -0.0018660933 0.00050044345 0.002489151 0.0023936555 -0.00093334325 -0.0006609622 0.0003491693 -0.0007916588 0.0012018274 0.00030312463 -0.0022469072 0.0024275074 -0.001320698 -3.518545e-05 0.0011361585 -0.002264762 0.0011525941 0.0019781587 -0.0017734758 -0.00045935457 0.0012380689 0.0016342833 0.001933397 -0.001229061 -0.0015383788 0.0014780908 0.00075454114 0.0002701433 -0.00046735274 0.0015598916 0.00019808195 0.00067822397 -0.00023237444 -0.0012261684 -0.0004083587 0.0011417252 -0.0023865602 -0.002285897 -0.0010637887 0.0016172184 -3.5921545e-05 -0.0014200571 0.0024036602 0.0011120798 3.5997353e-05 -0.00175645 0.00086630764 -0.0018665044 7.04283e-05 -0.0017620014 -0.00039992767 0.0006713254 0.0022748674 -0.002316317 -0.001056846 0.00078547915 0.0014489039 0.0021307433 -0.0020164298 -0.0023717936 0.0016120333 -0.00050709693 -0.0010433195 0.0004871192 -0.0010141338 -0.0006847548 0.0018318294 0.0014677083 -0.0022073858 0.0014409523 0.0007100989 -0.00026914515 -0.0007027562 -0.0024005466 -0.0011712064 -0.0015267172 0.0020150838 -0.0020785555 0.0024740188 -0.0007636495 -0.001365471
PPT 0.0016070686 -0.0021334933 -0.00021512406 -0.00026972237 -0.0019098285 -0.0012068185 -0.00012860996 -0.0014761194 0.0012391764 0.00091380725 0.00045457188 -0.0022870996 -0.0012076927 0.0011445332 0.001127742 -0.000779419 -0.0022894642 0.0023666187 -0.0012736203 -0.0007168798 0.00012363387 -0.0020929286 -0.0017195382 0.0008180054 -0.00072824 -0.0025105146 0.00059266743 0.0001995173 -5.524626e-05 -0.0012828417 0.00036154006 0.002455422 0.001607356 -0.00020205138 0.0018932291 -0.00052666425 -0.0011772049 0.0019602661 -0.00058985676 -0.0001751024 0.0005871889 0.0018638466 -0.0010260893 0.0012501405 0.0014555581 0.0021889193 -0.0017364344 0.0007976267 0.0024427918 0.0005186243 -0.0008566289 0.00075904734 -0.0023056325 0.0002185223 0.0024398866 -0.00021177226 -0.0007835944 0.0023772074 -0.00025998306 0.0011452823 -0.0003681228 -0.00057372876 -0.0015490099 -0.00050038204 -0.0021546201 0.0003592414 -0.001558608 0.0010748701 0.0004993894 0.0012080589 -0.0015328175 0.0023899765 0.0020733245 -0.0014130241 0.0022376822 0.0003566239 0.0016249255 0.0021636393 -0.0018774767 -0.00105026 0.0025076594 0.00039983715 -0.0015324772 -0.001007788 0.0012788813 -0.0010680332 -0.00093274744 0.0007775503 0.00110493 0.0021033504 0.0011913223 0.0010974782 -0.001843023 0.0016832176 -0.0010939201 -0.0017879982 0.0018375041 0.00034930278 -0.0008899985 -0.0023658737 0.0020757206 -0.0013507166 0.0002453936 -0.00022792771 0.0016983814 0.00039241393 -0.0010041891 0.0017712227 -0.0006539369 -0.0024207025 0.0012246761 0.00031527312 -0.00087181304 -0.0014787051 0.0009017423 -0.0012231682 0.0005984683 -0.0016750627 0.0007922049 0.0005844433 -0.0011172281 -0.0011287376 -0.00040636017 0.0023698693 -0.0024677168 0.0019568095 -0.0019307896 0.0017008873 -0.00097300316 -0.0014597601 -0.0012873947 -0.0022123754 0.0014862838 -0.0010584941 -0.00075750536 0.0017066093 -0.0017127118 0.00017669186 -0.0019949528 -0.001811068 -0.0018142912 0.00077346165 0.00199543 -0.0017290697 -0.0023416313 0.0007222213 -0.0011581214 8.580335e-05 0.0016863793 0.00094153907 -0.0022771317 0.0012678399 -0.0021844208 -0.00029219416 -0.0002867052 -0.0018830334 -0.0003007205 -0.0012169962 0.0020331128 -0.001850121 -0.00037644658 -0.0025062403 -0.0012714929 0.0003961686 -0.000107327214 0.0010959225 0.002070359 0.001590105 0.0010510844 0.0021746948 -5.676159e-05 -0.0008728125 0.0016528503 -0.0015006931 0.0019685857 -0.00040101557 -0.0024296439 0.0014885252 0.0013260829 4.157759e-05 -0.00016808209 -0.0010519598 0.00045698645 0.001067447 -0.0017859542 0.0009435712 0.00043562264 0.0001012894 0.0020983699 0.0011492016 -0.00015548946 -0.0016318293 0.0012125416 0.00086130266 0.0009717647 0.0007331789 0.00031534914 -0.0020643852 -0.0015625792 -0.0025110438
PDA 0.0011647614 0.0018329457 -0.0011140386 -0.0019959558 -0.00069497817 0.0021004765 -0.00018126206 -0.0017952535 0.0007438697 0.000111638365 -0.0024082207 0.0018821405 -0.0010617052 -0.0017062593 -0.0021985592 0.0017340299 -0.0021226325 0.00018536625 0.0016038012 -0.0008339854 -0.002268789 -0.00044665323 0.00033984764 -0.00015582713 0.0014665959 -0.0020874536 0.0015409017 -0.0020836864 0.0014562319 -0.0002216561 -0.00089587364 0.00027809225 -0.0026183187 0.0002171815 0.0017343707 -0.0009669957 -0.00037721146 0.0013487238 -0.00049276295 0.0007909199 -0.0022215783 -0.0024098568 0.00117003 0.002294555 0.0018734396 0.0015732115 0.00060875877 -0.0021018756 -0.0015236948 0.001888172 -0.00057691615 -0.001976982 -0.001089199 -0.0009137973 -0.0021883515 7.985257e-07 0.0012036265 -0.0022453868 -0.0019859115 -0.001450892 -0.00093459885 -0.0016694906 0.0008147347 -0.0014095618 -0.0008839949 0.0018389387 0.0015612784 0.00028783828 0.0014332377 0.00082730374 -0.0016081461 -0.00015948372 -0.00065909204 -0.0016730084 0.001831861 -0.0005741445 0.0013789607 -0.0005163423 -0.0006074611 0.0012562891 -0.0012446182 0.0019354332 0.0011474339 -0.002329407 0.0004911519 0.0020732398 0.00223606 -0.00036874693 0.0014682449 0.0024039585 0.001558864 -0.0012860529 0.00130007 -0.002043765 0.00078569853 0.00092154794 -0.0021982745 0.0017024361 -0.0003752151 -9.959986e-05 0.0008424924 -0.0005510955 -0.0011404055 -9.755219e-05 -0.0023537374 0.0016685885 -0.001936895 0.0016707105 -0.0014061158 0.0008359017 -0.0006237337 0.00037286401 0.0017053724 0.001795554 -0.0007300999 0.0008329606 0.0014858309 -0.0003446526 -0.0013785685 -0.0016374207 0.0024739595 0.0020449045 -0.0023839122 6.332547e-05 -0.0005808481 0.0025527806 -0.0014079263 -0.0015305483 0.0016098921 -0.00047029767 0.0021729942 -0.002083279 -0.0006018262 0.0024808464 0.0015763206 -3.523115e-05 -0.0007010594 -0.0022178674 -0.00086879765 -0.0023924024 0.0010943257 0.000267846 0.00043325924 -0.0005994397 0.0010382677 -0.0013775735 -0.002387031 -0.0020961205 0.0006126225 -0.00021280842 -0.0016186425 -0.00039277045 -0.0012618074 -0.00072720274 0.0021895915 -0.0020342066 0.0020951615 -0.0012456317 -0.0013923495 -0.0012111079 0.0007630646 -0.0011113943 0.001067128 -0.002122242 0.0017084446 -0.0023985493 0.0017198264 0.00075148133 0.0023189397 -0.0004614838 0.0015906146 -0.0016512069 -0.0015933269 0.0006000999 -0.0003553571 -0.0016024656 -0.0017416674 0.0024007321 -0.002006439 0.0017135896 3.4048222e-05 0.0018758391 -0.00028719642 -0.0015009654 -0.0019807839 0.0020623608 0.002321918 0.0021723695 -0.0003256008 0.0005113432 -0.0024145488 0.0008286813 0.0006625111 -0.0020014553 0.0011758968 0.0020988176 -0.0003340239 0.0020402311 -0.0023950092 0.0006229557
FKD 0.00010096571 -0.00092923286 -0.002394237 0.0016135551 -0.0010131487 0.0023025163 -0.0007570322 0.0010628349 0.0007739084 -0.001099713 -0.0017324688 -0.0011313948 0.0017967251 0.0009698279 -0.00012784671 0.0024522657 0.0023510288 -0.0023057812 -0.0003994244 -0.0021997504 0.002087019 -0.0022084871 -0.00043698843 -0.0024332027 0.0018589421 -0.00013335022 0.0022430494 0.0021184697 0.002045592 -0.0015208017 0.0008777857 -0.0021015168 -0.00081260205 -0.0016482008 -0.002216706 -0.00017226243 -0.0016168752 -8.0712736e-05 -0.0005315433 0.0019474861 0.000660199 -0.0005813582 0.0017811551 0.0013831242 0.0001012886 0.0007593913 0.0021340079 -0.00028554964 -0.0013258158 0.00019229967 0.0023450346 -0.00074136216 -0.0015687395 0.00092824176 0.0022679116 -0.0015691298 0.0018504732 0.0015893446 -0.0021230883 -0.0012864871 0.0017366246 -4.0308336e-05 -0.00022035264 -0.0013921867 -0.00022734632 0.0013201484 0.0006896342 0.0025056996 -0.002389304 -0.0015593133 0.00025135864 0.0016656655 0.0021067502 -0.001717221 -0.0012135144 -0.0008980232 -4.8870525e-06 -0.00084498536 -0.001978743 -0.0012819067 -0.0007742986 -0.001728141 0.00053247635 0.0005904935 -0.002344536 0.002343294 0.0018950626 0.0006589462 -0.00016135398 -0.0014172823 0.0013163422 -0.00029960563 -0.0021418314 -0.0016546398 -0.0025040423 0.0024986598 0.00032952285 0.00025840342 0.0012798824 0.00051790953 0.001306396 0.0023263297 -0.00058153685 0.00018573798 -0.0013578293 0.0011519333 -0.0022051262 -0.002122021 -0.002334283 -0.00026037337 -0.0015595346 0.00079772546 -0.0015913119 0.0015235497 -0.0010929792 0.000765322 -5.704452e-05 0.0012137482 -0.000533764 -0.0015419472 0.0016110971 4.0268667e-05 -0.0016531455 -0.0014083283 0.0006368129 0.0010992555 -0.001347676 0.0022638866 0.0022391716 0.0012429564 0.00074570905 1.2733833e-06 5.199693e-05 0.0013741059 0.00031120598 0.00034753222 0.0020000217 0.0015887013 0.00066764606 -0.0015843833 -0.00013101005 0.0009645314 0.0010528318 0.0015913781 -0.0013618823 0.00018337967 0.002246639 0.0021005133 0.0005002598 0.00019322468 -0.0022426697 -0.000220157 -0.00055461796 -0.0010132543 -0.0019277656 0.00041604167 7.832567e-05 -0.0018020852 -0.0022580537 0.0014280174 -0.0015077835 -0.00031752262 0.0015173376 0.00034090818 -0.00090155954 -0.002163797 0.00029585187 -0.0016080785 0.0009534174 -0.001797559 -0.0022907094 0.00024958278 -0.00028555276 -0.000101450205 -1.13007545e-05 -0.0019547408 -0.001571066 0.000998247 0.0025381783 0.00019903229 -0.0022852418 -0.002571277 -0.0009136089 0.00036624083 0.0023168277 0.00042988182 0.00016866108 -0.000116125586 -0.0007093487 -0.0015116127 -0.0008472803 0.0014868276 -0.0010008104 -0.00039612807 -0.0018866175 0.00145818 -0.0024897256 0.00053979957 0.0022713891 0.0011163069
GNP 0.001541783 0.0010726858 0.0011231867 -0.0010606993 -0.0015998837 -0.0015172932 0.0017536653 -0.00035738648 7.03541e-05 0.001934482 0.00077473104 0.001222528 0.0019872866 -0.0019340834 -0.0019378901 0.0021112587 0.0015857648 -0.0025023166 0.00240581 0.0018759678 0.00011010859 -0.0009338709 -0.0004284161 0.0005450071 0.0013635879 -0.0013272206 0.0024684193 -0.0018399728 -0.0022642175 -0.0014362934 -0.0025196222 0.001232901 -0.002323052 0.0019485557 0.0013212286 -0.00017188891 0.0006430731 -0.0020781495 0.0008590628 -0.001945317 -0.0016801634 -0.00012115308 0.0015161658 0.0010946913 -0.00070261623 0.0017931814 -0.0021919145 0.00077638734 -0.0015073688 -0.0019128642 -0.0022407002 0.0023997142 -0.0005051687 0.0012950128 0.00048512922 -0.0014598513 0.0005061019 0.00239312 0.0021078528 0.0024677764 -0.0018361998 0.0004965506 -0.0003524542 -0.0016517015 0.0003699672 0.0022087055 0.001642483 0.0013722855 -0.0014402962 -0.0016740223 0.00040575364 -0.0022136972 0.0025591562 -0.0017874967 -0.00017007641 -0.001436524 0.00017916407 -0.0013302582 -0.0015049475 -0.002112159 -0.0024003447 0.0015398937 -0.002462989 0.0012367705 0.000712561 -0.0017716798 -6.796565e-05 0.00086858234 -0.0014613856 0.0024980486 -0.0007365042 -0.0017567312 0.0016093282 -0.0020580385 -0.0009863926 -0.000870822 -4.7279664e-05 0.0004123134 -0.002450938 -0.0015648308 -0.0019892992 -0.002384725 -0.0024028376 -0.0018030019 0.0014066817 0.001540312 -1.4434123e-05 0.0009929158 0.0005516632 -0.0022295045 -0.0018894463 0.0019219243 -0.0014617867 0.0021939154 0.0011848962 -0.0018966106 -0.0017986122 0.0021378188 -0.0016320067 -0.0019453935 0.0014431829 0.00037362182 -0.0012777788 0.00052148104 -0.0019415938 -0.00091779 0.0023601318 0.0014426754 0.0018081464 0.0013486696 0.001702815 -0.0014639198 0.0011023683 -0.0014826888 -0.0023277777 0.0018473113 0.0016175803 -0.00031446054 -0.0012183344 0.00018362161 0.0019398043 -0.0014754209 -0.0007688509 -0.0016254719 -0.0021043664 0.0019131202 -0.0017924508 -0.0019353263 -0.00064718875 0.0003795484 0.00085145904 0.0025073153 0.0002291559 -0.0021923552 -0.0012084529 0.0011076041 -0.0018465084 -0.0014525459 -0.0023958131 -0.0018030297 -0.00097299996 -0.002295028 -0.00077961065 0.0006493372 0.0024407767 -0.00036852076 0.0015568597 0.00082977914 -0.0019015949 -0.00034910376 0.0021798124 0.0010070265 -0.0007139313 0.00067054515 -8.561006e-05 0.00014075854 -0.002301644 -0.0006792565 -0.0016881288 -0.0008692176 -0.0015536393 0.0016953256 0.0014063353 -0.0021327515 3.8187663e-06 0.001951604 0.00245823 0.0007531332 -0.0011572448 -0.00056008046 -0.0008262107 -0.001691436 0.00026905027 0.0010552661 0.0017771956 0.0021281762 -0.0025732683 0.0024731164 0.00079547876 -0.0016141204
QNR -0.0015689795 -0.0009520136 0.0013613207 0.00051826163 -0.0019935449 0.00041263923 -0.0015405469 0.00021043533 0.0003449477 -0.0006258199 0.0009458318 -0.00024649277 0.000112795904 0.00080704904 0.00043911464 0.0015264158 0.000680073 -0.00250878 -0.0005960091 -0.00068964396 0.0017786167 -0.0018756405 0.001981669 -0.0020787762 -0.0014132994 0.00042610333 -0.0017852669 -0.00035688496 0.00039416767 0.0009304788 0.00090069143 0.0005096635 0.0020821858 -0.00033701854 0.0006532967 -0.00044394098 -0.0016891273 -0.001951131 -0.0014862509 -0.002124971 0.00023694303 -0.0024877223 0.0006357792 -0.00031787256 -0.0015376706 -0.00017622989 -0.0012391072 0.001417283 -0.0024306253 0.00045665633 0.0013040971 -0.0014009497 -0.0024631715 -0.001010594 -0.00031519786 -0.00075755175 -0.0023116465 0.00024677222 0.002036805 0.0012804521 -0.00068704673 -0.0017400025 0.0025175523 0.00075864064 -0.0008964552 -0.00056719716 0.00111511 0.0022362901 0.0014202872 0.0021286276 0.001440012 -0.0025485216 -0.00019870813 0.0023122393 -0.0015001307 0.0020749227 0.0022183422 -0.0011826251 -0.0019175068 0.0023179948 0.0011554123 0.0016187605 0.0010598446 0.0023011924 0.0020940537 0.0019028578 -0.0007330034 0.0012402592 -2.5391824e-05 0.0009054424 0.00014126564 0.0022493934 -0.00019904255 0.0017498678 -0.00062186987 -0.00064527977 -0.00060926424 0.002172111 0.00016229415 0.0011205269 0.002424789 -0.0015210677 0.0023287463 -0.0014001661 -0.0019200478 -0.00016487954 -0.000335142 0.0013087294 0.0008483991 0.00082216115 -0.0006397913 -0.0017358287 -0.0002554213 0.002389448 -6.54184e-05 -0.00049515854 -0.001337501 -0.0025473067 0.0017008878 -0.0023599206 -0.00073734595 0.0005872921 0.0013312344 0.0004890575 0.0016200014 0.0015262187 -0.0017095553 0.0024437958 0.0012791717 -0.0006021492 0.0020789413 0.0023104814 0.0013969068 -0.001475874 -0.002237856 -0.00019111144 -0.0015669266 0.0019843094 -0.00013731119 4.107401e-05 -0.0015514875 0.00029772706 -3.0317477e-05 -0.00173672 -0.00029368105 -0.0024837125 -0.0020593416 -0.0024003736 0.0017477581 0.00069117045 -0.002415616 0.00063888385 -0.0008809925 -0.001882879 0.0012531445 0.00035538187 -0.002397954 -0.0009540816 0.00067718996 0.00040818346 0.00076714304 -0.00081601524 0.0007907748 -0.0015574435 0.000667126 0.0018923181 0.002491103 -0.0010708466 0.00014604346 -0.0021856353 -0.0005945646 0.0006865312 -0.0019460199 -0.00044443982 0.0016631013 0.0023533015 0.0013597744 -0.0018763376 0.0022760585 0.002141084 0.0017522485 0.00052717346 -0.0016842455 0.0005815672 -0.0019187275 -0.00087977067 -0.00041639828 -0.0007070963 -0.0016738314 -0.0015350108 0.0015788876 -0.0010643222 -0.0010491476 -0.0013530133 0.0015892343 -0.000945441 -0.0020413012 0.0019400464 -0.0014010628 -0.0016949853
TRT -0.0008852833 -0.0011449094 -0.00025638565 0.0006297139 0.0022051486 0.00053499476 -0.0005209275 0.00087944244 0.001682637 -0.00038574348 0.00012969326 0.0007142662 0.00049921195 -0.0012176778 -0.0021266413 -0.0013260915 -0.0006121192 -0.0015731439 0.000111042296 0.00083417783 0.00024143432 -0.00029953523 0.0016441605 0.0009777932 0.0018943802 -0.0025288395 -0.0020401601 0.0023817723 0.0020333088 -0.0009893662 -0.0006608415 0.00029567975 0.0010437379 0.0015981734 -0.0011215956 -2.6607482e-05 0.0021043045 -0.0021784804 0.0017662054 0.00047617138 -0.002476445 0.0011436719 -0.0019920927 -0.001693137 0.000641984 -0.00048248787 -0.00029695642 -0.0025170466 0.0011831054 -9.952073e-06 -0.00060708675 -0.00013593893 -0.0010260758 -0.001541293 0.00066682574 -0.0018418699 0.002475053 0.0023424746 -0.0010475664 -0.00040601037 -0.002007389 -0.0001812454 0.0024894895 0.00030342914 -0.0006063609 -0.00044698876 0.0013334273 0.002415634 -0.0001818066 -0.0022201226 -0.0013573152 -0.0006069013 -0.0009931568 0.0020848028 -0.0005447051 0.0021397716 -0.0013815226 -0.0016698575 0.001734317 0.00028076538 0.0016862985 0.0014816783 0.0013334489 0.0016049849 -0.0003957889 0.0011182086 -0.00029481004 0.00085509574 0.0015935096 -0.00229758 -0.0015131347 0.0020646239 0.0020716558 0.0015878888 -0.0017673506 -0.00021790848 -0.0020310723 -0.0005848512 -0.0022459123 0.00062645157 0.00078273745 0.000477485 0.002227627 -0.0007607456 -0.00023525291 0.0019434593 0.00157441 0.0014792511 -0.0015709599 0.0013059498 8.014945e-05 -0.0022041781 0.0005576336 -0.000101656864 -0.00079483347 -0.0023107415 -0.0022579245 -0.001449357 -0.0007999664 3.2056163e-05 -0.0013115901 -0.00011735557 0.0005272439 0.00020764305 0.0020922478 -0.0003005653 -0.0010014187 1.5673913e-05 -0.0022329995 0.0014133076 -0.0018490163 -0.002003497 -0.0005522491 0.00095042767 -0.0011012097 -0.00052722794 -0.0007301961 0.0013757278 -0.0017853836 -0.0021346968 -0.0008646701 0.0020475523 -0.00010993793 -0.001666031 -0.0023449943 0.0019824249 -0.0022799263 -0.0010964223 -0.001037592 0.0008671249 -0.00037310136 -0.00069665606 0.0025581908 -0.0014428726 0.001177406 0.001069243 0.0009147118 -4.3688495e-05 -0.0016372844 0.0014913579 0.0021666514 0.0008169116 0.0011171201 0.0013193543 -0.0021495302 -0.0001738009 0.0005415721 -0.00023305042 -0.00011805282 0.00035147302 0.0022632852 -0.0012374589 0.001364996 0.0013789855 -0.0020345766 0.0014464849 0.0011484898 -8.163964e-05 0.0021020118 0.000546303 0.002053744 5.8208632e-05 -0.0015606526 -0.000525793 -0.00090039126 -0.0014688008 -0.00032369938 0.0007819986 0.0013152934 -0.00089686527 0.0020072197 0.0005240571 -0.0010172679 1.2247615e-05 -0.002036922 0.0009128097 0.0004852345 -0.0005089842 -0.0014708086 0.00044320614
IIN 0.0013312747 0.0024055254 0.0015157525 -0.00076563144 -0.00024335274 0.000541597 -0.0023119329 -0.00025608187 0.0011672382 -0.0012520009 -0.0018619071 0.0017085518 0.0006361856 -0.0005746942 -0.0017983977 -0.0008318436 0.002252296 -0.000111484485 0.000953175 -1.4902197e-05 0.0016063676 -0.000310565 5.3992637e-05 0.00016466214 -0.00070277863 0.0018058203 -0.0015902297 -0.0009577721 0.0017300656 -0.0011884058 -0.000114000206 0.0012184686 0.0019398702 0.0008197961 0.0008735416 0.0011668757 -0.00081295427 0.0017660481 0.0017164277 0.0008660903 0.00047494078 0.0019420852 -0.002290751 -0.0020530387 -0.0006061838 -0.00019385069 -0.0012648359 -0.00013289652 -6.729389e-05 0.0015329922 -0.0015150025 0.0015209976 0.0019769184 0.0015408173 -0.00079851167 0.0005171501 -0.0011264143 -0.0007536397 0.00026540316 0.0005812488 -0.0015710152 -0.00082221755 0.00058922864 0.001714308 -0.0020903265 -0.00027373998 0.0004932959 -0.00227884 0.0018722442 0.00045959686 0.0021359199 -0.0005379533 0.0012013098 0.0019551867 -0.0019165135 0.0008606858 0.0014906076 0.0009927369 0.0008512943 0.0018979339 0.0023325216 -0.001848981 0.0016052149 0.0024092009 0.00034658305 -0.00028729538 -0.0009962481 -0.00024908682 0.0013322599 -0.0012695948 -0.0021033764 -0.0016448633 -0.00055405224 0.0015548811 -0.00043072848 -0.00036968326 0.001518294 -0.0012002669 -0.00022609762 -0.0012095958 -0.0018647149 0.0014225937 0.0011701738 -5.2786774e-05 0.001283817 -0.0021386738 -0.00068167225 0.00053810875 -0.0013393196 -0.0002355084 0.0021955823 0.00011008795 0.0019901115 0.0018436965 -0.0017432306 0.000798237 0.0016444803 -0.0009331393 -0.0006727787 -0.0009788536 0.0004505738 0.0013471077 0.0024332649 0.0018339155 0.0005202345 0.00069278287 -0.002448616 -0.001296366 0.0013502336 0.0024698004 -0.0010812101 0.0019683267 -0.00036696906 -0.00047569934 -0.0018478612 0.0015575682 0.0008286807 -0.0003868619 -0.0025031718 0.0023872794 0.00048302647 0.00023544497 0.0012519849 -0.0011252554 0.0011378356 0.0013327438 0.0022507405 -0.00088250724 0.0010496087 8.8678054e-05 -0.0021375385 0.001459347 0.00086109684 0.0012864347 0.0019047215 -0.00012669923 -0.0023691338 -0.0010116476 -0.0024232971 2.017313e-05 -0.0022554595 -0.0021277827 0.00021535392 7.2279734e-05 -0.002365295 -5.2845586e-05 0.0016231231 0.0007150847 0.0019109973 -0.00093789457 0.0024949817 0.002361513 -0.0006896874 0.00033737984 -0.00042726638 0.001078489 0.00034520763 -0.0010333367 0.0024894334 0.0019428761 0.0009285446 0.00045499264 -0.0022433018 0.0011826814 -0.0010607166 -0.0022366266 0.0014238844 -0.0007050295 -0.0018401004 -7.280672e-05 0.0019628056 0.0015869193 0.00046458762 0.00011903302 0.0007096291 0.0004125336 3.584052e-05 -0.001828913 -0.0023920422 -0.0009204097
MRY 0.00031333207 -1.07508295e-05 0.0011749986 0.00012688253 -0.0005491953 0.0013655311 -0.0013524117 -0.00060043164 -0.0023485315 -0.0012849505 -0.0007256214 -0.0017821724 0.0012078844 -0.0015719755 0.0009785566 -0.0017426449 -0.00039681536 -0.0004455456 -0.002251629 0.0010657273 6.241979e-05 -0.0016876482 0.0017042804 -0.002403234 0.0021114284 -0.0018275566 0.0018689358 -0.0019823553 -0.0023853802 -0.00049970095 -0.00077590736 0.0013072446 -0.002034904 -0.00022571244 -0.0004350944 -0.0014000726 -0.0019155446 0.00041436093 -0.0024352898 -0.00070553756 0.001323293 -0.00073518127 0.001126093 -0.0007961739 0.0014100919 -0.000947135 -0.0014101188 0.00043833727 -0.0019028977 -0.0021714857 0.0015961864 -0.0013052889 0.0013592215 -0.00049420673 0.001007733 -0.0021613713 -0.0011419898 0.0019752628 0.00015143522 0.0010040144 0.0015757391 -0.0024170012 -0.0011735078 -0.0020344467 -0.001963169 -0.00056841085 0.0020041673 -0.0015415482 -0.0018348139 -0.00020038485 0.0022133354 0.0017484875 0.0016184901 0.00018216165 0.0017138565 0.00046381968 -0.00020520875 -0.00039759954 -0.00022063016 -0.00040196863 0.0022729365 0.0014710209 0.0016203623 -0.002465009 -7.039039e-05 -0.0008889347 0.0005284796 0.002588464 0.0021922449 0.0007477024 0.00092602597 0.00041006686 -0.0019217981 -0.0008003634 -0.0011561442 0.0011463413 -2.1242302e-05 -0.00017442973 2.1935253e-05 -0.0014047056 0.002388367 -0.0010200466 -0.00031228916 0.00084603333 9.898707e-05 -0.0023598273 0.0018463458 -0.00073386845 -0.00071583316 -0.0013332877 -0.0012069028 -0.0010108714 -0.0015516257 0.00069891603 0.00022889776 0.0015700773 0.0020842508 0.0012600288 -0.0015606233 -0.0019505796 0.0019564626 0.00040336908 -1.850827e-05 0.002239265 0.001818501 0.0020674588 -0.0016855164 0.0023998932 0.0016631137 0.0015409515 0.0015999441 0.0013011063 0.0024024104 -0.0023645377 0.0009903349 -0.000298334 -0.00066712516 0.00070560706 0.0021381893 0.0020834438 -0.00083258003 -0.00227738 0.0011059912 0.00048822435 0.0004939197 -0.0016257735 0.00016653794 0.0004436067 0.0024365697 -0.0020325049 -0.0001575648 0.0015409864 -0.0013202679 0.001644539 -0.0014578342 0.0016493996 -0.0016154113 0.0002549188 0.00015780432 -0.00056773686 0.002429184 0.002102865 0.0018087813 0.0005298646 0.0004341304 0.0003332959 -0.0020309542 -0.0006672672 0.0023760556 -0.00015462008 0.0018403648 0.0012695618 -0.00013995229 0.001743845 -0.0019074555 0.0015804693 0.00049763964 0.0002790102 0.0022868004 -0.0009456575 0.0021409444 -0.0012533381 -0.0018050811 0.0015361175 0.0009387421 -9.362641e-05 -0.0018773073 -0.000543298 0.0009934765 0.0013677598 0.0001428044 0.0012281374 -0.0023347884 -0.0021060247 -0.0014915564 -0.0003445283 -0.002494024 -0.00035038212 -0.001650388 -0.0024543733
SRS 0.0024756193 0.0018483613 -0.00035239884 0.0025323243 -0.0023468235 0.0005059282 -0.0025586577 0.00030893242 -0.0012615398 0.0023226507 0.000936577 -0.0021001694 0.00059458317 -0.0023183282 0.0001926593 0.0013825158 8.979916e-05 0.00027002886 0.0019340271 0.001903403 0.00094960706 0.0006628451 -0.00093904196 -0.0018848955 -0.0022833387 0.0021977583 -0.0011090839 0.0016231061 -0.00096146355 -0.0014312471 -0.0011625137 0.0006624923 -0.0013611948 0.00010608015 -0.0017644444 0.00016165533 -0.0016674832 -0.0018979523 0.00060239184 0.0016557375 -0.0016115713 0.0018860473 -0.0021541773 0.0022181913 -0.0007993548 -0.00040138763 -0.001507895 -0.00031608975 -0.0010650638 -0.0023628133 0.0014120197 -0.0007162697 -0.00064321904 0.00061087095 0.0015786819 -0.0009480215 -0.0001437389 -0.00071485643 0.002345796 -0.0023888967 -0.0010069301 -0.0017727462 -0.00037291818 0.00036225948 -0.0019575544 0.0009815454 0.00041776872 0.0017898361 0.0012508256 -0.0018623332 0.0022605448 -0.001715918 -0.0023040727 -0.0007257849 0.0008055444 -0.0013237046 0.0015979242 -0.002063801 0.0014493678 -0.001943979 -0.0022432446 0.0012760357 0.002310749 0.0024396256 -0.0016805021 -0.0011176352 0.0013622624 -0.0017461175 0.001819297 0.00039740006 9.011034e-05 0.0023690131 -0.0019813504 0.0017358186 -0.0010083066 -0.0005055404 0.0008288031 0.0008112268 0.00083011267 0.00079274556 -0.0011794533 -0.0010173976 -0.0009461908 0.0018862 0.0012079709 -0.0015143459 -0.000754207 0.0024818995 0.0007498636 -0.001356856 -0.0007393118 0.00071992737 0.00032739114 0.0004338914 0.00061628025 -0.0021630945 -0.00021525357 0.000904711 0.0017069692 -0.0005250387 -0.0023073964 -0.00053126377 -0.0013967647 -6.9911024e-05 -0.0011594649 -0.0010960015 0.00039111808 -0.00037684274 0.0019352146 0.0003782585 -0.0009870518 0.0014246232 -0.0019739815 0.00060634146 -0.0015122436 0.002347488 -0.0005616964 0.00243143 -0.002578404 0.0011453686 0.0003430356 -0.000814915 -0.0013087316 0.00047329502 0.0022884253 -0.00025628047 -0.0010917822 0.0024795963 -0.00025416928 0.0019289331 -0.0006902926 -0.00038680033 3.176767e-05 1.251359e-05 -0.0016616317 -0.00067111006 -0.0022246512 0.0016281023 0.0019801024 -0.001447765 -0.0009608545 -0.0005455294 0.0020831015 -0.00036935732 0.0006185884 -0.00011490888 0.0017156153 0.0010421682 -0.00073183246 0.0018728417 0.00084467826 -0.00020054556 -0.0005714613 -0.0021795244 -0.002304117 0.00013773715 0.0023988613 -0.0024775518 -0.002344646 0.0023732046 0.002136723 0.0019627206 -0.0016054214 0.0007736719 -0.0003380453 0.00039562254 -0.0012954748 -7.503281e-05 -0.00047491962 -0.0008432644 0.00089225546 -0.0019425135 -0.0020336271 -0.0011839542 -0.0022676904 0.002410582 0.0007934189 0.00026940674 0.001872299 -0.00022937593
SNL -0.0024180016 0.0021475886 0.00094420323 -0.0024195807 0.0008521681 0.00041478308 -0.0011337007 0.0014514612 0.00046943675 0.0015893944 0.0005114564 0.0008608825 0.001163823 -0.000697148 -0.0015124314 0.0010177932 -0.001647456 -0.00080626464 0.0018723564 0.0002282804 0.0019777352 -0.002398147 -0.0023412826 -0.0020180827 0.0023317523 -0.0014833369 0.0016118923 0.0019670355 0.0019560987 0.0015874325 0.00026317526 0.0010472621 0.0011497713 -0.0024058928 0.0017078957 0.0023346615 0.0021327094 0.0013196811 -0.0024878643 -0.00038515963 -0.001371151 -0.0015512002 0.0024375764 0.0006114437 0.0006385283 0.0010240366 0.000550259 -0.00017398914 -0.0014715596 -0.0024831472 0.00016653055 -0.0019591185 0.0024618516 -0.0014285496 -0.0015979892 -0.0024657305 -0.0007513713 -0.00112026 -0.0022090045 0.0023156197 -0.0010588329 -0.00044593948 0.0018379743 0.002026095 -0.0018865975 0.0023069093 0.0010825928 0.00016985822 0.0014563004 0.0012874177 -0.0014004589 0.001210025 0.0011627384 0.0018590228 0.00092364516 0.0014030023 0.0022662287 0.0005298737 0.0015040127 0.0003812712 0.0022734546 -0.0018774021 -0.00094642024 -0.0017218966 -0.0009083767 -0.0003346521 0.002518806 -0.0010175892 0.001929148 0.0008431853 -0.0022494248 -0.0021839438 0.0018391458 -0.0020656905 -0.0012194198 -0.0023274347 -0.00020670086 -0.00067701604 -0.0020586625 -0.0015097931 0.00025315132 0.0013191575 0.0023996795 -0.0021721337 0.00025894964 -0.0020599733 -2.6761478e-05 -0.0015226254 0.0004415575 -0.0014869334 2.201878e-05 0.0014846883 0.0013108714 0.0021553792 0.0009393187 -0.0013808189 0.0007105197 0.0023660464 0.0001797508 0.0012890724 -0.0024078637 0.0015083008 0.0020743874 0.0023287907 0.0014674464 -0.002224558 -0.0013090603 0.0023616455 -0.0010233562 -0.0018152375 0.00040719772 -0.002002787 -0.0016580657 -0.001068519 0.0013097513 0.0016194835 -0.0014300393 0.0017036436 0.00056562026 -0.0007614354 -0.002065927 0.0020533875 -0.002375484 0.00042250403 0.0008301201 0.0024145313 -0.00045158257 -0.0023338257 0.00030185457 0.0016417748 -2.609211e-05 0.0012251692 0.0006906616 0.0015779035 -0.0020921614 0.0019087489 0.00088038074 0.00029053353 -0.00074567134 0.0012319528 -0.0011530437 0.0005107577 -0.0018396837 -0.00023444823 -0.00025582983 0.0016202301 0.0009266533 -0.0012744033 -0.0003657832 0.0017032648 0.0009755268 0.000103940074 0.00031628946 0.0017799375 0.0024259074 0.001323467 0.0023142027 0.0014977509 0.0002724551 0.0002847106 0.002145921 -0.0020974933 0.0011162497 0.0005211221 0.0016037821 -0.0008646103 -0.001189154 0.00026769075 0.0014908032 3.2525215e-05 0.00010193989 0.0007852524 0.00033881183 -0.0010290388 -0.0015874046 0.0015626415 0.0019470095 0.0007767679 0.00030255297 -0.0012019901
RLF -0.0005302872 0.0009785625 0.002075883 -0.0021131283 -0.00020848356 -0.0015801403 0.0005536936 0.0020544706 -0.0014350283 -9.540503e-05 -0.002262599 -0.0024094372 0.0023200072 -0.00097522215 -0.0022046922 -0.0007409452 0.0007117595 -0.0005812792 -0.002539625 0.0012585219 -0.0016932425 0.00011956139 0.0021561196 -0.0012293914 -0.00036849594 0.0012208634 -0.0007393421 -4.9177062e-05 -0.0007601822 -0.00012938317 -0.00087136443 0.001521483 0.00031096782 -0.0018272626 -0.0012488526 -0.0021544446 0.0015464469 -0.0013698144 -0.0023096637 -0.000609227 7.014587e-05 0.0012816227 0.0014099008 0.0010704194 -7.3219766e-05 0.001993353 0.0024267442 -0.00222521 -0.0012865942 -0.0013287106 0.0010886774 0.00034767008 -0.00052574195 0.00042476258 0.0011076814 0.0015858837 -0.00041761095 -0.0010828886 0.0019499976 0.0024295992 0.001798727 0.00020841668 0.0008596982 0.0009029515 0.00038834242 -0.0010823448 0.0014820726 -0.00086852745 0.0015538294 0.0010774814 0.0008090911 -0.00036601818 0.0021390875 0.0021036735 -0.001062435 -0.0009135414 0.00066211465 0.002441529 0.0017487917 -0.0007078977 0.0011421998 -0.0003731582 -0.0010515342 0.0006699422 -0.0024395557 0.0012860269 0.0017267353 -0.0008184452 -0.0005125692 -0.0011978062 0.00056637166 0.0019851332 -0.00054181693 -0.00033082327 0.0011264555 0.0017853441 0.0018284319 0.0009920275 -0.0018595653 -5.799438e-05 -0.000929352 -0.00025257817 -0.0017527539 -0.0008303244 -0.0008384609 -0.0020089229 0.001384705 -0.00046428826 0.0006077037 -0.00062612176 0.0013374229 0.00041336284 -0.0018131951 0.0020989527 -0.0023108944 -0.00046157138 0.0005895962 0.002410656 -0.0016486045 0.001035431 -0.0025186494 -0.0015978471 -3.1712775e-06 0.0024912402 0.0024240108 -0.0004698163 -0.0006123593 -5.2713407e-05 0.00019977575 -0.00094032206 0.00012250141 -0.00027801577 0.0019850468 0.0006268994 -0.00067294965 0.00121437 -0.00023018387 0.0021106885 0.00063359406 0.0017781969 -0.0006804596 -0.0003536681 -0.0020699354 0.0009962352 -0.0025029324 -1.7747012e-05 -0.0009492082 -0.0020141723 0.00012010716 -0.0009900924 0.0013098818 -0.0025322372 0.0024354206 0.0012372581 1.9580699e-05 0.0010759571 -0.002446378 -0.002049692 -0.0013693721 -0.00032178918 0.00059260754 0.00055071915 -0.0022962885 0.0012888376 4.1609466e-05 -0.001791965 -0.00013299036 0.0020216138 0.0013034551 0.0008214032 0.0010946294 -0.00091485406 0.00091155816 -0.000679294 -0.0022603583 0.0021505747 0.001798019 -0.0020753094 0.0016388592 0.002156712 0.0003276736 0.0021491526 -0.00203797 -0.00021982928 -0.0020893 0.0003654053 0.001999774 -0.00044077734 -0.002288874 0.0016020618 -0.0003655337 -0.00021470356 0.0016480352 0.0005390086 -3.9370465e-05 0.001453648 3.4842185e-06 0.0007332372 0.0010869432 -0.0010067171
KLK 0.0020035037 -0.0006962746 -0.0019083621 -0.0012499247 0.0016424615 -0.0014931089 -0.00017142574 0.00055324205 -0.0024492112 0.0014084523 0.0015500946 -0.00014543507 -0.00038069795 -0.0021640267 -0.0018204659 0.00105417 -0.0012991785 -0.001747775 -0.0005129255 -0.00082482345 -0.002453328 0.0025471773 -0.0014703564 -0.0002880797 0.00012267006 -0.0021853617 0.00050968205 -0.0016774555 -0.0004854828 -0.00095333124 -9.183424e-05 -0.0017214313 0.0011045128 0.0008731505 0.0022846425 0.0003850333 0.00037636573 -0.0023667437 -0.001519839 0.001355841 0.0011800037 -0.0017117781 0.0022183554 3.8710965e-07 -0.00096693734 0.0011801895 0.00047419645 -0.00017768447 -0.0021190925 -0.0019712427 -0.0024090933 0.00087454176 -0.001982375 -0.00089194294 -0.001276754 0.0009654477 0.0024060295 -0.0022341723 0.0019539814 0.0017868372 0.0011820485 -0.0021704237 -1.4039767e-05 -0.0020642136 -0.0013981295 -0.0021861251 -0.0017497578 0.0018266287 -0.0006294119 -0.0023096253 -0.0014260922 0.001481705 -0.0013942596 -0.0023751997 0.002498842 -0.0001421068 0.0021579925 0.00013420364 0.0023411983 -0.00046974275 0.0017712001 -0.00025396908 0.0020935866 0.00037210213 0.0002964191 0.00032275065 -0.00052632496 0.0013951397 0.0022951677 0.0024691059 0.002312933 -0.0020543118 -0.0009172024 0.0018348387 -0.0019240902 -0.0020176773 -0.0002649122 -0.0022597988 0.0019285468 -0.00074245146 0.001785659 -0.0016984217 0.0017701803 -0.0015525189 -0.0006601714 -0.0020886913 0.002504029 -0.0024022 -0.00085170724 -0.0021143046 -0.0015389216 0.001284984 -0.0012760086 0.0007123536 -0.00020273776 0.0023266203 0.00073924306 -0.0005186307 -0.0015179532 -0.00069327326 0.0014347935 -0.0012224902 0.00046683243 0.00011774355 0.00087013334 -0.00081830536 0.002369836 0.0012418536 -0.0011918371 0.00010768839 0.0012622235 -0.00195881 -0.0008135963 0.00055729365 7.581584e-05 0.0006445637 -0.00031015524 0.00019825829 0.0016994561 0.001123424 -0.0016665973 0.0006729904 -0.0015571554 -0.002333498 0.0022119505 -0.0019098897 -0.0013744383 0.0013707025 0.0022668527 -0.0010243222 0.001489075 0.0011737226 -0.0003753488 -0.0018738218 -0.00061254355 -0.0019718206 0.0020000252 -0.0002424108 -0.0007975226 -0.0010403702 -7.5400334e-05 -0.00047180042 0.0020979475 -0.00201541 0.0021248267 0.00064254313 -0.0015874293 -0.000831528 0.0006728187 -0.001824169 0.0012421487 0.0007156005 -0.000923824 -0.00052656117 0.0020592068 0.0011915592 -0.00018530274 1.3463963e-05 -0.00057766447 0.001201186 0.0022323793 -0.0017227046 0.0001457409 -0.0022939818 -0.00092710217 -0.0017652239 0.0010335923 0.0025437742 0.00086357386 -0.0014772478 -0.00041614196 -0.0013271001 -0.0011715438 -0.00064153713 0.0023554114 -0.0004006027 -0.0023241166 -0.0006838256 -0.0014246003 -0.0014914586
EMY 0.00017441006 -0.00221721 -0.002400429 -0.00056083064 -0.0006895406 0.0006144001 -0.00014686382 -0.0021901692 0.002038027 -0.002063594 0.0012678271 -0.0024486876 -0.00068582525 0.001166318 -0.0011989822 0.0011477888 -0.00038280294 -0.0009750896 -0.0019167095 -0.00015635083 0.0013203162 0.0014612236 -0.0017809251 -0.002017838 0.0021243389 0.0013780757 0.0008408049 -0.0012300219 -0.0011946938 0.0010299581 -0.001607419 0.0018383081 -0.0020437778 0.00082400086 0.0022832735 0.00041975806 0.0013911711 -0.001612538 -0.0020910574 0.0002714525 0.0017010716 -0.00032003102 -0.00211177 -0.0018420264 -0.0010706538 -0.0019796218 -0.0011753206 -0.0010848225 -0.00028651726 0.00085934607 -0.00073206937 4.77201e-05 0.0019428107 0.001630748 0.0015108564 0.0002389604 0.0009887904 0.0014508364 0.0021333934 -0.0024921063 -0.000542943 0.0021978875 -0.0007675547 0.00023293996 -0.0012488717 0.00017376695 0.0011871579 -0.0007731263 -0.0017612294 -0.00018190332 0.0010051556 0.00019886736 0.000571194 0.0020651917 -0.000775189 -0.0023747706 -0.001973888 -0.0011907431 -0.0010547164 0.0024348998 -0.0013811901 0.0022020915 -0.0011922498 -0.0014082656 0.00020108448 -0.0022370636 -0.0007871874 0.00032547087 0.0021119225 -0.002340648 -0.0009281931 -0.000726412 0.0015321845 -0.0012448042 -0.0010838676 -0.0016696814 0.0001780573 7.9942685e-05 0.0020857505 0.00023302509 -0.0011904994 -0.0013686126 0.0017911844 -0.0015273719 0.002180434 -0.002239283 0.0011566699 0.00021673058 0.00063296803 -0.0015694388 0.00050013926 0.001821867 -0.001125888 0.0014326898 -0.0015236727 0.0006651215 0.0012730617 4.6438276e-05 -0.000518515 -0.0022330915 0.0022908796 -0.0002315163 -0.002070939 0.002417684 0.001167477 0.001281777 -0.0018724656 0.0025179076 0.002118299 -0.0005423075 -0.0013607087 0.00023731566 0.00048029659 0.001622951 -0.0013793634 0.0012637291 0.0017789772 0.001939684 -0.00018177961 -0.0007671083 -0.0010249513 -0.0019660415 0.0019022365 0.0015602151 1.4745527e-05 0.0020677722 0.0010568259 -0.00075148244 -0.00067926565 -0.001094267 0.0012225873 0.002180644 0.0022518872 0.0012639235 0.0017675109 -0.0010828468 0.0009748905 -0.00018591962 -0.0013090104 0.0010018136 0.0009236214 -0.00027247274 -0.0007075916 -0.0020320013 0.00095498195 0.00023283543 -0.0018284589 0.0009032118 0.0021325236 -0.0018605599 -0.0004958063 0.0018534325 -3.795356e-05 0.0022040766 0.0017802521 -0.0012479146 -0.002459375 -0.0013540114 -0.0017768025 0.0012300324 0.0008175573 -0.00071316626 -0.0013057244 0.002346666 -0.0005455513 0.0016633575 0.0020872166 0.0012744002 0.0004652878 0.0024221353 0.000113437134 0.002045505 0.0012001704 0.00020136598 0.0019978369 0.0019138427 8.2795195e-05 -0.0010900624 0.0015707602 0.0007260905
VKE 0.0011690869 0.0006486846 0.0015501395 0.0015307158 -0.00028249182 -0.0012754843 -0.0010442677 -0.0013771466 -0.0019493734 0.000352088 -0.0018706546 -0.0002709635 -0.0010407456 0.00054574135 -0.00057307165 -0.000857597 0.0004016508 -0.00071116316 0.0013820438 0.0011616828 0.00183131 0.0020242264 0.00056737236 0.0006142966 0.0016664304 0.0015537582 0.0007512207 -0.0023308988 0.0008412817 0.0021757637 -0.000262457 0.00068449083 -0.000496426 0.002244321 0.0012441202 -0.00231785 0.0013815975 -0.0013645291 -0.0001326146 -0.0020350507 -0.0012596806 0.00073104707 -0.0013780703 -0.0018852074 0.0012624445 -0.0004064146 0.0016833271 -0.0006580081 0.0013241235 -0.0006060917 -0.00093810156 0.0004076885 0.0021013075 0.00022741074 -0.0009193629 -0.0018507489 0.0013685208 0.00035354533 -0.0022353302 -0.0004213522 -0.0015894972 -0.0005752144 -0.0007658286 -0.0010252252 -0.0024837796 0.0016881954 0.0014885918 0.00034123604 0.00093057286 -0.001362899 0.0008367849 -0.0018265478 -0.00011594558 -0.00038762446 -0.0014178874 0.002103202 -0.002304349 -0.0005035993 -0.001940296 0.0008839647 -0.001099313 -0.0008346152 0.0017499225 -0.001969669 0.0011345888 -0.0006037169 0.0011310352 -0.0016506726 -0.0019461263 0.00017012829 -3.509715e-05 0.0017993322 -0.0022752197 0.0021476534 -0.0010809189 -0.00091638754 -0.0011008338 -0.001761675 0.00016359947 0.0011138396 -2.8919449e-05 0.0012230659 -0.0010900697 -0.0018895008 0.0021887338 -0.0012835278 0.0009509369 0.0018384621 0.0015319205 0.002021675 -0.00021870258 -0.0011942731 -1.041123e-05 -0.002235134 -0.001658222 -0.0017211852 0.001899333 -0.00044894285 0.0023090804 0.0016231273 0.0001327702 -0.0015103972 -0.0019087059 0.0011661286 -0.0024360341 -0.001963129 -0.0022006321 -0.00019237469 -7.241998e-06 0.00025068756 -0.0019708353 -0.0021942079 -0.00028548055 0.0004423604 -0.0018371902 0.0019312243 0.00082107564 -0.00029586934 0.00091156963 0.0021899783 -0.00032182568 -0.0021966603 -0.0015536934 0.00023280017 0.0003828611 0.0013628886 -0.002222404 0.00012732383 0.00067756465 -0.0007281483 0.0020805707 0.0021561685 0.0024553626 -0.0015662027 -0.00015537249 0.00086129835 -0.0016982809 0.0019203983 0.00061582634 -0.0022196847 0.0006217161 0.0017549219 0.0017227127 8.461332e-05 0.0010571997 -0.001153556 -0.0017749348 0.0018866854 0.00023537052 -0.0020338781 -0.0019841595 -0.001269227 0.00074775604 -0.0011472064 -0.000129277 0.001194686 0.0016932159 -0.00072328775 -3.6400026e-05 -0.0017785662 0.0017494812 -0.0020073864 0.0019756795 -0.00033838814 -0.000639279 -0.00020661645 -0.00043792458 -0.0001419397 0.0015522264 -0.0011995874 -0.0006165978 -7.412934e-05 -2.4769399e-05 0.00074556307 0.00030236863 0.0018967262 0.00010925013 -0.0018537748 0.0014203116 0.002318596
HVP 0.00092772476 -0.00016851786 -8.999971e-05 -0.001881891 0.001497748 -0.0007100763 0.00031916672 -2.8121007e-05 -0.0014289614 0.0015299631 1.3351453e-05 -1.19843e-05 0.00050905475 0.00013452013 0.002200939 0.0020914914 -0.0006920768 0.0014326911 0.0012815066 -0.0017233648 0.0021239817 0.0023416043 -0.0011552104 -0.0017109136 0.001441474 -0.000989673 -0.0015100682 0.00020167764 0.0014081723 0.0018336237 -0.00067301746 -0.002435454 0.00175559 0.0024763541 -0.0012045781 -0.00082028547 0.0009768226 -0.0015336786 -0.001111581 0.0021608898 0.00052843447 -0.0017043154 0.0020243987 -1.9239267e-05 -3.740124e-05 0.00036996335 0.0015603524 -0.001988543 -0.0006241027 -0.00046544848 0.0009548283 -0.0008504351 0.0023832961 0.0013145071 0.0017154982 0.0014393514 -0.0013761218 -0.00031948043 0.0022940594 -0.0012396598 -0.00058404624 -0.0004876163 -0.0005340625 -0.0010393014 0.0018536939 0.0010990803 0.001457459 0.0020088314 -0.0013056755 -0.002311496 0.0008649067 0.0018514306 0.0003521485 -0.0021151262 -0.0014390053 0.0010828867 -0.0018216028 -0.0009627958 -0.002387456 0.0014235745 0.0014706653 0.0010057283 -0.001453061 -0.001233642 0.001458974 -0.0021057574 0.00097050087 0.0019751147 -0.002088023 0.0015766077 0.0018647691 -0.0005651675 0.0009420419 0.0024889817 0.000631726 -0.0015274117 0.00040447636 0.0006577812 -0.0014436428 0.0016482982 -0.0006167416 0.00047802573 -0.00034983552 0.0010374885 -0.000831828 -0.0013431428 0.0020800056 -0.0014932319 -0.0003851452 0.0008271246 0.0020941896 0.0015965283 0.0016407603 0.0002828697 0.00021188347 0.0014341275 -0.00019843833 -0.002379878 -0.00025962936 -0.0019649977 -0.0016389644 -6.278981e-05 -0.0013901081 0.0022778371 0.000496863 -0.0012352848 -0.0014208687 -0.0012564064 0.00048240495 -0.0024032374 0.0010916378 -0.00022837898 0.00096056407 5.684297e-05 -0.0020811053 0.0011852987 -0.0012128768 -0.001727412 -0.0015941575 0.0011553132 0.002042236 0.0022166313 0.0019002995 -0.001869655 -0.0018767603 -0.00060338184 -0.00048116953 0.0011483912 -0.0009839986 -0.0020370241 0.0016311483 0.00095988304 -0.0020189853 9.4592346e-05 0.0017732036 0.0014378182 -0.00049808214 -0.0015824594 0.00025555768 3.4974255e-05 0.00038622523 0.00026415515 -0.00075249077 0.0010108044 -0.00094235694 -0.0021632535 -0.002172501 -0.0015711498 0.0020690062 -0.0017536142 -0.0017287286 0.0006567265 -0.0007482562 0.0008270005 -5.4271335e-05 0.0017942828 -0.001362893 -0.00024840626 -0.00055876625 0.0014182141 0.00063713646 -0.0021048326 0.0016845779 -0.0009385817 -0.0011984622 0.00032482448 -0.00015795129 -0.00060824805 -0.0011151461 -0.001656392 0.0020304504 -0.0012874778 -0.00056474237 -0.0005219863 -0.00047272595 2.1771843e-05 0.0014722992 0.0010885359 -7.62474e-05 0.00096046546
VPG 0.0010369292 0.0020646013 0.002317644 -0.00013745792 -0.0020100917 0.0012734121 0.00026752238 0.00014847545 -0.00039366772 -0.0021747225 -0.002181481 -0.0015129407 0.0009524881 -0.00039771997 -0.001203093 -0.0025226441 -0.0022311306 0.0017625114 -0.0010997592 0.00085187773 0.0008018824 -0.0018209049 0.00091331196 -0.0024880187 0.00020296175 0.00036974257 -0.0016152451 0.00019841245 -0.00083206233 0.00069649186 0.00080018636 0.0016676579 0.00045741274 -0.002456933 -0.0023244051 -0.0009401868 0.0024243386 0.00027510818 -0.0021343385 -0.00090600963 0.0008122744 -7.224249e-05 6.966966e-05 0.0018388684 0.00064083596 0.0012417194 -0.001261558 5.6787365e-05 0.0002002584 0.001174705 -0.0012996575 0.0020406109 -0.0020959282 -0.0022475566 -0.0016903417 0.0002958298 -0.0019367395 0.00068464136 -0.0007408864 0.0022783435 -0.00024860565 0.0023476928 -0.0023675475 -0.0005397073 -0.0003075211 9.959488e-06 0.00019225282 0.0015313884 -0.0014596876 -0.00039089326 0.001582034 0.00042985924 -0.001989642 -0.0013545249 0.0011409258 -0.0023483664 0.0020711934 0.0014838218 8.695933e-05 0.0014351968 0.0008636488 0.0014061424 0.001907167 -0.00059822254 -0.0011022683 0.0021475262 0.00075234537 0.002329177 0.0017842804 -0.00063322386 -0.0013401121 0.0021256616 -0.0012361379 -7.396529e-05 0.00011208712 0.00062229496 -0.0002710449 0.0012569738 0.0019428299 0.001716143 0.002455131 0.0010803768 -0.0017640647 -0.00020038168 0.0011490087 0.0007259927 -0.0023254189 -0.0016661906 -0.00021115327 0.0021984286 -0.0013856688 -0.00043969406 0.0019871846 -0.0023306163 0.0007982873 -0.0009455783 0.00040471955 0.002326784 0.0022849315 0.0016641638 -0.00033975948 0.00083384453 -0.0021767803 0.002062459 0.0005658798 -0.0022344189 -0.0014442827 0.0022503173 -0.0014818414 0.001805297 -0.00038534746 0.001271434 0.0023575246 -0.0010619389 0.0023319633 -0.0018812093 -0.0022573294 0.0014339605 -0.0022341048 8.409556e-05 -0.0007265027 0.0012623357 0.0015014149 -0.001200135 -0.0016010393 -6.294553e-05 -0.0024205938 0.00042565496 0.00027632774 -0.00016911124 -0.0015988667 0.001243133 -0.0020536934 -0.0022802732 0.0019133363 -0.0003451644 -0.0003862632 0.0009474666 0.0014950329 0.00087073346 -0.0002107236 0.0015513801 0.0014781803 0.0009194357 0.00074823585 0.00060576724 0.0014610884 0.0018261888 -0.001376063 0.0014283359 0.0025071965 -0.00046470805 -0.001541651 -0.00078339205 0.0014463697 -9.246224e-06 -0.0020539698 0.00040102375 0.0012572604 0.0006646329 0.0019324257 -0.0013499256 0.0015840606 0.0003617677 -0.0009505825 0.001934093 0.0020735303 -0.0013522501 0.002153818 0.000886283 -0.0015742547 0.0016138891 0.002118995 -0.00068392744 -0.002143893 0.0006904474 -0.0011336398 -0.00097643764 -0.0011376091 -0.0023480717
LKE -0.0012012908 -0.0018169171 0.0013094473 0.001323536 0.0008407394 -0.001280771 0.00016717955 0.0011229983 -0.0021837065 -0.0022082645 0.0005822722 -0.0010134967 0.0025005701 0.0014943512 -0.00024976066 0.001350788 -0.0020070216 -0.0002802897 -0.0018332358 -0.0016302771 0.00088894693 0.00040559575 0.0016147462 -0.0019284888 0.0017923088 -0.0022564232 0.00079566444 -0.00065147004 -0.0009068492 -0.0018156875 -9.2488575e-05 0.0011301544 0.001831999 -0.0008214278 -0.00034262642 0.0018192133 0.0015994469 -0.0016705574 -0.0011916514 -0.0013204678 -0.0008214713 -0.0021589193 0.0010364593 -0.0016159138 0.002115682 0.0007392778 -5.015983e-05 0.00084229914 0.0012901484 0.0006285887 0.00056553306 0.002291475 0.0023567565 -0.0020322572 0.0008933902 0.0009923272 -0.0012175167 0.00089298584 0.0013589152 -0.0023179292 0.00067233026 0.000197711 -6.6942055e-05 0.0012284091 -0.0012569367 -0.0021519747 0.00024266445 -0.00032795503 -0.0019552216 0.000483431 -0.0011993424 -0.0014539923 0.0012154008 -0.0022473573 0.0015265143 -0.0012043819 -0.0013560341 0.0021340428 0.0018581199 0.0011282974 -0.001913664 -8.7637745e-06 -0.00074493495 -0.00089591404 0.0010096089 -8.46925e-05 -0.0020155616 -0.0003564199 0.00084962364 0.0011750683 0.0021328751 0.0023772682 -0.0023671524 -0.0008845693 0.0006679939 0.002445037 0.00091014156 0.0016280973 0.0019688734 0.0020307626 -0.0024099096 0.0025252497 0.0010250595 0.0008366059 0.0023043724 0.0021024558 0.002211274 -0.0010197312 0.00045084843 0.0011034467 0.002462843 -0.0021871387 -0.0009890008 0.0024445981 -0.0018483612 -0.0006193021 0.0010347997 0.0018217852 0.0004105048 0.00048089187 -0.0013939762 0.00020110517 -0.0017046939 0.00064065185 0.0017885348 0.002443495 0.0018162727 0.00025099076 0.00073012174 0.0023381447 -0.0005890484 -0.0012811116 0.0017019241 0.0013188841 -0.0006950163 -5.996043e-05 -0.0010325316 -0.0016160961 -0.0025388482 0.0021595599 -0.00022078861 0.0021548346 0.00065333146 -0.002266813 -0.0022046426 -0.0014205106 -0.0013176296 -0.00034479762 0.00047998628 -0.0020340942 -0.0024808964 -0.0018461928 0.0020758284 0.0023477399 0.002407737 -0.0012994458 0.002257634 0.0022281837 0.0015842582 -0.00040211124 0.0018729545 0.0013986068 0.00083078945 0.0022918377 0.00024020673 -0.0011399911 0.0005458952 0.0013735546 -0.00012403712 -0.001849034 0.0012547883 0.0019715496 0.0018389855 -2.7760872e-05 0.001929582 0.000305809 0.002361 0.0008040627 -0.0023714968 -0.0015727443 -0.001926887 -0.0016830135 0.0023437885 0.0011355798 0.0013685258 -0.001615964 0.0024174275 0.00023448402 0.0012260956 -0.00067435857 0.0022379083 9.01779e-05 -0.0020672248 0.0017359711 0.00036968614 0.0022988485 0.0011306368 0.00044640762 -0.0020478633 -0.0020163462
SFH 0.0018626768 0.002214626 -0.00085101346 0.0015184651 0.0023817574 0.0021477572 0.00062030216 0.0021736445 0.0008726775 -0.0019304483 -0.00235118 -0.0016590199 -0.0010303553 -0.0004288043 0.0024671282 -0.0005312478 0.0015700468 0.0009254825 0.0014725444 -0.0025028214 0.00040802738 0.0014781038 -0.00030341613 -0.0013385146 -0.0008318483 0.0023575262 0.00047665546 0.0020479565 -0.0005491836 0.0018016549 -0.0021192362 0.00015365463 -0.0005630955 -0.00050280493 0.0015636034 -0.0011575716 0.0022301464 -0.001379592 -0.0016586089 0.0018825119 -0.0010816221 0.001995273 -0.0009542714 0.0007933076 0.0019094561 0.00038609374 -0.0011476653 -0.0022018186 0.0022329907 0.002412853 -0.002311265 0.0015393863 -0.0014989874 -0.0012276826 -0.0012901161 -0.0018085652 -0.0008996709 0.0007334051 -0.00013664212 0.0015782872 -0.001527722 -0.00036153986 0.00046390775 0.0019488303 0.0023349263 -0.000880575 -0.0017441076 0.0015422326 -0.0012134355 -0.0024806284 0.0021817265 0.00044509475 0.0023028422 -0.0021303792 0.00018168303 0.0024747937 -0.0017374926 0.00020845467 0.0025079376 0.001290105 0.00058406964 -0.0003673018 -0.001899825 -0.0005870091 -0.0007862363 0.0018180282 -0.0005237626 0.0008471356 4.894614e-05 0.001790951 0.002094957 -0.0006102306 -0.002171594 0.0014103494 -0.0010288041 0.0014009497 0.002268538 -0.00039007684 -0.00042423434 0.0013200925 -0.0014164785 -0.0018826695 -0.0017808632 -0.0007679208 0.0017290411 0.0005682777 0.0011455888 -0.00021645993 -0.0011513564 -0.0022030405 -0.0020109767 0.00019746498 0.0017842584 -0.0007711454 -0.0017513441 -0.002254992 0.001385693 0.0021836762 0.0007424222 0.001650441 0.0024023163 0.001651584 -0.000809293 0.0022810984 -0.0021795896 0.0024605587 0.0014686041 -8.59442e-05 0.0018178207 0.001594614 -0.00045488458 -0.0018062287 0.0012602546 -0.00020513042 -0.0012682904 -0.00228522 0.0013837282 -0.0007870501 0.00079384865 0.000619273 0.0023566738 0.0022944375 8.393034e-05 -0.0019283398 -0.0023130071 -0.0022247464 -0.0009354295 -0.0015878223 -0.0014217022 0.00169781 0.00090826815 0.0002044048 -0.0010919156 0.0012608053 -0.001118893 0.0020047198 -0.0008262547 -0.0011875049 -0.0025259592 0.0010828391 -0.0008749364 0.00074006984 0.0025352181 -0.0001155039 0.0022175214 0.00023701877 -0.0021089634 0.0005827541 0.00066221174 0.0023499895 0.00022893112 0.0009762135 0.0020830329 -0.00060693466 0.0007023427 0.00039783225 -0.0023196302 0.0016253437 0.0016802195 0.0022384254 -0.00035705627 0.00047103636 0.0023144332 -0.0007247652 -0.0007145809 0.0024877044 -0.00054114126 0.0005279605 0.0018225864 -0.0016227852 -0.001217356 0.0017747688 0.0008471422 -0.0018816317 -0.00087012746 -0.0003406943 0.00071898 -0.00094791397 0.00060737465 0.0024786934
FNT -0.0011783317 -0.0003645856 0.00064685557 -0.0015422585 0.0021769956 -0.0008637382 0.0021392233 -0.00094421644 0.0013538209 0.0019300167 0.002297119 -0.00083008327 0.0015675806 -0.0012690041 0.001979267 -0.0013136619 0.0013449311 0.0024261223 -0.0025446317 -7.5178876e-05 -0.0003200557 0.00089973223 0.0022445219 -0.0021685623 -0.001037247 0.001103512 0.0010897538 0.0010373875 0.00043136842 0.0009503307 0.0018733572 0.0005254124 -0.0012603287 0.0013022099 -3.3093915e-05 -0.00054782693 -0.0011466275 -0.0019449419 0.0014983943 -0.00085305853 -0.0009876154 -0.0016307958 -0.000596498 0.0023854834 0.0011728102 -0.0020335128 0.00086747925 0.0019522815 0.0016334775 -0.000727992 -0.00026537818 -0.00080713606 0.0019696972 -0.0021176666 -0.0017864822 -0.0022341986 -0.000335537 -0.00015806846 0.0009927541 -0.00062909257 0.0018156437 0.0009860691 0.00064522977 -0.0006797258 0.0014906508 0.0016249886 0.00089298567 0.0011461993 -0.0005063233 0.00031391566 -0.00050486746 0.00021850236 -0.0021036891 0.0017275526 0.00078524067 0.00010373274 0.00051824364 6.621655e-05 0.0014730027 0.0009572517 -0.00034730815 -0.0024948176 -0.0018903578 -0.0023640227 -0.0012843186 -0.0007073413 0.0014879316 -0.0017459492 -0.0023329542 0.0013831985 -0.0024295514 0.00084509974 -0.0015593767 0.002049464 -0.001906051 -0.0010181055 -0.0024352102 -0.00022554777 -0.0024445567 0.0005968575 -0.00037423873 0.0017808309 0.001159772 0.0014591662 -0.0023601362 -0.0014220132 0.0011844808 -0.0017622088 -0.0021980833 -1.5759715e-05 -0.0007782575 -0.00014294144 -0.0018358688 0.0002828508 0.00022129883 -0.0017440227 0.0005899267 -0.0025171672 0.00038772912 -0.001352026 -0.002043866 0.0021825219 -0.00060706015 0.000627636 -0.0017103999 0.0025216802 0.0016707021 -0.00042804776 -0.0014856439 -0.0011481979 0.00074986514 -0.0014306508 -0.0005149495 0.0020248853 0.00048540602 -0.0017535676 -0.0023849725 -0.0013220822 -0.002132032 -0.0016544654 0.0015790664 -0.0012515553 -0.002229212 0.00052857003 0.002141505 -0.0017203357 8.5267806e-05 0.0021491323 -0.0016309867 -0.0005070911 -0.00055868994 -0.0024455343 0.0023656674 0.0014471605 0.00027670382 0.0016635056 -0.0026635805 0.002242792 -0.0023539595 0.0021061967 0.0020575004 0.0013908145 0.0020093466 -0.0008737222 0.0013223924 -0.0010736043 -0.00042364758 -0.0015883711 -0.0016462738 0.0014241468 0.0019844973 0.00072515476 -0.0015159065 0.000112854555 -0.0015927487 0.00045791155 0.0023784323 0.0019226993 -0.0024049545 9.703637e-06 -0.0015917385 5.422289e-05 -0.0019213681 -0.0012546722 -0.0014801392 -0.00022757731 -0.0002017996 -0.0023554682 -0.0021514643 -0.002003126 -0.0006109813 0.0020939466 0.0016940649 -0.0013817465 0.0012960173 -0.0011537268 -0.00020403194 0.0016103298 0.0016382579 0.0017643154
NSR 0.0022184106 -0.0013978761 -0.0004270444 0.0014532834 -0.0023330373 -1.057925e-05 -0.00016540936 0.00078784174 -0.0008111161 0.0011023778 0.0024102372 0.0020511101 0.001238557 0.0017049095 -0.00076509773 -0.0023511937 -0.00019972822 -0.0010654262 0.0018356042 -0.0013778931 -0.00077142543 -0.0015647636 -0.0011132325 -0.0010501819 -0.0010192248 0.00094778626 0.00153144 0.0017245231 0.002298555 -0.0013385076 0.0019938482 -0.00062994723 -0.00067762006 0.0011104868 0.0021306 -0.001238297 -0.0006974308 -0.0010681336 -0.0020411916 -0.0017475836 0.0016432554 -0.0013262302 0.0013045504 -0.00091166986 -0.0018137051 0.00031970566 -0.001889936 0.0021116864 0.0016135678 0.0006716029 0.0014879265 0.00082109054 0.00018192371 -0.00058495125 0.0010493895 -0.0023743792 0.0019015147 0.0023366055 0.0014272258 -0.001799982 -0.00047565816 0.0008109488 -0.0017252188 -0.00039124052 -0.0020305677 -0.0022525599 -0.001197117 0.0020930555 0.0011827991 0.0023481457 0.00038310353 0.0003052218 0.00069267396 0.0024611114 0.00171384 -0.0020623566 -0.0010803097 0.0008883829 0.00037190304 -0.0004890943 0.0015997647 -0.0018635117 -0.0012786811 -0.0012162181 -0.0011475374 3.987764e-05 0.0012776812 -0.0014479975 6.867696e-05 -0.00028476343 -5.182137e-05 -0.00031494745 0.001739449 -0.0016263744 -0.0012883318 -0.000970208 -0.0016771746 -0.0019404099 0.0012916875 0.00088657904 0.0013597524 -0.0013217421 4.5502416e-05 -0.0015765133 0.0017703308 0.0019997219 0.0011460464 0.00055470114 0.001264476 -0.0021275552 -0.0011271959 -0.0010601551 -0.0021015385 -0.00078556256 -0.002053716 -0.0015534306 -0.0007090129 -0.001536252 -0.0024308206 0.0017539401 0.0024762384 -0.00028731293 0.0006776217 0.0012799348 0.0016985252 -0.001709393 -0.00020133152 0.00013230315 -0.0021883207 0.001127083 0.00068934483 0.0023192433 0.0020370227 0.0015722378 0.002384013 -0.00056598097 -0.0018174297 -0.00026975357 0.0021839018 -0.00045966715 -0.002061173 -0.0019598 0.00022876343 0.0004191809 3.9554525e-05 -0.0016566227 0.0008557051 0.0022275131 0.0023020287 -0.00087091565 0.00076044764 -0.000700973 0.00075627485 0.0016343496 0.00047931084 0.00035028066 -0.0012307011 -0.0016249649 0.0015874448 0.0014149841 -0.0018308251 -0.0022951458 -0.0013761842 -0.0019873076 -0.00091136526 -0.0023546638 0.0011363985 -0.0005624283 0.0015114853 0.0020135767 -0.0022130208 -0.0018310494 0.0011678616 0.002112969 -0.0022245578 -0.0006111325 -0.00094118435 -0.0010466746 0.0011203274 -0.0007466228 -0.0007770622 0.0016857615 -0.0007321066 -0.0002968679 0.002276902 0.00076371914 5.3550528e-05 0.000758978 0.0021351236 0.0010305787 0.00097462337 -0.00040779306 0.000826325 -0.0016380472 0.0016317589 -0.00017854516 -0.00065133657 -0.0013322623 0.0013907633 0.0021476753
EKE -0.00223951 0.0017662785 0.0016242398 -0.0021080587 -0.0019939719 0.0009017453 0.0012529317 -0.0023308152 -0.0006129172 1.0519513e-05 -0.0008694035 0.0018580981 -0.0016292181 -0.00028033837 -0.000848811 -0.001510066 -0.00092401006 -0.00067459897 -0.0025245037 -0.002457764 -0.00038695516 6.265523e-05 -0.0020981985 -0.0022251036 -0.0023697081 -0.00049153 -0.0022194155 -0.0007701929 0.000413815 -0.001676127 0.00043106786 0.0015697705 -0.0020725264 -0.0013579485 -0.0019980012 -0.002408554 0.0020667815 -0.00238716 0.0013303934 -0.00093191746 0.0006745307 -0.00034916692 0.0011413235 -0.0010407714 0.0016925368 -0.00031202444 -0.0024294117 0.0012679672 0.0020579984 0.0007003206 -0.001530828 0.0019880494 -0.00046790767 -0.0012228746 -0.001767478 0.0017165979 0.0017256634 -0.0008967694 0.0024795951 0.0007347563 -0.00077936344 -0.00015252296 0.00025627477 0.0016615493 -0.0012045918 0.0019069446 0.0012996297 4.9930855e-05 0.0018523638 -0.0020983873 0.0015221257 -0.0018121626 -0.0016327203 -0.00016882188 0.0005353406 0.0015753233 -0.0018603372 0.00094132643 -0.0007302486 0.00047093176 0.00020139883 0.001033731 -0.0021001573 3.845423e-05 -0.0023445643 0.0014332315 -0.00026456578 -4.6897596e-05 -0.0012189171 0.0006882343 -0.0024105785 0.0016699327 -0.001639193 -0.0019239577 -0.0017523767 -0.0022584456 0.0023684232 -0.002080643 0.00096411514 0.0022116674 0.0014340751 -0.0023983805 0.0012778246 0.0022801757 0.00094711396 -0.0004750799 -0.0004870145 -0.0022409637 0.0013027162 -0.0024529872 -3.1775073e-07 0.002016397 0.0010776424 -0.001400965 -0.0020330928 -0.0023641246 -0.0023738935 0.0008723575 0.0019054856 -0.0003716423 -0.0010259915 -0.00026378332 0.0014421818 -0.000808487 0.0015337619 0.0024375352 0.0018608366 0.0013553494 -0.0006074299 0.0019438158 0.0012434749 0.0015125731 0.0012743056 0.00030391937 -1.5211044e-05 -0.001459426 0.002071106 -0.0011599582 -0.0013940862 0.0017151337 0.00037036007 -0.0024128933 0.002337165 0.001726366 0.0016460925 0.0018340161 -0.0011991117 -3.4438995e-05 0.0011170335 -0.0014657094 -0.0009052604 0.0010671061 0.00025844108 0.0017844201 0.00066631346 0.0023985095 -0.002128892 -0.0013940069 -0.00030015994 -0.00082562194 0.0022257017 -0.0006844066 -0.00060215767 -0.0018966782 -0.0013183845 0.000499763 0.0023551024 0.0019108577 0.0007489141 0.00015844681 7.038429e-05 -0.0024223218 0.0003718981 0.0018599109 0.0021589166 -0.0018142897 -0.0023002005 -0.0011777784 0.0020479986 0.0004990774 0.000979311 0.001966138 -0.0009468179 -0.00079638715 -0.002395716 0.0024108016 -0.0004555357 -0.0011646388 0.001317584 0.002058123 -4.6893176e-05 0.0008906379 -0.0008354881 -0.00086578535 -0.0007967231 -0.0023598413 -0.0011605008 -0.0014078037 0.00254171 0.001585159
PGL 0.0010069525 -0.00025347545 0.001988979 0.00031849847 0.0021523277 0.0016180872 -0.0011916002 0.0010494855 0.0006224834 0.0014051725 0.0016201709 0.00021954956 -0.0015350274 0.00082883047 0.0017264573 0.0009764203 0.0015135468 0.0013563229 -0.0021539072 -0.0020086109 -0.00010428568 -0.00027737868 0.0008462107 0.0012929091 0.0020941445 -0.00054811506 -0.0016118955 0.0024423767 -0.0011144363 -0.00024086979 0.00016967427 0.0006676074 0.00067943725 0.0013381984 0.00079680025 0.00057953334 -0.002322029 0.0021059148 -0.0006552844 -0.0024373403 -0.00168715 -0.00074735173 0.0024563072 -0.0011228686 0.0016046065 -0.00048154462 -0.0023306436 -0.00059301313 -0.0010114947 -0.0006873422 0.0013005214 0.0018496643 -6.612174e-06 2.0771127e-05 0.0006603115 -0.00023495512 0.00066065666 -0.0024125676 -0.0014969255 -7.63623e-05 -0.0022817536 -0.001096693 0.0011055084 -0.0003135515 -0.0023496994 0.00087744993 -0.0023638236 0.001978024 -0.0023263628 -0.00016374335 0.0018112683 0.0021850546 0.00094209256 -0.00066032686 0.0013597603 0.0006958263 0.0023335132 -0.0005565381 -0.002084775 -0.0018137068 0.001937602 -0.0021410105 0.0013207647 -0.00046444166 -0.00033098515 -0.0012854164 0.002195638 0.0014176618 0.0011202322 -0.0013664784 -0.0011750591 0.000111785 -0.0010088038 -0.0015094784 -0.0013550946 0.0013425417 -0.00040869205 0.002565967 -0.0011300265 0.0023118097 -0.0003414624 -0.0002667997 0.0021175395 -0.0004587361 0.0018945918 -0.002099771 0.0016826453 -0.0007971212 0.0018977853 -0.0009361083 0.0008240778 0.001129443 -0.001849583 0.0015944735 0.0010033767 -0.00020949788 5.857206e-05 -0.00020997996 -0.0013000636 0.00075950474 -0.00018939839 -0.002415351 0.00017126516 0.0002470419 -0.00045814057 -0.0011897915 0.0018947799 -0.0016136505 0.0007513355 -0.00244669 0.000900089 0.0004313638 0.0011676301 0.0015122909 0.0011817823 0.0015568599 -0.0009914982 -0.00026449666 0.00046094588 0.0019822842 -0.001529414 -0.0019799995 0.0007065523 0.0007999536 -0.0018728736 -0.00035512526 -0.0014398824 0.0009347021 0.002229134 -0.0018820436 0.0016556598 0.0022154916 -0.0018674538 -0.00031564457 0.0002515391 0.0016340442 0.00028613274 0.0021013336 -0.000824912 -0.00076422695 0.0023816298 0.0023267844 -0.0017483939 -0.0009816934 -0.0006510581 0.00096393155 0.00016711839 0.0014997892 -0.00073480443 -0.0005845647 0.0006395987 -0.0022432012 -0.0008974612 -0.0015362045 -9.657378e-06 0.0016912505 -0.0006213162 -0.0020280909 0.0015558226 -0.0024525854 0.0013084107 -0.0015997579 -0.0014443656 0.0013977692 -0.0019853716 -0.0010215268 0.0017453678 -0.0015256462 0.0006072065 -0.0019092443 0.0011018019 0.00048427808 -0.0022964543 -0.00027647367 0.0008005163 0.0012047737 0.0020173998 0.00034882512 0.00076268084 -0.0013374243
LVE 0.0016453564 -6.4303655e-05 -0.00049453555 -0.00046794565 0.00061512575 0.0013741949 -0.001218945 -0.000991083 0.0017239085 -8.542358e-05 0.0023564757 0.0017537997 0.000484677 0.0021320453 0.0021964642 0.00047854855 0.00069692737 -0.0016064567 -0.0020687636 -0.0021756208 0.0010922132 -0.0008080675 0.001559948 -0.001113079 -0.00065541716 -0.001281414 0.0009963833 -0.0013546185 -0.00029107195 0.0016302482 -0.0008946501 0.00089390035 -0.00044802844 -0.0008640883 0.00072865305 -0.0011373865 0.0015657559 -0.0018990393 -0.0014001227 -0.0022480073 0.0005412454 -0.0017154817 0.0005267622 -0.0019168622 0.0011705505 -0.0023681298 -0.0016733016 0.0005130883 0.00016983184 0.0012630154 -0.00020722034 0.00075318 -0.0017668766 0.0014984164 0.0025070184 7.021296e-05 -0.0009554476 -0.002047767 0.00031042873 3.2858326e-05 -2.9322105e-06 -0.0014004513 0.0017095241 0.0024439797 0.0013420373 -0.0012971287 0.00203009 0.002178577 -0.00013256088 -0.00097196054 0.0025457141 0.002166564 0.0022259038 -0.00064712745 -0.00042575697 -0.00014015296 0.00054224045 -0.0006936743 0.0025517826 0.0010790154 0.000666221 0.0013815536 -0.0014452859 -0.0021840425 0.002240825 0.0013865964 -0.00031794293 -3.6772766e-05 -0.0005285427 0.00029087573 -0.0016453875 0.00065838406 0.0016976456 0.0020841656 -0.0020438104 -2.3172768e-05 -0.002492537 -0.001284561 -0.0001818392 -0.002370147 0.00023125116 0.00029237333 -0.00043471745 -0.0023201671 0.0010690134 0.0018331744 -0.00080071203 0.0008904519 -0.0022552432 0.0004968046 0.0024712738 0.0009125221 -0.0025090838 0.0006612057 -0.002155157 -0.0022550048 0.0021430799 -0.0009841603 0.0013258272 0.0002756545 -0.00069020304 -0.00030712382 0.00053385925 -0.0016829057 -0.0024108246 0.0010340053 -0.0017398382 0.00048441527 0.001738208 -0.0009324392 0.0021741455 2.4602485e-05 -0.000736773 0.0017800409 -0.0013814592 -0.0022139729 0.00020380577 -0.0007231895 0.0010544115 0.0018208408 0.0008778849 -0.0023921914 0.0015785976 0.0002625889 0.00046828738 -0.0021917596 -0.00023561191 -0.0013294085 -0.0017789366 0.000591435 -0.0003820246 0.0015428787 0.0013487587 -0.0006338642 0.00050967326 0.0022333565 -0.0010058228 0.0024390458 -0.00015986901 -0.0017296922 0.00021525321 -0.0011501107 0.0012082602 0.0013674597 0.0011655339 0.0013921082 -8.7289314e-05 -0.0022745116 -0.0017128848 -0.0021643655 -0.0003679555 0.0003457722 0.0022035292 -0.00013159023 -0.00049429695 0.0005504957 0.0024256047 -0.0016900295 0.00017682853 0.0014028255 0.00017864088 -0.00044809864 0.0015025007 -0.0011326913 -0.0008739103 0.0005698366 0.00080897135 -0.0004049326 0.002181693 -0.0010461953 0.00057204865 -0.0015129776 0.0005619629 0.00047238977 0.00044300588 0.0024970649 0.0018342057 -0.0023847562 0.002565788 0.0006865386
FSL 0.0013850135 0.0013882247 0.000380033 0.0010991016 -0.0024133134 0.00244214 -1.265625e-05 -0.0005312451 0.0024690991 -0.0015210756 0.0014144584 7.030077e-05 0.0017177456 -0.00015389567 0.0014460667 -0.00013426467 0.0003015077 0.0011795042 0.0020826505 0.0017663126 0.00016580027 0.0024226897 0.0023251618 0.0017215223 0.0022027146 -0.000567202 -0.0012980346 -0.00012650942 -0.0011343576 -0.00013943731 -0.000430925 0.0011866264 -0.0005405559 0.0011836337 0.0013800258 -0.0024031538 0.001118873 -0.0006571281 -0.0025484567 0.0015133992 -0.00045652513 -4.3158816e-05 -0.0016183218 0.0020042604 -0.0021555596 0.0023577076 -0.00066390104 0.00051149505 0.0023237353 0.0012144737 -0.0005824489 0.0013522966 0.0010416431 -0.00022414555 -0.0017338233 -0.002494277 -5.245489e-05 4.5661138e-05 0.0015747875 -0.0002105205 2.8673872e-05 -8.2911945e-05 0.0006760167 0.0010433277 -0.0010057096 -0.0015320872 -0.0020867018 -0.0013958848 -0.00035770578 -0.0012907678 0.0024981073 -0.00066811376 -0.0009912536 -0.0016633902 1.1020021e-05 0.0007330238 0.001006308 0.0012559919 -0.002026089 -0.0023672532 0.00041251254 0.00024413149 0.0024624947 5.331436e-05 -0.0017008691 6.6691726e-05 0.00091079355 0.00025586967 0.0023224936 -0.0020966714 0.0018493449 0.0018467688 -0.00019460784 -0.00045209075 -0.00219576 0.000567434 0.0017811126 0.0020400775 -0.00091942324 0.0004985909 0.00023638911 0.0014046622 -0.0011402168 0.00038028063 0.0023220875 0.00043247046 0.0011701453 -0.0009817511 0.002050615 0.0007714255 -4.0716284e-05 0.00085207005 -0.0015313805 -0.00017374608 -0.0013991278 -0.00041514946 0.0010995585 0.00059428584 0.00017267939 -0.00036509923 0.00029130958 -0.0021079439 0.0018814919 -0.0016576418 -0.00024167499 0.0007690686 -0.00096742023 -0.0014278826 -0.0010784129 0.001710688 -0.0019715412 -0.0011443365 -0.002187784 0.0021080144 -0.00077975565 -0.0019136638 0.001517664 -0.0014017809 0.002111381 -5.0830153e-05 0.00154945 -0.0014333397 0.0020253467 0.0007006431 -0.0022960752 -0.0021455823 -0.0007136657 0.00063292764 -0.0014830442 0.0015909753 -0.0019907546 0.0011962611 0.0020967154 -0.0009620522 -0.00014059489 -0.0019517294 0.0013039422 0.0005525049 0.002002781 -0.0010279133 0.0013603249 0.001815268 -0.002388949 -0.0007096206 -0.00035734967 -0.002101862 0.0006068558 0.002089658 0.0024500955 0.0006103054 -0.0018867116 -0.001968059 -0.0014849119 -0.0007422986 0.0006918501 0.0023324261 -1.219133e-05 -0.0016260551 -2.1047983e-05 0.001036802 0.0025365027 -0.0010138624 0.0014868454 -0.0008627458 7.225414e-05 -0.00039728585 0.00066721166 0.0018891715 0.00053637644 0.0004996886 -0.00077241333 0.00076554454 -0.0016544705 -0.0010868068 -0.00014009501 0.0021880895 0.00046311665 0.0015933352 -0.0019350457 -0.0021035667
GET -0.0020441073 -0.0017177603 0.000848818 0.0007077111 -0.0019487594 -0.001237171 -0.0017188841 -0.0021576227 0.0019453437 -0.0021967683 -0.0020391166 0.0017198345 0.0014035993 0.00062459253 9.200932e-05 0.0023281365 -0.0023724262 -0.0012621764 -0.0021386268 -0.00066315476 0.0007502897 0.0014744626 0.0010808884 -0.00072693266 0.00059221324 0.00016059537 0.0013009743 -0.00086453045 -0.0011732844 -0.0019738295 -0.0010279199 -0.00021140078 -0.00042309106 -3.5123765e-05 0.001988749 0.0019500541 0.001011708 -0.0006306159 0.0020782307 0.0003484108 0.0013753946 -0.00017587778 0.0006512335 0.0014492982 -0.00093610625 6.281995e-05 -0.0011494787 0.0015277312 -0.00042958237 0.0012934854 -0.0023634036 0.0020357224 -0.0008039474 0.0010746741 -0.000348724 -0.0013129838 -0.001815987 -0.0019730579 0.0012924541 0.0015960484 -0.00015193946 0.00021060201 -0.0006898836 0.0017892248 0.00016130386 -0.0011628657 -0.002445417 -0.0019922345 0.00062761497 -0.0021807032 0.0006017968 0.00062207156 0.0015342003 -0.0012583202 0.00014567078 -0.0015389762 0.00020889119 0.001659862 0.002419365 0.00037556628 -0.0017140382 -0.0008082089 -3.459989e-05 0.0021310796 -0.0009835002 4.4712902e-05 0.0022790064 0.0019393357 0.0005115179 0.002461222 -0.0024423397 0.0011506826 0.0013437098 -0.0020158675 0.00016161666 0.0002701369 0.0025203156 5.354339e-05 0.00079616206 -0.00034883144 0.0016230517 -0.0017442548 -0.00048754318 -0.00083359913 0.0020212114 -0.0017895143 0.0023582901 -0.00044827707 -0.001985802 0.0008083062 0.0015388853 -0.0018059745 -0.000879348 0.0006402422 0.0020237993 0.0015237308 0.0013993975 -0.0017084323 -0.001839335 0.0009637581 0.0008731277 -0.0024547135 0.001999161 -0.0018686956 0.0023790395 0.0022541902 -0.0010215929 -0.0016957916 6.0830676e-05 0.0010281748 0.000179725 0.0017973252 0.0017954925 0.0015063278 -0.0020204352 0.0021772683 0.00054130756 -0.0019195385 -0.0016804582 0.0008567746 -0.002489421 0.0023882529 0.0019685642 0.002283007 0.0010102139 0.0007407883 0.00072097615 -0.0012861167 0.0016236801 -0.002341424 -0.0007348207 6.735344e-05 0.0023719755 0.001404608 0.0008445559 0.0019023028 -0.0022235664 0.0022190183 -0.001620005 -0.0016818967 0.002349131 0.00071496447 0.0016801673 -0.0021377783 -0.0011169935 -0.0004936813 -0.00083823304 -0.0013498138 0.0023985682 0.00059122 -0.00025301802 -0.00069266494 -0.0009991467 0.00042464148 -0.0006095887 -0.0012749123 0.00049861276 -0.000461801 -0.001474889 0.00050261465 -0.0021689616 0.0006351538 0.0024114004 0.0008278301 0.0011813276 0.002472646 0.0011260579 0.00088976114 -0.0017275591 0.0012524588 0.0019001459 0.0008744819 0.0016688595 0.00044464928 0.001144017 0.0005791368 3.812089e-05 -0.0004551454 0.0016960996 0.001657066
